3.55406845676811,2.29704457468703,4.98036786306829,4.2222465468045,-0.643645902720724,4.07775006137473,-4.9013707859972,-0.609332485314124,-2.16529160413541,4.87851968644894,-3.09802642831582,-3.00822153758235,1.46369084494684,2.73148779635584,-3.58934704483575,1.34778303395518,-0.305489631785563,3.29362840671251,-4.49401874244616,-2.67204794829101,-4.29896083099952,-0.221563654631872,-3.73556022969833,-2.98709871587984,-2.71571854723924,-2.47998527824918,0.865921638980933,1.68411914578836,2.00946797949917,-1.18125534174504,3.07898459464964,1.46508651635748,3.41734695133279,0.808230201126735,2.36896378133543,3.73783685939969,1.75800963231843,-3.97423083316802,0.334980219736014,1.88101312145672,-2.77650618554999,3.09059141515628,4.08221346491168,0.449887635264851,2.74314240358062,-2.2463559799418,-1.71252226095804,1.6856559851095,-0.989563206856812,-4.96706944861726,-3.31815906303624,0.448377876362938,-3.68837333349701,-2.89048521697942,-0.709276496499617,-3.9565624901765,2.32032330083262,-3.5499148287857,-4.67531198255465,1.62686871282423,-2.45399515560984,4.80475452561877,1.15867880894908,-0.472104916187258,3.292052817625,2.35816717399912,-3.94569296453341,2.51001840308127,3.79512335952949,-3.6619747284392,-4.43682557261726,-0.410362366646917,-2.59728358618528,-2.81477414254033,3.77912782518592,-1.09090875236436,-0.950224461448834,-1.45572678723229,-1.22646034726872,-1.20175479656913,3.26165485222319,-1.76798469216801,-2.31872570021138,4.72423754878374,2.47184125353655,0.481665387692262,-4.25703332137086,4.24172994832083,-2.59436933076524,-1.67880030195495,-0.0411826871334464,-4.04478811860427,1.64738116390537,1.06603265971516,4.85784845133461,-2.94988688393306,-1.94698744473894,4.408379749076,-2.76320851334402,-0.741603340805281,2.46112649713039,0.988715757698392,0.574178869190317,-2.06684632097704,-3.44290494787304,-2.95325376158256,-2.71843981056939,-1.27719011974065,-1.0917650374193,1.99307650556492,-2.7472447706495,-1.06008683848331,4.9512496944254,-2.01604311919477,0.195303353714972,2.97619967015754,-3.70572405297067,2.97480933192901,4.91798738462035,-1.42095424409409,4.47465027947458,-4.87664538977869,-0.468872745810005,-3.00186559564044,2.21191823264885,-3.64870848966657,-2.19235618129155,-1.98860085966161,0.589721373318832,-1.18004070095884,2.40012189318587,-1.14818743863338,0.868685790672218,4.86602890824817,-1.18245050206838,0.281405174127918,0.795477549159713,0.775809442201736,-2.92099582072009,3.49208662698178,3.17281721834853,-4.0890581642283,4.59611040619745,0.875247769818556,-2.04711367850031,2.1433230491374,-2.12019826673452,-2.57541429068816,-1.23477416800604,1.83218664476927,-4.94206616673551,-2.39599383372863,3.05295014539981,-2.1568623509376,4.85749376828409,-1.83779600286461,2.60788184159236,2.37512000590661,1.10714051705544,3.81865636520642,1.49157248552082,0.604536107981276,-3.97972687874546,2.42427699499885,-0.530349622962611,-2.81130833255462,-3.11365823193832,1.01717904231379,0.60577618233531,1.62734700880641,-2.21606833338194,-3.1796294193701,-0.330306883376408,-4.62490598065371,-4.13754574620885,-2.55708645266434,-3.58119672171377,-2.93562960227671,-3.56654017819383,-3.0512931798165,3.1438556832771,4.68260962211534,-2.88253742274843,-4.72977181171389,4.19431424671745,2.15539959912577,-4.7105597823505,-3.75764203696233,1.25710620749692,1.08726280963321,-4.57217274008764,-2.20040549569602,-1.25846116998577,-3.71617959135363,4.08411830001431,2.02803256964613,2.54691116542555,1.19068396450854,1.93698759921075,-3.19649890201743,2.78455160705841,1.61416587551983,-0.348923498113967,4.54624596494651,-4.04213685514947,-3.10496954708186,1.7419253903008,-2.61248700264146,4.11672109526066,4.24016300695851,-1.55795698911561,0.300042124228851,-4.09875716964554,3.26146328585924,3.0753068167538,1.39130814429518,-2.1084692388086,3.03607884367279,3.06960296419815,-2.14851975468543,2.94740241512569,1.36487428403378,1.21211413913726,-2.50439923395288,-4.5023675550208,-3.25453711460442,1.41496977942335,-4.49368551600528,-3.41521399012956,3.49993508701404,-2.61160933419752,-2.25909647880108,-1.88340095486538,3.29889363199223,-2.23152950776957,3.89679784277757,-1.03526966137026,3.70216353419628,4.64620270403466,-0.0015319330837915,3.48464162675173,-3.43003340004204,2.24706384053567,-4.55737731606109,2.46213828456355,3.88938297968596,4.63604499590012,0.928090467683279,-1.95113967749246,-1.64768938082813,-0.608264638293008,-4.48250714742997,0.896728891266589,2.18165394432324,2.93491020570831,-1.62531394194436,-3.73810221681642,4.45053591520592,-0.192276824730325,2.73346610352399,1.32009438444389,-2.08371466475762,-2.69995702009647,4.67598265085366,-1.53476582068753,-2.77361633565085,2.22748146215606,-0.976355721023887,-1.78197024968606,-0.477486332945144,-1.21300676177237,1.12323194075586,-4.74421834186672,-0.579082121269314,-3.55595861108539,-2.27003577205305,3.00083770708548,4.50426712707478,1.5649107764352,-4.53278139566827,0.786103263110075,0.583794377703022,0.358994981131356,-3.87639873008939,4.00512122274384,4.20555484768708,-4.2766888829656,-0.922045009171317,-0.0946139772974108,-3.63030891662578,1.77905272221775,3.9209637242942,2.32453770314792,-3.61774087127776,-3.71966254491165,4.9180457249459,-0.642570724587426,-0.580283485521385,0.114903037331716,-3.93902761282132,0.383317173077898,3.59181931018329,0.534499724533514,-0.705460625076008,-1.37433820232331,3.33501509146685,-1.8731851081484,-3.19700321539995,-0.113821420758676,-3.68206637721586,-4.60510201007811,-1.79268651579749,-4.95202433019032,0.0015300624761094,3.68372936271756,-4.82226098152704,3.5901860568016,1.17650366219938,-2.89158339673727,-4.75825468149508,-0.108529082228741,4.56997673059072,-0.609253185639889,0.70337777289778,2.58912255341249,-2.42743144450573,0.895944824622966,4.7485210916103,3.38554061805825,1.06541006590216,-0.479269064502995,4.87348626157855,-3.65641974388945,0.842104759384354,-3.57726965737523,-0.904111296176201,-1.60682007293511,-1.39333123639526,-2.79829568782036,-3.17570625211475,2.65701130657769,-2.96794776959518,-2.94653059917414,1.75013909455835,3.71791849976185,-2.00536759585508,-3.85810087721519,2.70843700038025,-1.59460571169843,4.59781194361282,4.21995724712598,-0.447482378343537,-2.73467898675999,1.15191477570284,-2.2288769965903,-1.75363033458805,-1.05046206166139,-3.76529815987385,2.3743265078944,1.97060595539805,-4.15598167993339,-4.36617311852619,1.04224969373265,1.08084088162549,4.53948344512282,4.18667417776515,-3.67223495235654,-2.64351926042641,3.72200665118955,0.319805699040477,0.883888532678373,3.81316297711026,-3.96488576993789,-2.18272863110529,-4.67333061045976,4.78479096833251,2.57669955764408,1.85311456325777,-2.13540204321834,-1.80794503948727,-1.67591057249136,2.7560911411921,2.63625567992835,-4.64096990153679,2.82970154466614,1.33350792609809,-2.00416866809293,-1.43937826722872,2.68365144766075,2.12924628990249,-0.698163134928664,-2.92827783914627,1.52209159742953,-2.75086539222679,1.87448699608336,0.305540077064123,4.9782823471779,-0.512718682223097,2.54358980532297,-1.64765332155209,0.513209928203719,-4.19353557612627,-4.24592962813908,-0.558289320004201,0.26079805653537,2.13407747730233,-2.20088851982296,-1.00290338381204,-4.78016817626759,-3.44915762348003,-0.657048765422971,-1.81331822551265,-2.20584148829091,-0.559361810774367,1.07256565437792,-3.24308394963151,3.89840603273809,-3.63799883127876,3.99904011369233,-3.10841864102947,-2.73380422861273,3.8449390694996,3.8366065775875,-0.115724375989661,-3.85066447090372,0.954618551556921,2.78344071867738,2.02754103438627,-4.44831138276879,-4.73740610517092,-2.02994276498233,-0.370554681499339,-1.60422398973507,0.125521106639448,4.31824546000399,-3.7861355600715,0.293462266236476,4.34542569723534,-2.21279514124984,1.35169200793191,-4.6253043564833,-3.50031742221475,-3.53991369297951,2.84821723498451,2.58198242014495,-2.74219431120143,2.07039064671433,0.573408798049131,-0.893911626035223,4.27334159718318,3.17466335619453,-3.5413153662615,-4.46406629206444,0.152024266615616,3.6199316997284,-2.75367913129681,1.96121524532215,-0.518292282254215,1.56273224894634,3.37638692749723,1.591795663134,3.94403823449729,-1.30169658457393,4.64791058846942,-4.3095665437153,-4.01619711691345,-3.43067638117473,3.16744874057483,3.72484741357174,-0.914501215751915,-1.29920015801817,0.587255419155885,4.70329659874622,-3.06543630746503,0.212360563183397,4.10021395884118,3.98543285223932,-1.25834154945875,1.09287832683848,-0.169675151135373,4.81669426487243,0.183325537473614,4.97748586697282,-4.51788536502732,-2.50020387107013,3.7006364148815,-2.29078379605739,-2.5547916143799,3.84687066381543,0.556552563656604,-2.53231082992594,-1.78741509626248,3.558670581271,-3.36006848713602,-2.85507848781688,3.24383769809558,-3.83148819936947,-1.98193885508579,-4.59915274725077,3.01637620376493
