-27.8006828910261,37.9937031201279,46.0226715285694,37.0483087001483,46.4915292526365,-44.8857196898653,-39.9172727137355,7.26186488077992,-16.9746748040494,-26.0359560387775,31.464201155786,15.2270785987701,10.3984141096284,-36.3519906178725,10.4603314233283,39.3762653232287,26.0531540416741,-12.0221610581783,34.6132822450765,-20.7519540369233,16.8913440142151,21.4317590312161,-26.8967124826988,-3.03335150618307,-1.53793920137046,-12.0927357192459,-3.14264972124155,8.70775927218112,8.60231012050868,-20.5253355051027,-7.55012192240413,42.205218036744,-17.8750957697325,-31.0602298365986,-10.4908170191305,2.77993576896584,2.91153595962532,-29.1798833727548,-27.6077379375411,23.7927428662264,13.9628711202751,-48.5356196899499,-3.95141572951481,-8.31939991366217,-4.94279853514794,-13.607729395422,41.0030629737496,-26.0157941557732,16.1847781614517,-42.5491635728256,-12.9377238229418,11.5712456656183,8.91385892379942,-38.4620164890376,19.5630585736519,-43.4748409809045,16.9939390246434,-9.45275684669539,37.6380620415997,-35.4167757601446,47.6760791805095,-35.2929236419439,32.3009953738357,11.3032840142492,-41.8692112384936,0.642580576567564,1.93102305961064,-24.861485246622,-43.1381471951759,30.2743359062437,5.36397455628724,-6.27071545535854,-26.2441891039018,-36.615200823376,13.470725473322,0.542442691128797,-21.7951758220881,9.57791000163284,20.4386210116659,10.7468737685217,-8.37219570258057,43.2511184138563,-3.54840829342765,3.79095546033358,37.7859873910552,-10.6179323216452,-38.8129069442488,17.6476763304524,26.5106315294111,-5.91932905188541,11.2063157307083,5.51739252322875,-4.24281242892726,48.6696929888445,-18.0631872548334,49.9864617865807,15.4003198513553,-5.25362647546265,13.2223880281178,-11.2582468544252,44.2974055068678,-39.2361502060552,-26.9481775948765,-13.3446935494275,25.5381505085743,3.4719413611547,29.5999048068472,25.4145884129624,33.160530093575,-23.5170910013142,20.7174651492621,-32.9844582500868,43.4093144506953,-9.90444253782036,2.45780137195201,33.7420869451862,26.0816016212047,43.9858995682738,-1.39843586299885,-8.81288668293626,-21.1525102101397,-19.7881463406632,-30.785777999578,-10.8683820928517,49.3491437476073,-5.91786280053873,-11.4111081676767,-16.4005099237347,22.8793222257957,11.935399817648,20.4791853024175,15.4581527231099,-28.1200973649208,-39.3920625732307,-28.3946431612201,0.900029252635681,48.3467698318086,-30.9403406102651,-11.0377890730403,-46.2742075864266,22.3620276274742,30.4594201406437,49.76782871613,11.8113380348099,-26.5778088680798,-39.0270115672218,32.2455765257256,25.6649127215179,-8.72293608032028,-37.0695951469451,-41.7865874650986,22.5487371868933,9.58867388589916,-5.38152564855603,13.5852967179764,10.0493788401238,-10.5660336164057,-49.9509743690459,-34.0441465834399,29.1833508423903,12.8651146016789,-5.96374114907334,18.371371826404,-27.2261065944755,-33.0825005460026,-48.9163798778019,26.7804611381488,-47.141040351797,-17.5278118573644,43.1889606311507,19.8709593710851,44.7698711717461,-31.6861840633351,-34.1051491931285,42.9069171094904,-20.5683186389878,41.7891671312537,-9.69828012077653,7.21981902540575,29.0064672443353,30.0959283046432,22.2440122555318,49.9063927519566,-34.4728160660969,-42.1784981117461,-34.1681481452317,-40.6662356128631,37.6599268949307,-34.4812515721384,9.24978925664853,-0.650698365112024,-24.093223885678,-28.5265594381537,-39.4821727222092,-6.58208684583609,-47.7582523621749,-25.3502672923691,-31.9868149198918,22.8291894070813,-13.3554450650651,29.8404412932354,-35.4961969809883,-46.8813247421663,10.5807103027226,-6.89129380067601,19.7134779271295,29.7002553806336,22.1447723222425,-27.1941106832042,-14.068116456392,-1.25918587809845,18.5436956334862,18.1683449616394,8.88987467684964,-19.7946516017701,-35.0891934583357,45.2743976387682,11.232030540563,-14.1786497239204,-30.2251204183189,-22.837879668917,-1.89016781378191,-19.5881970810254,2.91334349308374,7.88921293720913,32.8994506345289,-3.74930414443224,49.1652993436927,-36.6825905252525,-7.28551234508644,40.6846381387509,31.1767208076921,-4.84488533918463,-36.1500799785229,-45.6091970349221,17.9463072414824,-0.365137821367012,-5.38815588264203,-13.7661274288696,-45.6569930137226,2.52234043066701,2.38201053348968,13.0870143717969,-44.7192084584499,-2.04803934355786,-47.2615080810121,35.9423684098276,-17.4743894854318,-16.8634439895523,-12.3145892389113,-20.244246510645,32.5635276864266,24.0882619840891,-49.2299890336565,42.8079394840502,49.4125215416623,25.3454120303934,-27.1480187508849,17.5977150883429,23.8410508117754,-23.1787984113506,-40.1477585447767,30.7843084772038,28.8347300016189,31.0701980024698,13.7759435544791,-38.5564166716374,42.4471284747899,20.3255932514138,-1.75354079103898,7.63559205075133,5.82364386926075,-43.9206500063022,-21.2366319005434,39.5676134012725,-34.073161413225,-44.3999677580975,-33.5437850617293,-32.2766981413433,5.04395901797319,14.0842114027548,14.7828636594757,17.8105162836767,3.82885730389425,46.3111625171983,19.1014287133239,-6.62351576997784,16.8792071235141,3.77402665562756,-48.1371456685832,-40.1889394532415,-40.1635234141768,-26.9196110578056,31.9520741746477,-31.724143496417,-18.7223971769324,-38.5291396163836,32.5425230073461,-15.395911977977,6.60089327158494,17.4521490364817,43.4922110776978,1.7601969047046,-41.8338905941748,15.2021317184391,-25.0542718826097,38.2969492274988,-4.27857129967724,49.9979148477846,45.9420928696683,48.6082819496426,5.60296270514727,-26.2745043300041,-37.6873929836602,2.66466625527376,44.3600395447437,23.8849949017407,28.8663494996382,-38.4885825674453,33.6226089494095,-23.9043293673185,-0.627634817466571,24.9460906630297,-48.3296078281459,48.0951556572435,-16.3044774756223,48.7977119682882,0.482813982669161,-44.0615753551522,38.3128355654018,-49.8886003743867,17.4058962223224,15.1536736435506,15.0048313440742,-20.3007795052121,-36.7634425195957,19.6711996730014,13.1533953030613,-9.70209538747512,-34.2168295117164,-11.653086140586,9.88591724091967,8.5406513655212,-41.8267700675647,4.09594015545938,-45.9005522091425,37.6042684123757,-40.383462768178,-47.5146853179152,40.3507765303571,10.3047752026985,17.2997513631604,12.2858531880615,32.0765711004838,1.62280480641084,49.3838540523765,20.8434984770405,0.82221989862169,2.43729443540217,-27.797011261822,-24.4559502671299,44.3669656006676,-30.8961379232983,44.4573594281828,29.1760807890077,-36.7826158127798,-26.464646439336,12.7018850671059,-2.3782222384504,28.8764208436406,8.49769257711817,6.32930793252502,10.3323457310387,-14.881186563891,-36.1863455103471,7.07872795646038,46.7791314839029,30.9834741516805,27.535081183687,-32.324969733644,0.296226561935065,14.4442437059398,-5.29613573801094,-0.176969039981878,-21.7680093865823,-22.0516488572963,24.7703034974967,-22.3580297443159,19.0653164717334,38.5708405903413,22.4146403877984,-36.6803977188911,7.85333523882828,9.23687407821575,1.26099519522221,-42.411712867363,16.7249113183577,39.6851518705074,13.4792467555962,-10.2516717184615,40.3262863523124,-3.51315470466843,-7.61121898887407,16.1628135536549,9.92137642316703,14.4425197734589,17.3124935546496,49.5126114571956,48.3019606869975,-46.1926746794905,-1.33834042704384,-12.9028567451588,-39.7773973077826,-30.9590103652984,-22.3767695936769,29.3400337561678,-36.4870495840134,-25.4167671536875,-4.39488073664418,-9.64586205138783,-21.9092793144245,32.2180620593821,25.3741655868052,-31.7582959078117,-11.6528193119718,-42.0009488216843,-24.234532703051,-45.5522287619848,41.7741944320792,-20.0768304643377,21.0810857815869,8.97612322999927,23.2950270218804,39.2700975714011,-36.7039472553801,-33.6834481447871,-38.9694204485512,44.9486467515984,8.33000092668824,16.6948709889269,-17.0421707817619,18.0132255316717,19.1509936332408,-33.9120090557757,33.1847245016116,49.575650924893,45.916703617252,10.4785095987947,-12.0669634550194,-1.61815435358604,19.1702881606546,22.4110357226571,-3.36405792832896,-21.2645679790309,-31.157868877636,-35.633253414217,-33.1897220794368,-28.4829474435536,-41.392391942121,30.5497497491073,1.15799281213238,26.6033053364329,-44.2679937725278,4.26196048629334,-20.5398119063815,8.3359713415924,32.1314000878656,-28.0333487571842,-35.2364939160369,7.04410571708292,-4.58798938812697,11.5107173971721,23.3995963224126,-6.51163680288139,-41.2525718045167,-24.1155010886695,13.7339830150307,46.7007061553999,-40.0846559612607,-25.9054461283798,45.7518629992264,34.3988784473951,38.4462632396326,11.5207545127353,-4.96067292179674,3.12517304899179,-23.337444153861,8.41781917990357,-37.2912174646737,-7.97682136893207,-41.8371362792059,30.7938687963198,-15.1785872218855,-36.3988797205151,19.494011519156,-33.3980382181185,-22.648168497319,-15.3990145165403,-25.5710687847198,-46.0522489578756
37.0732306177376,-22.5913538007775,-31.1585344404065,42.274961394567,13.1766052737745,-31.1332264206892,-11.6590933932885,-8.86163842206235,-41.7261430920012,-27.8517239957005,31.0285529182496,-25.8140945902571,24.8575810554818,-18.229979664741,-19.0769228526523,23.0591266006702,-35.7124202120669,-0.298964992494488,7.53746650591521,-7.43559879607746,-12.8595052984553,33.0437700376241,-47.3962755573641,-21.4818935729525,-40.2613755265774,-27.6311922601387,-43.858597850664,49.6611099916773,-5.6495278517396,-32.2306412719778,34.7592948678362,-41.8371840235746,-48.590211588398,33.9900821716538,13.8666701946484,22.7295475951771,-40.4922935899562,32.9340621289375,24.7610128145127,45.0551185434307,-1.49727531243905,19.2855948665907,23.463452697969,39.8063631580873,-34.3640494023609,-36.6605336110406,-13.4871162008497,-16.6347695056293,-31.8426532311475,2.39796263130855,-7.56941957316889,-14.676300038581,29.94951298007,16.9830851054741,-11.5041811630724,42.8449814212937,12.2705372743424,35.6961839405153,3.50939663224967,-42.2547424848665,2.58328535793014,18.8540162602502,18.0535285790488,44.9828622164294,13.3391776382595,49.4244253048272,-42.8831983084154,5.02558468786566,14.700278643566,8.23759539283118,0.32717813255988,-45.2830197045343,26.1533502855088,-34.7130284189117,-23.3040791984269,-38.068844154509,-45.5864975524436,3.95248396296091,5.08157301528834,-28.3512550567281,-7.68302414121664,5.53182577460482,-28.4870594177692,-31.0014281587789,18.397632166075,46.9255096959795,12.2084677213795,39.9914008364835,35.8910161363179,-23.8227673246943,33.8039944528631,29.8451605753802,-32.8232428102319,18.3560379525392,41.2882556827123,-37.0088707430922,-1.69207148587756,19.143091729576,-25.4825496273719,36.4144299302399,19.058512213409,1.35228350147183,-2.92550082902472,21.8588413579637,-42.6674239882405,-35.7892614297609,48.8075265609707,40.090819591216,24.2174522680099,-8.0431232844815,4.12418361217812,-42.5276899062423,17.7418281439926,18.6940130457262,-16.7713725321685,33.1699376179729,17.6933868855519,-26.2142880167339,-20.8185287313135,-20.6019427002056,10.5485934514601,-15.1386593510414,-34.1758084762506,-35.0224489062839,-43.87126355218,-46.338341421946,15.7517100233199,-38.6180447476236,36.9436100187128,2.22272470217633,-27.2985727451713,18.5983540228221,-28.7930011539731,-20.6747499648795,46.0520092061571,-5.52772662729273,-24.8027379331999,12.3282636918953,-4.09333795195834,48.9432690185638,-8.97583662935723,-2.53428925404904,32.7279209525997,13.5289613155398,-46.9948795339274,-32.4059267711827,-4.41376529344548,17.8694105885565,34.5438862200918,24.9399000694086,5.33498520606612,-22.9632370190864,-7.57421224811456,-15.480275251718,-23.2638980046353,-16.7844076490184,-7.23630215682354,14.6374648397893,20.463631186555,33.7087618839443,36.1767630704913,-16.525293299939,-8.44709365447945,-21.9807071609969,-41.8609897953565,13.3891299657775,-48.11192337631,43.0929678985557,7.89543938567706,-0.56929937215584,-43.0647127043045,12.606321133705,40.3527848218729,18.3363313460206,-5.34258984944415,40.1899625496592,-14.8330990480326,4.60083941318243,46.33419242928,47.5646293870286,26.5223738152265,-33.0076440367612,-20.0226718356958,6.78226863375633,-21.559787129848,1.88813018436956,-37.3246024889125,34.2180661955318,-36.7864655261197,18.7262745708442,7.48660961413459,-27.0238463853271,-12.1470176088278,-44.7403165178228,-13.1721800515216,22.4813650295783,-28.1917718894915,-29.1603395126756,-29.6287427407737,31.5580038054022,-45.56252850848,-6.72959809625986,26.353022695418,-4.35990868620774,46.269104067154,-6.19804788189845,-41.1411505421484,45.634793388133,32.0823047987121,-13.2095462215855,-16.5342118496968,20.9988080647554,-46.2757993899432,-16.9224631357704,-7.70189810894931,13.7348000464144,9.84932145890974,-30.8922245258037,-6.53971702304733,14.0666880804314,3.59542148606796,44.9151277571991,-18.864171931303,11.1578421232674,-28.7932160209258,-0.370325981336606,16.3366436308863,-20.6782025751661,-2.26356179019065,11.8932923952012,12.9570480342481,-22.6865258707894,-0.450265525248339,32.0064870398626,24.5067577454774,20.84813051354,44.2562507539723,23.3357235630809,-23.4060485577597,-13.3804635530492,8.60653744772895,1.86495976597243,-17.8328351291849,-14.1831238542704,-15.1744584677021,-48.6119427941155,14.3039887448794,-16.5937134444136,-45.1749063550849,-9.45851152418948,-49.4114925760122,-19.8801912754425,-23.7410320375925,2.50977716459165,29.216307390358,-46.3264934460732,-39.1616613585217,38.3484457908536,-43.8362254254981,42.8299870866123,32.8226399153969,-23.6017238308471,-39.0871853693409,4.51561481597447,-7.06145181141009,-14.022152768432,38.0514164019473,13.8389576892183,12.0842488329004,-31.7781765815577,24.5363311859686,-9.54664073146553,33.1336643204521,18.2387550849829,-44.2112949519888,39.4239725465463,10.0774185627011,-16.9156378660565,-42.1108744994145,8.90691356623416,-12.6691725712932,31.8326863885406,-27.4212760679618,-10.9726041470525,-36.8313246864156,20.1283687375298,26.8410046242531,-29.1853498774994,26.0482884063984,25.2820076787518,23.7211170298205,-35.1691564453536,44.4525152952104,16.842817216519,-45.6829239494486,-34.2229433595955,-49.6134958165647,40.4680664711082,24.2456857845419,11.0998179386848,48.0915557500693,35.3882977936828,-0.410149010975946,30.6538118022669,29.085233259443,-8.09588133349841,49.0847259141225,-37.218896130996,-37.281919248532,-40.4674919428686,29.303808937824,-21.2310563961239,35.6655700085608,-8.71779321287489,22.4291036475571,33.6527999057875,16.5848547128099,16.0426452521146,-10.595286330799,36.8766827247903,-5.25474897048632,-10.9575112364891,12.3608659260437,-30.1985552402664,-41.7873819785737,-19.4065923128719,49.1337591666605,43.4569985489142,-7.25343868394328,0.759011723600478,-4.74552027338008,24.3378863393412,44.1790280943917,25.6887845674401,-19.760541180508,-32.5822163227111,-20.3091987742169,-9.70775593473129,29.3934912587767,-11.326421876085,-43.8080063869911,25.4937792739499,13.5232561748073,30.6383132591473,31.9335439745355,49.5292504636385,41.5139297491256,-2.64067601430256,22.7228350855001,4.76086940313565,-30.607729655968,-43.9219424538276,40.2486244870023,-37.0186657027765,17.0018477836503,-44.1373480254945,-32.7636538760578,2.10193810067792,-22.7690156942878,-47.0322253111883,-20.9493409237993,7.71757391160852,31.8587621876257,-1.66103487375456,2.83475135020396,-28.4970708218529,4.32650162975495,-40.3541719866916,-45.6876923815501,-27.6861930531651,-32.2192659137372,-8.59698262703306,-36.2555030381145,-14.880050875966,22.3493767359061,-33.6925646714524,-35.48404384005,1.04644759075565,-32.8230049083781,25.362504128616,3.85738067265231,-27.7298463474082,-0.970086474675269,-23.6876208529211,3.73404710409472,-15.0041977698153,-13.5554789828946,21.276755973467,27.4300115773868,13.930131745723,-35.5755344498963,35.282572657399,-10.1433620728878,45.1801159013243,-26.101200746891,36.3092411893819,-17.7178777040011,-27.7164065899209,5.51109870763593,-12.1892489689355,-38.6242572753378,34.4421190284031,43.3506042293896,-42.9828893226401,-46.8740703304091,23.456186441679,10.6209387559165,-13.2213862662646,-30.5799634047513,11.8591725608887,-37.018139072023,9.52345582240002,-6.85072412605338,-44.808996488907,32.650781108973,38.0153684453241,-27.3941028660369,-40.1260941390219,33.1312543490758,-33.7713431277928,10.9120708771505,33.9504845887255,45.7966379013002,-1.64187858905576,-22.2867168775701,-15.0814897163412,0.920765184851624,46.5457794511988,47.8460088003947,-21.7042504700752,-13.0187001046686,-14.5485536249822,-28.0585490436693,-42.0756231324615,30.9180985303945,41.3352878240878,33.2930878254323,11.9324509443987,-33.7606039589906,-15.1123599159344,-8.47078100626096,14.2496499068281,-41.948801788307,47.2287444277557,18.7511319930111,29.0117078459431,-45.8811681322502,-11.386427664938,-25.8123166480638,26.534562158606,-38.4913438499422,-10.8661973986714,3.81265683685788,-26.377180472058,36.3026323340926,28.2399425956781,-2.89940557709316,-20.2454043146334,-7.88277986295426,6.32887768434096,40.9546668964832,-25.5472514042037,44.4963787941676,11.4235121028195,-23.9099399047594,46.6896124425213,38.7865135455706,7.73242329022593,33.7496313744899,28.1228097150468,-10.1733577295527,-14.9838629106793,-43.1030397949459,29.9807959508502,19.9638050486541,33.959995259008,-3.33868346990049,-15.1334243496874,-5.22084643424509,41.1491632099182,35.8195267909487,9.55611312897127,17.3428604338485,-40.9364727621993,15.7120387721225,45.7043867889747,3.41486760344833,15.6443586063113,-34.9126586914656,11.8323193436308,-41.567584695373,35.43352571132,27.2733175512635,-48.1369226089875,-47.5400392899493,-12.5767349305725,-32.4090987689244,-2.95136780716306,37.8028127636986,-3.22220414567151
-29.3280844660574,-8.57649809189487,-47.5693438370513,-49.7785787467556,31.6660202615362,-13.4522232087835,1.03547973392479,48.5136797695805,2.67175654585914,-13.6400203195894,8.93738782337426,-46.8869936581594,25.5863831260614,17.9182680871091,-25.4369001455839,-0.223198073579878,31.1944191557424,-16.1661351027137,13.371647729067,7.11786015957309,-29.3497321417169,-36.7094203605804,23.1183999868242,43.8242093342152,-12.9137233547682,-13.1757598174082,1.97664884520465,-37.5737160381716,13.8134874617744,-45.3434376267303,42.7121403354418,-16.3341555289589,22.8069842185773,24.2941723285633,2.60342792060805,44.3822912511179,-6.42613494297844,-20.0746364650813,7.73827155992554,40.5326606017049,19.9558679713804,-46.5679634728552,45.3751017531284,-20.211487316157,-38.2441893178669,-22.9581903851252,-49.5526574504907,36.0530646521499,-34.3397921790723,10.0807117026153,-48.1639311220114,32.0007539213412,-13.1604983770238,2.5169411981445,-9.61103568142116,2.80542421548592,-22.8179317930934,17.3018138896365,-15.8266588448795,6.86438235684668,-7.50200229820571,-33.8661202194614,-43.2890030002947,3.24771182970127,-47.6562366009974,6.25639010576898,-7.94137115590624,28.8487255597937,-44.9040401783186,4.15008793567033,-29.9825586429847,16.5723132332558,-8.42210579479318,20.8407518248208,-9.20623871090053,-24.9075978823835,12.6346001848284,-48.8543349372774,8.81006849733352,14.0161493264449,-21.8851708358474,34.2536779326778,-1.95489372446986,14.1702840271934,32.8258346518707,-32.9090162909342,7.85455279610922,-36.2088327312862,-1.31790081281461,-36.1207981075735,0.341291301558277,46.9821097887347,32.5848593929001,1.88437877256104,43.7348994831123,36.8747036714036,36.6154026337709,5.6620388616481,-25.5645736880427,-10.6621051537017,4.47051067156133,-28.2953959844419,42.1492622149395,-13.4956769890501,6.90349120643552,-26.8851333232853,-16.5245055710245,40.1000879324008,-22.3107584110184,45.9167991797926,11.9587012209072,-21.0999261837558,4.20133996436715,-10.2823625285665,37.5439119211515,14.6316954928896,15.2489805962126,20.3783637084744,-9.35605513620066,18.66707863694,-14.8674141622411,-14.4989254889452,-46.7900504026642,6.77601735687704,-4.70085745210067,27.9222080994661,40.8183280881142,14.0701202591069,-45.3639289540752,-45.528079748433,-5.94221227589371,-37.9917725700597,46.6207932487742,-5.46308049727287,39.1671917869046,14.4729040508354,-38.0481108139794,-17.420500433686,-8.96296356375406,-6.81162356205023,8.5823623241563,30.7509364902746,16.9279765488895,7.17792243993849,-34.2544125738022,-48.2002180423837,28.6232219288432,17.2851428318593,28.3473281135299,-35.7476435792172,44.8650634032315,-46.40088968615,-0.936182664402685,-39.4096490344649,-10.5948727795045,7.14393802336281,-45.0583893969591,-11.9604162233546,44.8120162158462,-5.23866721707221,36.1807431350804,-14.7218025156664,-25.0158098576196,-27.1610718219965,7.10700402955698,29.0749819634708,26.2027901344947,-5.63286765822864,12.2261743973941,-36.0843841798446,33.8730697403842,-34.4171158395315,6.21609025489364,-9.54874560150947,5.61412565209335,-16.9514940857548,-10.9983265403217,-37.6864911913664,-4.92599449662198,-25.5643574451088,-1.5385353603354,-42.3087987406849,18.9070646894986,-15.7511287939376,41.5224157680099,44.9556430715117,35.2993749085453,-1.6216198773421,9.88128188301177,45.2652647285563,45.0819366112834,-30.4496690485825,-3.01085895973391,-18.416588243869,12.8356490309438,22.7904252139254,-45.8007171491919,26.2212146292698,10.7033129449644,-24.8598524193708,-39.4179334815446,-12.5712501686119,-35.5436121470841,-37.7271647573172,-22.2741983193157,-10.8436686731913,-18.9502277278788,-20.745298598446,8.46216613345772,4.65121336141399,44.8922975697169,-14.6118561268862,-2.47564901302773,-36.041359809773,23.2251428936746,-0.102939831515936,-18.8475612603689,41.0903995157865,-13.7594404913843,31.3139756830468,1.73994997992796,-26.3843366055447,-44.4674199680881,-15.3938649007309,2.01341843128913,-2.64576375449774,3.57763247182081,46.4183426674871,-32.4892351676599,17.4874104672922,13.3883950271795,-39.4746987276638,37.57572082203,-5.66898154183578,-48.6077328943255,-0.868449571952434,-20.2532120289764,20.8461736743103,-34.9262215749783,18.1824955673866,43.9330650803001,44.1789049100262,-44.8219988752387,26.1808795104538,-10.2965027112601,-24.5752652603916,-5.13815717382101,22.3995384632964,5.70714870337967,-41.7049644354202,34.5445696397096,-49.7785167345035,-12.950502387598,-14.5533968879745,2.00021386045035,-27.7011307381596,-5.48130330186561,-48.2388542567715,-20.2491672132094,-46.2007631510944,11.6709904781271,-29.4313678773721,16.1989239003655,12.754561431872,15.946644548945,-34.3361584123719,-49.5704500247305,32.8432425696801,47.191214256594,-6.97710922236249,-39.9506574549121,-3.89330002581986,-42.8157168157914,-12.0651950872689,-22.766335596429,-40.9084280808277,14.2190741150296,-22.0388768446152,13.4818319842139,-3.01241770892304,9.51583309754169,-5.1734864355476,-19.3506468448001,-35.3603307000058,-0.534504736695673,11.5065629225697,-46.0791907391128,11.7340879444306,13.9695194394721,-15.97776096651,-23.333050782686,-16.460242852641,49.3286663010224,-33.9607273051942,25.1251063964843,37.3301864708823,-2.69842344527511,-2.85758514634646,28.2522316973296,-32.3560727701196,12.7924000903885,49.1506033383522,9.40189431891497,-4.27163052348206,33.1565717787139,23.1543633825674,-37.8714809492985,32.9338152358803,12.6711759826436,4.9255290400892,-38.6973529482889,-14.9212102484164,-42.5359565699004,31.8728953055947,16.0630396999273,41.2031099740763,31.7721651105048,-10.612591505089,-9.72851824785405,25.6645698301941,42.0045273101974,4.69838281559363,49.7616931101666,41.1404819737193,40.0122434009675,26.3501419334939,45.7770527489773,-38.330052945842,-20.7694473704789,-29.3733890267503,-8.5546061566951,36.2977077166171,38.2629391856018,27.9129317870845,8.78226594580728,-9.94465426055809,19.978705503867,12.2292146585987,6.93884014597883,-48.8065325331106,-35.385319181854,33.6966949985053,-37.3441036335749,-8.15994423658721,1.41550970045555,-9.92840294681462,-18.8309319310092,14.4599970470336,26.4570085005284,-46.2762255423393,20.4389808098127,-48.6871780479664,12.4727370585469,15.107304470169,-15.7537368837333,-14.1480896336802,-1.19640106060135,-6.19511480689176,-26.4421189357863,30.6613082207511,-7.14953732580069,-24.4735177525914,19.5710223162172,3.95649415382835,17.613192631108,41.8362294560735,-32.3697733268845,-36.5303995836404,-27.228519760254,15.3254996625075,2.74215580583147,4.74834378390789,-26.9678132768699,-16.4189990347918,-41.1147372406924,-28.9690085873652,39.0455075214446,9.66515374730664,-34.2074827851207,16.4304150361473,20.2167801115576,-2.80330814549371,-19.2321443791058,-25.1787214698211,-4.60390234644714,-31.8506601936866,-45.1760935080434,1.03882381829932,37.1802959027899,15.2666124729517,-40.4035654387283,-21.7744467226418,37.5717601046509,33.4059128122158,-11.0806112876294,32.0294630080838,4.28411351927085,-12.9021105498422,-20.593734576607,-13.085919208026,-9.91595975053809,15.9810527868554,-28.5693593823406,-11.1191422691228,46.6037622471013,27.4212705907608,-25.1258332600703,-43.2799844895967,-42.3682331390635,-33.4356729165978,-4.74966144999198,41.4610528727483,-30.0855331101899,-3.98911294473081,-37.8596566706959,31.8288118780182,-20.7720529690706,-17.8811668040812,-32.6143453886558,-47.3027380868716,-42.0091628869885,-39.5658295809693,48.630158681459,24.8906013116824,-1.27028437231821,44.1305142469443,0.0561767656915069,-31.1584315815673,3.50099888819269,5.08790612890523,-23.9329589951284,13.1973272053608,48.3841810365998,-38.2176668009817,41.748130684558,31.3196398875542,36.3907177674792,-11.4173456711387,-12.6142572654233,34.1448387323558,-8.24339661825264,-31.6704424779946,-41.9720238813347,7.04561008929545,13.3828173078753,47.2870360675783,-33.3374790538374,-39.4439636902824,-36.2570794576483,-30.8529566753968,-46.6440071203003,-35.7456230749716,12.7845266556263,11.1490201161634,-7.39566335073319,33.8867900778269,49.773734432741,18.1079527345709,21.6942339662912,-15.3545080614449,-38.3995028888296,35.6477611927416,9.58584061693197,-19.6285867742492,26.1605124285133,-46.0831392042452,-41.3184563859639,-20.9705175002634,-4.9917131563497,-41.7919683109743,16.9966138569242,-4.41844400369217,-34.2731804203766,41.3466128209632,-47.6291558138563,11.462953265361,2.17611702485021,33.1736319790499,-45.3770155478135,1.80097779971329,-39.9571220258729,8.3258415782444,7.92859782688413,-8.54096258650924,23.2852866186457,-23.0936466493371,2.21042689187894,-24.4959804438667,37.1068244034084,-15.5323547624739,-44.884107885925,29.1545934979422,-15.2315812420952,20.6613256592365,47.3939527601292,2.50266645709737,-38.1589561222278,30.2368574223848,6.28582124321641,-43.5023290944605
41.8610907937922,-20.3920067266352,-29.5444453620049,-3.05116282424227,6.60819960927563,-25.5709133042092,46.110308196513,30.140153041107,16.0844390958385,31.0314232112352,41.4734340117462,4.42323527461858,49.3504007932667,10.1341155895388,-42.8734015905032,14.3640219390994,-30.7720704224525,24.2750741517531,38.8928543676116,49.005555332307,-16.9295596791998,-13.4713540454973,49.8515767262834,46.672666883648,38.6134292827952,15.2829880427576,-5.08458553702035,25.683155877768,45.5351577539041,-15.8191719229388,-30.959663672776,18.0435031466817,-23.3676450173311,-25.5323779405751,27.9367898293483,44.8426091230576,19.916637067337,38.0704999592303,27.3862979208444,-0.84096965162479,-18.1831084505156,25.4874605755417,-44.3257351874958,4.07770785563972,-34.52540152863,17.7619451361678,-24.9130318962886,2.89953018157814,-24.0268406409526,11.9382471488772,0.776147666155602,-27.8303268534785,1.97155336357574,-17.7051068954065,-46.2041686873331,-27.0718261418035,-40.4934467047523,-32.0767642722364,-26.7328746158341,27.9413998166806,45.3586781246206,3.1864679929543,28.331208019321,-45.513917745215,22.0803630275586,-35.8979999392975,-26.9317356190709,-12.283515883037,-38.6927847728158,-40.1112414067695,-37.3263197827644,36.9600684163185,-4.82481140336632,-3.46550199189077,-13.7409441468176,49.7239672590332,-26.5832554098675,26.9639276458384,-40.5330778859315,34.8780741008242,-21.208014727761,46.6118511340084,-42.0761563208745,29.6269849898785,10.9901085481058,-19.3431062245778,30.4286566184343,-25.0624270953221,43.9020911424187,3.50718902213889,-38.6540445726384,-32.9637589231012,-48.726846600345,-32.3519624611205,47.1611189078865,-32.3085891445795,10.7618244205975,23.825216641221,13.8842437543578,32.5364364565931,-12.7952592192676,44.0280043591159,-35.7364031067015,-7.17256747749755,7.53140802964952,7.96396867322773,43.1883646586652,3.16243157788499,-4.95834461345699,-14.3274559468509,21.5531492339408,-18.0855275554637,28.0412515603703,-41.1816384786804,-5.72584521581051,25.8072786435123,37.24939726682,-40.53449330023,-20.5729144411127,-11.1617327019517,48.6945193326957,-27.9580699919297,39.9110144639063,-38.5619579192484,-14.8689408520891,-32.5163239425132,10.5822000513603,-32.3440848015075,24.0885837088107,2.53610631640155,35.5105471949705,49.7518907951564,-43.070623963702,35.2142439172963,-32.3239238426451,2.59569412787694,28.9128007348182,-18.4271461407291,-42.1988203189243,-24.9419219912003,-10.0782176995784,48.8162041795406,-15.144024265971,-49.0767789736853,-25.9118477227199,36.0510632923785,33.9008812438834,-12.3559742341436,39.5526607227132,34.8162586617017,-3.21613361398287,46.4635884389378,12.6170345644554,-36.6822282692489,-22.9764629498744,-23.403582594849,22.5080417689937,-19.0106857524846,20.5287445690913,27.5922645630195,-37.3903674687598,-23.6509733682811,-22.9062825241919,40.8086044348663,31.0720453122042,-40.492547728298,33.6748806343991,21.7545640092194,-49.0139622658555,14.2539436676014,11.8861919789545,-9.59224746748935,-24.6995290730309,-23.5573782496372,-49.8483757862072,47.6284791461633,-41.5615118961787,42.608800941778,8.61230173974975,-33.1419875468311,-0.520116166855,-47.1067650944451,-26.5832408691383,-9.76968269123232,-9.26088151354173,6.9689546429906,24.9333953425164,34.166107066275,26.8571135547279,-5.15910663484215,-9.91143698136242,34.8998709895956,-40.735340711217,7.49046656371437,-26.0697082956827,-36.5962951146731,47.3367553055463,41.3974016404707,8.33509493284795,8.5202069190235,-16.9001623398592,-44.6172872425321,32.8303849616043,5.50169969342816,-30.7913386920454,49.0221107937681,-48.414974957736,25.3674430090705,-45.8856881782783,-36.3318830297849,7.30060777285892,-27.040885105416,-4.00523728770973,32.1183283349903,6.09531508227243,-13.9117577754158,26.7893244826609,26.8056783398477,-25.6828462161606,-45.8946113522432,10.4569760731364,-45.6435405900729,1.12273358114187,15.0698114222258,21.1733804479051,-17.2666984373775,-32.8865726701766,42.1258654615759,-3.44551719938883,46.3080060198929,12.2882446121211,2.98276069132593,42.918898215751,-46.170803623235,-36.7354689167579,-16.6691340643801,-46.6845454529806,17.4223676973975,20.1991025761921,-46.5488976398186,-42.163108939893,2.46787911515818,8.91669550192031,39.770857611423,-4.62316654369905,-9.17355419451173,-25.2348170569647,-6.75611437305492,35.5647143806625,35.3154599188439,34.779435273114,-30.2076152423823,14.0932114097944,43.3374914428412,10.8498544338828,-45.5983798628123,-35.5935535413441,38.5086688879356,-7.51088423726255,-23.4208708119109,39.2402131713892,-19.4048158754662,-40.5601317014552,-44.3169307852683,24.6295263886344,45.1308075297973,21.9586348990968,4.41618232019927,3.24405118009803,5.70198077907234,-40.9606846546129,-5.36046464299205,-0.153046093469544,-13.4219009487598,29.7868765416689,-10.1356949937832,-2.01942893281807,44.7998023092744,-38.7296562266305,12.3716014470505,29.8561929889326,-5.31823946256918,23.085610833293,-29.1623996453308,-21.1111517732661,6.75306384673481,-44.7046021116871,-26.9807267150811,-11.948607345496,-21.3189975604889,-33.9419542573926,-28.9952408564901,-3.90047610133075,22.9085509580793,47.5809620440979,-21.9140073972524,-46.2514997248218,44.9292758328155,14.504907707081,23.8492283537904,-6.90987281619612,41.9142872735311,30.3045776876351,-22.2845333641753,-21.6459062033664,-5.58014775762724,-36.684512095797,-24.8265839969311,8.17206079094117,-6.3821200381868,-14.4006532584066,2.17096790393148,24.6261491366068,-38.2266836343841,-30.2694036380249,5.16336877567897,-0.304134577042336,-27.0763484681977,-4.2615952357975,43.5292149925001,12.5860738654487,49.5277970092388,-35.8688685135824,5.19583599721006,22.4385479296828,9.68898317049453,-25.5917705518155,29.5557072468255,-15.7544581799326,26.6291656388454,18.2440123276274,14.6141969116811,-30.1581047170292,2.38644113086524,-47.3969104230236,-40.5528668033968,40.1928761311617,3.1454014871361,46.7237389595876,25.4775080641075,5.86387998274425,-30.1471795730591,-49.1442014188122,41.8019551569785,37.1521365282403,-21.5079673032161,-49.0890728662799,38.6920533408315,18.3829492518016,19.074983410909,-25.0071396921078,48.850929238138,23.6962852316914,49.4708949399329,15.0371325391375,-36.1484799538087,28.1984073917739,-2.80028454801222,-28.9630641241688,36.59815104969,14.9075175025785,-35.0315013762083,-7.15891597803973,-26.8149662031401,-25.6227256642942,-20.5068792143565,46.424376557819,29.4201813014096,49.6507691089283,42.7072040738798,-39.2005467319898,30.3101784783543,-4.88375093538819,6.29501541768316,0.771959158972924,-31.7694451147168,41.1620984006577,-26.9720317787267,-26.3233299639139,4.31334539473398,-37.9124284990241,3.45274049001721,-33.6098457471123,29.9501841290716,-20.3896630987153,33.6064487033273,-14.3724258889438,26.4420235978337,47.9165902802006,24.5304494119209,-22.8390523018259,43.6729308274978,-17.366307262775,46.8240253712546,-16.4094927403132,-8.87768084910758,37.90701829257,-31.4585254515561,38.015371536091,42.7388818411579,17.1352638244027,-48.5360651672682,13.5427807675019,10.5894239982576,-21.2184440028259,48.8268384227617,39.8657923350988,29.8530691725004,-35.5774920918655,-39.4744431034501,-7.67076960441064,-42.697847643985,-0.515418773559073,42.3334186925944,43.0488031899032,-16.1762922884669,38.049506313983,-1.19080804011596,49.3114525814215,6.79431019969919,-5.70476624864079,4.10405659819794,34.4918293278827,14.301953940551,-1.9133553514721,-1.73662207141275,2.64613111508101,-14.0144774809023,-13.6352163376114,-30.938548003284,27.321856586946,23.4049678626607,-24.5708931507219,47.4084741238781,-17.4082478731564,-18.9086583400719,39.5239707478273,-16.3285350077706,-15.6010094584699,30.3108138554871,23.0307939328776,43.2909829447927,48.1865182684974,-10.4915431292615,-4.40106299307005,-41.0313411846516,15.9102749985186,27.453188060096,-20.3988681737383,-46.9373237192498,18.1427182818,-40.025353941062,-24.7821307469797,0.414018099575164,-15.800526393614,-21.9929515208251,-15.8875856454412,5.60032544200156,27.9843933051959,40.6887117805458,37.214996726148,-14.0614087073482,-37.1100986254285,-10.0528827188161,1.84580759802978,-33.9091548377109,-34.1697105213944,11.3286785122596,-23.2978021438251,34.1051853671651,27.4051253682791,-23.2157921891035,-10.6301666655883,-3.46708470897221,13.0369840010379,-32.6147988007537,-34.0055286406149,-20.3655971680887,40.6440948318006,-18.3848602631014,-21.3978076775136,-34.0409936434229,-41.3399260752897,39.7946170699836,18.782613564141,-16.9071072217985,41.7432692158454,17.3015754439701,-1.02752426669624,11.3036518123379,34.708427667302,-16.0826536124123,29.7595613489139,11.9123503822325,-49.8977180882575,-13.6584463999461,30.4506989959307,11.5142371623815,-23.0436813051688,-15.9609391268916
-1.15888112051709,12.8787908879483,19.9843614126557,48.1468737606011,13.5356205581893,29.5087472921032,-12.8487384671993,-44.6037897854853,39.2984294355298,-43.990383013365,-44.0178363245365,-13.5289821207615,-28.1502218659901,49.7225466562922,-15.2270832332867,0.947509430742255,-34.5254890458662,-19.9504130226561,21.3959058968218,8.81996127046236,-41.8370437584861,41.3217542315818,-46.1658069839975,21.9399882835872,-27.9727973880487,-24.2612648854706,-20.1017138541374,8.82685699028393,30.4211150103874,41.5400734849193,18.9459206023935,-33.4434843996726,1.16899525735095,8.61680949531992,15.8845183793814,-24.5568545585708,25.4547652304501,-46.8225112520046,-34.3044437510437,43.5526085326062,-13.4029017570971,-7.5069982995786,-33.444368223019,-21.5005439559862,42.9533309669645,-17.435271144143,30.8341308998162,-15.4228939717036,-5.63338198482349,39.7647532708736,-29.5052616593202,4.79999798548296,38.8565801002641,-5.76911028997945,-6.54149716288653,11.5437706068834,32.8543059443216,-22.9161171483759,-22.8998228467287,-8.98589347073471,12.086039561506,-29.8330383904459,22.5543324082825,46.7051557919622,-48.5979137402503,-45.9194291150581,-35.7761610151711,6.28445974107426,12.6342406873718,-32.7439655062583,-2.66626167088938,-18.9606270625316,31.9772923338901,13.4821216246395,-31.7972411948461,47.4501581269665,25.0049589794322,24.229806317262,47.7900906251693,-11.4717244313206,-29.7954640804539,5.17258103789131,-17.595700484266,-18.6959424486707,11.3004283875474,40.9031124485559,7.78784743682984,-10.0236340433787,29.0046513437998,19.2772402668817,-22.0951529655414,-2.16687452205097,-17.285932449623,6.9110641023265,-47.7129866870588,-23.3955755510294,1.3798048415705,-43.5794869476012,-12.8759502761156,-23.1320759119376,-10.1605581168425,17.6459999766099,-31.712682095537,-7.97134280096645,-28.3665249862127,25.71194687265,27.1393657006452,9.97376579494406,7.91939643021741,-17.0601352760003,-12.5961481594498,-26.1701295492752,-23.781780862069,34.7807256624857,11.2385903456228,25.0757622465583,-6.25330623490192,44.7981044649962,23.2942423656825,26.9887186927126,-10.2874017180029,17.430183352095,18.9749406630325,38.0317713952706,32.0455134772178,42.5193716646042,33.4734548676902,28.8137992964027,29.8380274463114,43.3908112162427,-5.56235497032543,29.8265573061619,-1.68495611150804,31.4867810921795,-10.7603179005641,49.1062407726757,-22.9126445021233,-31.6875716844992,-6.73040279409648,-14.388538583774,-42.7963483895499,-0.149800323292337,-28.8951210352217,-4.18753315887791,4.93287723661595,38.4264803796115,-9.12963990518827,-14.6839323584938,21.5443085058673,-34.4891381908914,-18.9552447180558,45.2633265303184,-13.7131878141733,42.241572597546,-32.2392088423058,27.2319202949668,47.1858067302893,4.28677646862181,29.108682731958,5.35044165592342,-40.8495948951755,9.56004481352606,-23.9440418280757,14.1344309571584,-17.0506599118321,40.280186796471,42.0569489611461,-47.1122783286886,12.9216970900565,-1.20388260287047,30.8690393693553,49.1255532641244,21.7091504635196,25.3537796283946,9.2772325267285,-26.6896597859011,-46.2914790566156,33.7530647434577,38.1560105213501,-46.6587888407739,12.6948801204727,37.77295487463,9.96501530866063,22.9900620112505,31.141166954942,46.3119845193057,16.3847423044656,-9.7675597956824,-48.6316545277513,21.4782397921585,40.070675368942,-2.57504404584173,20.459895745947,-20.8833311461861,-24.9842854776336,46.9980461856883,31.7321786284692,43.346723610092,-23.0997718084365,20.6750223715116,-37.9852228877942,27.235099145239,-46.0146571791649,-3.9235168246758,18.9567090783799,37.5522992708267,16.8922291229543,48.6511871386191,-3.59294724440804,-9.83728991548563,26.9249348161903,45.5338251389853,-8.51943966560293,4.39558826466225,-35.7185884582393,30.0101882319613,29.5554518669118,46.9131278033305,17.5721688895886,27.8323854538629,31.5129351298947,28.7340586834365,-21.3728070026072,35.7259729087861,12.2222621986165,26.2154991396007,-3.39006894111177,31.0810855024247,47.8190520015869,-44.3337554012223,-44.877461794091,-45.7913073822807,-41.5137369643513,-7.99130872308976,-47.4574668772498,-31.803543997326,-25.4372042352423,-9.02713958287656,37.2875165300553,12.0260415867943,-4.06395684631711,-48.5788758333534,4.982533849563,-37.581290940074,26.6347277758587,17.3935538028426,-24.8809540365377,-34.5621440078746,22.2520731676859,35.2324228659079,-46.1082850173686,26.2280823379241,18.4990488951308,-44.0282752138643,-26.2654541056431,-12.2013206166688,-11.2720975472146,-24.9033706018417,18.8719309793666,-32.792123587759,-42.0126572679112,-24.1177450074444,27.3047235975844,-17.8270886022134,-33.0509477387183,-12.5508452817773,-29.7319237665994,-49.2103230299298,29.9169705000582,-22.2967180519706,8.28547882194736,-24.7986963773339,31.6116445710719,-24.3348810935048,15.6464675503315,42.5781461622045,39.126066079776,-21.3649943813085,-25.4708347176785,-28.2228091248902,7.68214672690245,-47.8077073794029,38.4624504343338,-2.5354020630849,-10.4937043865646,40.5524380375298,10.745006967199,43.5394813728057,24.7630046885202,2.2976066775141,12.9584173082636,43.9299084929134,-37.4174746496319,31.1070259320488,39.8473839820325,41.4357432192301,16.8570669321476,-15.8310616412991,23.6446169575285,21.8210003786674,49.5432277019981,34.3447378535593,46.3472102514764,-25.0499183297353,-8.53987628725306,-31.8581812248069,-49.9519756589451,-45.2618572066397,-48.5563755494795,4.48387408992849,-38.9577863809286,35.427621472247,-2.64180616150085,-29.0929291052016,-17.7195234339627,-5.71037027415076,25.0751777540885,30.252737574668,-6.18084646658014,-4.23502200689158,30.5767379383842,-40.0160007393466,-29.7673251771937,-4.27981046489732,-19.3392823562063,-43.649800011499,-16.110197253605,34.0501427025019,-43.4170191958067,-41.5979751950228,-14.2664330678482,7.52454155209433,-45.7418630848839,-47.588594778896,21.810328170724,-25.1112346726395,-22.7315396343571,-43.9425014036336,12.7548623301663,31.5328084990359,-1.01680860228135,-44.5762071064873,-3.78041867514308,32.936341621555,38.0513586595206,-4.65688863364807,49.5539416083561,-46.206180163412,30.14743872272,18.1299446084285,-30.6231942289939,47.6221976602836,5.20336457805642,23.2252154567244,10.7031377708111,-42.5521763601595,-24.6065968128535,11.0464462782565,49.4079709468843,46.2485551424411,-42.4100968363686,3.10236375204141,-14.1985711203252,-24.7309978171608,38.8056695666914,31.1279762176434,41.9421940622812,-10.2635627563048,15.621337735299,48.8172134103222,6.80664440628805,-5.02884743542035,19.4659682472414,33.3653321390815,44.6038437601881,-18.5993643520226,-31.7593656404268,-12.2242755165903,42.8231490468133,-34.5940000647887,-41.5185571591728,47.3925782677943,-19.4031373338001,-39.043157031661,-1.33631951791746,-7.27891070647648,-17.9187299649789,22.7206336182201,24.9403201217108,47.4118898078331,12.2963255817266,-46.5670416604835,-20.4858173733364,-25.9245234217126,34.2593734591616,-30.0514545562385,-1.52357417438586,-34.2040472504159,45.6589068172167,-33.0119516570521,28.1605914348888,4.03963100787454,-14.9194551722137,-31.3288417477335,-49.179952804832,48.5037213846263,-0.584216197248433,29.2527351179781,-28.7525371258122,-22.8450203109616,-37.1943225642608,34.2046325973402,44.8569113969355,-13.3675557597277,21.529064875099,-4.07571580447757,-41.7583973039223,48.3079973150419,-39.7974676389282,-36.4335429113713,-19.4387846106986,-7.44858259390415,-18.9055244667685,-8.1387905628116,9.18925514213587,-44.7519970132072,32.2724135691698,-27.3512540766954,8.47622609443862,-9.01024269950232,8.51534373680717,43.8155711814071,-12.3791283567824,15.9684345978424,-6.68931797448444,-22.9592801801955,-2.6508682342163,-34.4282215167942,-39.4160978690389,7.45655176887307,2.77421303202295,30.1284283481842,-15.6689941748654,21.2764601236388,-38.779833513951,10.489183808001,-13.8414399550763,8.86434394081112,-30.2524116354681,42.937343138396,36.4804866550652,5.53373310026474,23.9519923959404,39.2163742939519,34.5608585701381,30.0068195261926,-38.413696916699,-11.8690878754534,21.9143255216123,-39.9927366802425,-31.2375834435068,-20.975051656925,14.3405919683985,15.3867286091832,-37.2363202377242,-23.3119285037451,4.6048718610437,-7.22203395780013,1.35660502339632,-18.7879573840135,-12.0339207685743,-11.6777810543065,10.8227348996357,11.747901604855,-17.7623333389687,21.2724087967662,31.2386118697403,44.0258706000054,4.66149515002346,16.6587106840788,43.995847089723,2.91386129798265,-20.8286163004117,-38.6144573787222,32.9862682255138,-28.8800697485461,43.7630391881369,42.1103451559805,-10.9669073798218,30.851648908466,-44.6358056459981,40.5776483519384,-9.56002777841181,24.6364797475958,49.6498877488356,20.9272789728003,18.5807984207506,-25.2589740964571,35.3550999108791,13.2939465354179
11.1743862902646,7.98378101895451,27.951458555553,-10.105519609715,31.1902391180411,-14.7905064233631,-48.7630588399642,-30.9522226544497,46.5157547014341,-5.02564421034439,46.4996640270332,39.2333275298511,-7.43626664650133,6.0914589810152,-48.7151926019596,-33.1791841981387,-9.29210434785304,29.8786274566668,-23.4887331748855,38.7899396962973,-6.3464446530228,-6.66121090123931,35.9098216953053,-36.3120967679118,24.8915119179455,35.8498932690519,-32.712289306638,1.45660203091754,15.6149691728033,-24.7283721247317,-5.41313200884733,7.76585047527148,12.6019071512096,-0.540118766318487,-10.1242876673174,40.8383879722339,17.785352435856,25.5230709768016,4.50644413785326,-24.8616721767162,-36.7003876934027,-41.6359171507159,-6.96417824861977,44.8577724922282,17.0457969514708,0.944725426324255,24.2819302508438,12.4020653963887,44.4188360419431,-16.9765319039508,46.6349020423264,-44.5602167495176,13.289997354635,-21.4933813288427,7.07279897347498,-23.7619982165495,-16.0889626223062,38.0526655445804,4.34548861719604,3.47351825867183,-8.32932057950756,-22.3674211694744,19.8938480154152,14.904217429727,39.6737064460278,34.1606520149457,23.0894033539184,48.9245992157029,3.46838936776972,10.3596292487155,12.1017551298726,29.0593094643622,47.3271138458083,11.2671181398876,-43.3506978614134,39.4421645116038,6.10985520158279,-0.582018970544862,-47.989045460545,-28.3129404616122,-17.1802443790205,35.0941401481699,-39.0019677067538,22.7011519876768,43.4394832403173,-11.8027489877638,32.3587270788246,-35.3376864887649,0.472558096652698,21.2780904383012,16.4387856118451,-39.6446174128882,0.449248760933596,23.6855733985868,-7.17698308955372,38.156715757541,15.7417842922944,23.5879162393971,19.961655530796,22.544009775829,-6.80221620443857,0.9864261095756,-35.0388177309076,13.959443970994,34.6040466738786,45.2964754168651,-22.5883651809911,-19.7485407896236,-25.3336619104627,16.041080113419,-41.2644222371653,40.1820205018629,21.7788711020484,-48.9918860869074,-11.4828774813037,-37.2776623502142,10.5903658540532,2.38360132422188,-18.8254547515027,-26.8084370262502,4.66724362159812,-7.36360186010827,-42.1608536121785,36.5614811113712,-1.3825927898246,-27.5460907475769,38.3211335786245,-6.26623079718417,-15.1135689808375,13.654442289596,-12.6617547714485,48.4162791355314,-14.8771232576548,35.0083058377771,-32.0072975108607,4.13545723538231,5.98862729312274,-43.2716390703247,29.8716188599877,-44.1782674271069,15.6194730625054,-37.868617899497,47.8357836988898,-41.0970354009566,-34.7777589835678,44.1086466587963,12.0491166015157,-41.8023303195588,17.6076960485473,-0.171150877849813,-23.8159193795788,28.8766980047554,13.4997353457241,-6.16894855980392,-0.5447828874103,-45.9434837816291,19.1355890033098,15.390150819633,39.4683434896967,37.2306891640385,-33.3910410492077,-31.1369905933652,24.2926567980035,-4.24815986062714,13.0958724290848,4.40620426463733,-47.0485347078753,-29.9678247513679,-1.62838798831694,-32.6479295633323,-31.2263501157851,34.2728854680404,20.2177188578384,2.93395291097669,-46.4111713961636,-12.0884436719697,-0.24242461126972,6.52297486738453,-44.6084419263967,15.9826671953588,2.06059929798118,-10.5417190621873,-33.7121508151355,-5.59056521133127,-18.7283437642745,24.7930047773074,-3.06769194730321,-35.8279417748228,-18.985453858076,47.1004631475499,-25.8721142831772,-14.1586992185365,-19.9633390691207,-48.340224232262,-48.3977120575368,17.5383799447574,39.0678672211321,-15.8818286587204,45.6326983628216,34.8919590138248,26.8798491853987,15.6797364298848,44.4667251644213,-2.60454230211214,30.3202698506291,0.733802128025496,-17.3396569492641,-35.8364077384751,22.8451651665499,20.3799624328695,-4.06925546885731,37.5575852906587,-24.1566708806035,-43.9935279850561,7.82387190585758,8.41697801103233,7.32006912346136,12.6740532370167,-7.2219031774188,-25.1946858571192,-12.3748908889104,24.9107912486757,-37.2999936097685,30.4389505473924,14.7137648701313,34.2693860274402,46.2909138042176,36.1521286825473,36.0981124666434,31.2229710020889,-22.7555840777203,4.26367385118201,-49.3591307500869,16.9606224133665,-14.126699308249,17.737100474531,-7.78105724671342,35.3829419020495,30.9979407122778,-17.2427986828006,-16.6213200716735,30.2243489712089,28.5798521461462,-7.10548569626162,-24.3601387176815,-48.8696892799178,18.3141554194136,40.5531592657358,-8.43985889543605,48.3315120021851,-5.17716899584073,38.7432957917943,-21.0712231047096,-14.3324476497825,-8.64180738402103,-13.5555151700825,-1.24968473263244,34.7126605177866,-45.0966080579918,-48.065690934564,39.3716725218801,-45.5162048053906,-14.2612236709852,20.1590751584581,-39.2220715489358,-39.8179227617151,-3.39193084427011,-32.6315604160469,9.47162217567018,30.3008798364,15.6527821715471,-25.5585575356755,37.2046742857896,-19.7935180898984,-9.60866217924544,-39.7269238179984,30.0926294023873,12.163645908233,7.00444552516818,9.03584878204825,47.6910101456952,-10.6539488638204,42.8307447815491,-32.3600521309779,-41.1555771553308,15.4885517177896,-12.8554401765154,-33.1565707242305,11.39071587658,44.9510006116677,21.7265434298179,22.8704705446044,-22.8761004197919,10.6518029395948,-41.2459584471542,-31.4244322141974,-0.887244149045197,8.33954338322183,33.6123279624375,-28.9968999600116,-35.2858748612047,46.0183769141566,-17.220833623717,20.8942357886739,37.3500248538443,-32.4292042817739,-18.3728306724362,39.9004530551743,8.94979162525589,16.5365323834774,-11.1685483399844,38.7052918431614,-6.8045516122807,-23.0283987057667,-30.2413780681268,8.37673608544974,3.14059092971291,-44.4807196873463,19.5315783022343,-27.4300697614915,32.2089821834944,6.43680323108636,23.4228996091186,5.37198971633884,34.6565243245161,-17.8490272211763,-32.3274879107763,12.7010891173323,11.7912825093922,-28.4557285504678,-8.82907836633732,9.61472007194917,21.3998272410975,-5.48831492595604,-30.2689515973601,29.6696627330336,32.4694772037179,0.99518802081543,8.31908318328329,-13.883644633093,1.9594436373691,-40.0594601982044,-19.7802872254526,-18.3454464033652,-19.2401478968371,-37.750267756935,39.7168891842117,-19.0460111050698,43.5268926375388,-24.95170701791,-47.9920683819067,-18.0431764133235,32.4689532272287,26.3642838088611,-28.4715093762523,1.44675294240399,-46.0338960497252,-27.7584447524168,7.73428818802581,13.5013889052157,4.69892791728312,16.5877699777746,13.6317283033249,-39.3892123142382,46.488058325151,-32.5718424920689,-11.8149602991326,-41.0469833164108,-31.7091166998186,-6.84703334072568,-32.9785236449209,-20.7147012337919,-26.0590775756341,-20.4705543545394,28.9864261061822,-8.05353922496746,19.2272792004177,-23.6517061011916,-25.9526486560287,34.6921923949057,-15.4910883577619,-15.979662111845,31.9887398743045,26.2881319534086,-12.3154962656686,48.3848523946055,9.2995943998305,33.3225706606931,5.61414883615377,23.2146108272928,-38.3564387456753,42.9959531438857,7.37188208773567,39.0278025248297,-33.7312319749757,22.2337141761499,-34.8091858967253,-11.7096669318371,-47.633574263448,-2.36167439450733,44.5831106691264,-42.0065850953845,-26.2532251056037,-12.0775045277331,-0.960139042794295,-27.7436089264322,39.9515418837889,45.3860807859918,-48.0387840238694,42.5804342816749,-7.40514364410053,27.7929905207574,-6.14265866707009,-35.8394024394377,-47.1790334695827,-0.651555206207555,35.000376339758,-49.3819143125872,37.3028077207137,12.9014969719452,-27.7668451837638,-32.1865097643622,-48.5186959881014,38.9772417798099,-25.0329573854084,11.634315627941,47.3210993751471,-17.1247569319265,30.9703702232239,42.3198341169724,3.45712498893669,-33.7979021375654,6.98615280815259,-42.7996061410304,-22.5247089822683,-9.70489274884422,-23.5818419810456,-12.5944978231766,-18.9082143092412,48.0187312322697,19.1128278947706,43.1485331998118,48.617741680153,-34.0955000376751,-31.6947069311047,-15.7444643938568,37.4939715811981,27.6127023062212,10.7593461800953,36.6644928356092,20.3126752269995,-27.8377697506161,7.74824544684107,-30.8121901952569,-34.8782580740651,-39.5720921742244,-16.7243270601941,-11.1501764091599,25.0355321797363,-16.5628926274384,-5.30645956648368,-6.09080229844183,-46.5696354258655,24.0671033355772,-31.1134657842895,-20.2294484211008,-38.5131108714128,-31.7464408330435,-27.2969123352212,5.54531572529745,-24.4230251682407,-43.1662711334284,-23.6298561045654,-45.7025240191282,-3.98024450190252,-30.0083827774807,18.9038910738794,41.5687382578193,21.6827842790164,39.5988323872842,30.315562345499,-44.1632051120426,11.3390080593879,-41.8771750393083,20.8343886783023,-13.2272763857355,2.98189581950481,7.79015544452504,38.4216408417024,25.0986237681219,-20.218725550419,-33.3434999522648,31.7525130867277,-16.9352769988752,-29.8922693113672,5.88665996956572,28.3919964345229,37.0903324904986,40.3398555553204,13.2334014257514
26.5907856480316,9.99291966249876,-47.7066907560919,31.3732477586918,42.6682615243874,13.8877682060365,35.9706886988192,-4.75811541830246,26.9932676891315,31.3170527483345,7.09752168558058,-4.06544052413558,-7.61503971947773,4.87261970931809,-33.4358173361703,14.1464772537832,-49.9617105632529,-41.4050220670192,-49.0291691666851,15.6211279044065,31.1215982533195,42.5651813083679,4.43049309704545,38.9898985442945,30.6629665153667,-20.4808519541751,-15.9336279083472,25.821559459952,-29.2457658874699,-38.6962181411087,37.8110279742376,-7.53429201841385,25.290599380839,-40.8838309199439,-37.6338377483471,-2.89742875362611,-49.7895151298539,-28.4638200398075,-42.0294867933389,11.6918147419501,-28.305598973266,43.0438875325072,-47.2551485135757,-22.2232170826971,40.4861010709966,-21.0749886723073,14.5143866128662,-35.1987970602143,28.4603731398545,-25.5724610071254,-40.7523783964822,-17.7098942766445,-22.6393646146094,-3.0088468500429,-5.85004529817006,14.8725881791696,-49.8827041356885,43.6662684692217,-45.3558316328375,30.6380056213476,-6.56416037422937,37.061493684077,-7.22944863450717,-1.96084215302875,8.8065513394617,-40.7851004768379,29.8529918081259,-14.376238324948,-31.058286660186,-12.0852248018438,-1.09380718752425,21.6246148986285,-45.7748051719626,21.8514290700955,12.1717723857051,-0.956384531842258,36.6598525439719,-35.0898034611193,15.8892530363451,40.3237982249321,-44.3780654432992,42.6259973304907,-8.96445418759093,-16.6184581146236,-27.7978947866229,2.50825276163037,5.4951633679077,26.5104938360522,37.1192220805001,30.3615386050787,42.3139931922441,-16.9044208398512,-4.97382139707704,-40.1053626701047,46.0806048819304,-20.3974339549371,-24.1288490020161,-24.0560293411524,-7.18486316631243,-32.56469045435,-34.416145845875,22.8293612253214,-47.785013017556,40.4451186906494,11.1580267485497,37.5494076788087,-18.8161752717806,-6.076700046993,2.65155686297688,-26.8326150346673,15.2578144433372,24.6408682634936,-6.21050604638533,25.3801269886243,25.7143861972866,-12.9322370113486,33.9625560376899,-9.89265204218435,-30.5513676627998,7.66947269867159,28.0901340477518,-14.7843231874515,22.4005616176181,32.3235274790109,-5.89101218461173,-23.9029169988256,-2.26393917157096,-16.5767301815541,-17.843572216467,30.4007644747708,44.190241964578,-36.6579353141817,35.2114402896399,-11.8954401518806,-30.1484696972431,-2.9464814317407,-7.67542874919115,-45.1179358878308,-0.29225274961352,-30.4617090409175,-9.19891160945269,14.9782703060495,28.8724999416093,45.9856600600837,-26.581340168995,43.5665305896155,-24.8088809400242,8.62810431823258,8.52130845738726,-24.9379412288453,-41.5749616943819,-14.7763472188472,29.9761790257036,-46.3079971735949,-3.32666718569707,-34.9975311331141,-40.8450948838726,-34.8276984858398,-46.6659421482129,-24.1500008469756,0.139341694756789,-45.0047766169222,47.1296284307724,-26.7086019707091,-20.3276527531998,-8.02653355198831,38.8240021530484,12.8546737384657,31.5629698120474,-27.2953161909558,-17.0908431644789,23.6490149450726,8.24294562217099,-35.7757671403975,-7.49378830071724,-13.9038363280197,-11.1254717323512,4.29132761200478,45.2618007760994,40.924226181923,2.36282642832782,-3.83081544511622,21.3633878605677,15.1528201440414,-17.6002665234383,-7.7290699636883,32.5706509959859,6.60662769908376,25.6763724149416,21.7703430444616,0.0834757620866267,-35.0632239912652,30.7489834645659,42.2659740826865,3.67545876541809,31.1021303963894,-21.2251249838918,38.0143013561912,-44.280340320658,-14.3967184161113,-24.5046813132302,34.1966558746139,-34.6822460120383,19.419066460155,22.4875143571055,18.045328781113,36.7167636948354,-15.1959511288994,-11.2272071537625,46.3182084855185,-9.36613972143998,-37.7171284123041,19.6391355552113,-35.6173988706343,-44.4665000330769,-24.2149454581472,12.9830376588669,16.4017009610022,47.2836013760473,-9.91137317732617,25.3807611595889,-37.6937683050792,9.20400014837806,-6.23664317156192,9.25770621943273,-37.8727600891432,17.2265351416811,-38.4753761327153,5.67409299818181,24.6004432640332,-16.967967321264,26.0486600247962,-19.9012358648964,28.8917903569867,-10.6511637564031,-19.990964231086,-40.0986435672587,41.3844158638267,27.5886100709245,2.90730612696544,-16.4252239755554,5.76933267372588,-3.87434198985239,12.2099774894385,-10.851843744889,-3.1008236873175,-28.4630850661514,30.3171056139621,9.85394957171248,-15.0319016279392,-42.7250764625152,9.34632678105558,-16.6836833959997,22.0898394421065,35.0859779568803,22.4033775438533,2.70745178798023,45.7847371360064,-41.1227504358017,22.56549507469,-40.3895699707103,-44.7145302941752,8.95706258820336,18.1363617698499,27.1862821884726,-3.60814239170267,-17.7553255457903,-40.0408020897134,-9.49140334918366,43.6848397288471,23.9268259672039,11.0781400455196,-43.7631101794738,-46.6860167741386,-28.0931034470045,9.08892683134799,-17.8174755544483,-1.7044252682017,43.9791945915544,26.6957860464492,43.11056995367,17.4952331428976,-2.96805882667022,2.82190401685875,20.4108160847044,-33.8401367226857,47.7322901162129,-34.4926118874083,24.9076209616079,-6.917483100096,-29.1726171181851,14.0395085882097,0.972235551542378,-5.47360745442208,33.7847353483306,5.38639133621691,32.3612435676065,-30.4566208104682,42.455083289474,-2.08634899193902,11.2841023589674,-15.6040514059628,-48.2243119190087,-7.5463205285663,25.956953156081,41.4017236804341,14.6057476125696,26.4645627608235,-5.24191809759441,13.2631748317521,31.7462702190414,13.3285476882456,4.45490680472294,-3.53189185756286,40.0040863781517,-41.5289829033416,20.2803812304657,-39.9299780205668,-29.3314845542388,-44.0768235816314,37.5362302732063,0.798497330899139,-33.1211828887279,14.6502147855876,6.77559683465039,23.1430269682721,38.706986355537,39.2155591319792,-16.3137847271011,-38.2149282086916,-46.2377437900749,-3.81656467939283,7.66544577013279,26.5344641399208,27.0133356583077,-35.5800426509552,15.1567043687831,25.3332944163337,-5.91596213532528,-17.7513602733763,12.1024098069871,19.3928780242803,-23.415910762775,36.9331879818996,37.6243583435681,19.2417188964989,27.4187328251766,18.1721612318431,-38.0103207024511,15.7393583868658,-37.7822714112667,31.1750562878121,42.3555102803665,26.7299165254127,39.0438156651555,29.8442467143642,1.78017709190584,36.3550775574791,-21.781836075452,-20.5905296398052,28.5208334059222,34.2504764477069,-0.104329070374121,30.6990640199563,-41.4544207314196,10.1607676729544,8.66867847915729,-16.820851838057,30.6164619947818,4.22883232996819,7.49803448360147,-33.7097556208865,46.3211499824146,-8.70664590307615,16.2834317950866,36.8308365424654,15.2996116345524,-10.1888038731788,46.6733733554479,-29.121044425188,-30.0085859079118,6.92057721918722,-1.2433486103279,40.5116840166798,30.6647722766588,31.1013443789358,-14.1608689909921,39.2134072519446,22.0253145091138,10.9117211350084,25.9915547852863,44.5826940206345,3.13475148292999,-24.8210284747203,6.27174047523101,-40.8122383911692,-43.1215236644913,-19.8221811354315,-49.1917454563424,-4.25088438544829,16.235313110429,-1.61168616503429,34.1644353899169,-6.9033061871085,-27.3369114688793,38.0084551749991,44.7925843563612,-13.4739520274582,45.0069861273152,-8.70861713389529,-46.9535068696537,-37.7603104577315,26.1757631848886,30.4773170918719,45.6075931938327,23.7036100332418,45.444864427992,-34.8890786414419,1.00775166262429,39.8309549611764,48.0262464639683,-23.7002637998944,40.5544882800929,-1.81933953977909,14.7256651996118,-12.0466156559462,26.519559238288,-43.4982589848563,-1.09401861408271,7.82421812388525,-15.0318703364295,-24.8510956733705,-0.894199805172124,-1.34651231882174,41.9233915208393,16.7101636206211,-44.588107947301,-3.29401572314911,13.6790383078175,-47.2603399916112,23.0729938422806,3.11905052358664,4.78683623649548,41.9079394899433,33.7880416754819,28.1230678355625,-17.4177847179573,-14.5701294011034,3.60966115965679,49.6429406989119,-7.35630916985505,40.0128129808878,44.1639171336775,-48.8491372908594,19.9852094102128,-27.5891163120075,-18.0226654027055,38.3014325514353,-31.6914452089121,-2.66097544977986,42.776181857439,-25.2035192985741,15.8771446454041,15.5979134245209,-48.7393532943925,21.269419199762,-37.5832561974561,-22.4499250691171,-31.8988057366531,-41.7271374742175,3.53360233102622,-12.0041308017572,10.1029915081119,-40.3995823763412,10.2828276387924,-2.89253280851647,7.61291068603097,-20.1681124070614,24.279553961991,4.29442905898717,-39.9737447585078,-18.8317067790764,-27.4590673149932,-13.3194879293779,-33.4105954619645,43.9358168859592,18.4961784330181,-0.503835890487891,7.25022077639762,-31.4904238428796,13.9133666839028,34.5870856055218,-32.5389142862472,36.0017767334016,18.3748011314526,-42.4068912622548,19.0541042880363,47.5574536761645,49.722853754212,41.0695716340661
1.84179878729432,-23.4180882464493,7.7662858129756,4.64564979724778,41.2626763703783,-0.658494810324028,-38.8889250459635,20.2942077117978,25.9099118289326,-23.5761625459351,-19.7481887499606,-8.13458999631005,-18.1353562317669,14.2349540155222,-43.9633567582222,48.8167762962827,34.551781616381,-26.4336362334827,4.94634595289904,-2.72211258899931,-5.42075388093092,46.1368076131451,-48.0480041176817,-5.87397064453014,-30.3432170205638,26.403466566122,-20.5149477691215,33.3281724217408,47.173601812,44.1844936771815,-20.4388898826932,-48.6859918476648,-34.1853825913733,-14.2182426511618,-7.59938336371323,-29.1616686007005,18.2337472836221,-13.3113056357957,-40.1588504460594,26.281870969585,-1.31854738945577,-31.4792820717873,-14.0397176566014,17.6238528661224,11.4694937558334,-9.03175750631967,32.5644152061973,24.1374522710551,-21.195209201605,-6.20060010824357,-45.8380767885756,40.7536398301619,43.1626634079721,-7.39445447079966,-11.8402422918873,1.4914512728625,19.2407224842925,20.2320966079989,-13.5574664387901,15.1667908136522,-2.1208150585576,5.44455257245744,-22.7553854804946,45.3372625775428,29.2824498927289,8.6800347453365,24.1011095855726,29.3456924697608,-15.5830912792454,-38.2045010712647,0.803018220068819,14.3809833692629,24.1391291407318,-35.7431963788639,-4.88675295589539,23.1939138084098,-42.5147707882813,-32.846305735878,21.279258926492,-23.1485144557943,-10.1245568512481,-7.75818671227603,-44.5262487455787,27.1624845160168,32.7867126787098,-23.8006131764392,34.2384442576061,25.4802101754847,-35.8654348961198,23.6236480894119,12.2750585917256,-41.4603078821538,-25.9255664820746,29.8932902652766,15.9106103071805,-28.9940276469789,-41.6190260469601,-37.1990511585487,-7.71554711485458,34.9034146396743,3.45732540455013,1.01362902730223,-19.8140610492398,-49.5929966275933,23.4189921145618,27.0543572338893,35.240105816323,-35.6719946885483,-4.44783775532885,45.9410357357454,36.6304027584865,-48.9923667850824,-40.4874869290328,26.7146429882431,27.5789554013214,31.7204056640656,21.20500639578,28.0307785787333,-28.192002121606,33.0757651456671,-25.8431882626435,-8.5768469356134,-14.6498956755585,-47.1880236522833,-35.0827931822061,47.0189921355522,-8.21405190044184,14.6367450960861,48.2874943550817,40.445982816653,2.37872418861378,-23.6264162812812,-29.0503578649813,-6.27750206127772,-1.01870688422623,1.73594881604167,-40.9683077441312,46.3772674747214,35.9893017057097,5.60541726327134,-45.2510623237383,37.5833386329359,-18.307038881741,8.01588162019519,-38.398885531449,20.5642933737774,28.5801993883107,-32.6179208101787,-49.7580912485979,27.1892120163874,33.5713230696675,-23.5824162591798,-14.5814736204359,3.85811645854073,44.3524457664669,15.7207317076722,-37.5052301869778,19.0219095223913,25.4509239218915,27.5597622146773,6.5199435259424,32.7648532829717,-41.4459658063791,13.8897320168667,47.502673013827,26.2083342172203,48.8328750034081,-23.0412861197706,31.3484603913132,-43.7669746277598,8.92514931573789,-7.05650282057753,-27.4146792723707,-41.2538053458836,-30.9890359697467,9.61931506974539,16.4728268991809,-2.05804448582165,-29.2738859146472,17.3703848601431,-16.7459979198079,22.3598075867574,-40.7111354392269,-23.4144450788229,8.12694869653266,-22.5663049220591,19.0478530565098,42.1971022452323,13.4776045400922,-33.9860318819629,-23.0035952571717,-31.3258697657202,-48.5527394469117,23.3134929046481,-10.0849700848239,36.8932845322728,37.721215154766,16.9313805262719,28.166012585158,-40.0576636891439,-24.7229273137651,2.40488508673575,-16.9984004287469,-27.7152049655372,7.74115600529907,-42.4648473689735,-21.1109573434718,15.4445693463421,-16.4647165209216,6.93066372229311,-22.2143147966125,-22.4076799687299,46.127544739069,-6.11249079575551,-46.2090735517419,-31.6295660892236,-16.4516399460017,-13.8355125412405,24.8770730375802,-17.647202016798,39.1450830958428,-17.5335814410575,18.1413546130619,38.4123487310389,33.6484174596533,-14.7644493605706,38.1643630836568,46.6842105544936,44.3574999268665,10.1388314110948,16.3004521697267,-1.50311735065076,4.14756498420561,-6.64193671098561,-9.77081610521608,7.13455898572678,-21.1363912042771,-46.9769852438184,-35.731883554343,-16.9716563512976,27.7075904888983,-35.6790080093301,12.663199412681,45.9995534223661,-14.0971268608986,7.14305518796996,-34.2904000373281,30.5767470376639,-14.6638752525748,21.6520523151398,23.818833749134,40.1854155335426,1.95399794881438,-41.6531798310273,-27.2754793902462,41.9304349181865,-9.85549871107394,29.9178281086307,-21.3337945969435,39.7463714703379,2.63561136887698,-35.0793610206562,29.876109101058,11.7806556297257,39.6040457129793,-29.6904952018031,38.6790931561861,28.5420276181949,-28.0835293210704,-14.6242933393166,6.75920740473767,12.0252978430658,9.39619981723744,-38.5416664771251,-46.8664572037372,-7.2156178618919,42.607621274981,-19.2812513443111,-2.60181174187796,-0.119752725791356,-24.8872848231321,-9.22459939383979,27.881015997224,3.54409198688609,19.6974545157626,-7.59223449593235,5.80910538472713,44.2584594597294,-43.4165367832921,0.188642924023641,14.0008181780817,-30.8699314168883,-24.1492732846742,-27.6896730327714,-11.6756119263957,10.5665286219932,1.74500023706445,-44.1233668754384,-16.5828182833241,-30.8574285578046,12.6638980748966,-33.1096215393738,24.0065382638785,-11.67501163548,17.4901579985684,7.47143074414505,-47.988952732255,45.6458743922215,25.2921901990526,-12.5714353739702,-12.4852568434826,8.08919759861081,-45.4720027953006,46.8454702613978,-23.7012912551986,43.1155429350185,-6.8918998634835,16.6289352829315,-16.71418892052,47.6121417676487,-25.9253636190685,-4.36850562034035,-10.0961391310974,-31.0213099870571,46.1153939460219,-37.887311798725,14.9972486561535,26.4263643670663,8.00185475483819,24.0365183914444,-43.931543988802,18.8907362744662,-48.0191898320927,39.2139971671094,-33.8558775105923,39.2213887827573,21.5839381594335,-3.11190099867372,-0.280422443586881,-6.26726141683855,-17.7048670120626,-31.1981949502062,-48.3760266075932,-48.3843812829788,-29.7330452446729,26.0622858781546,-20.8619086228478,-7.4328069701812,21.2593797402339,-40.6096949659654,27.2949714548772,-4.01397968488023,-8.93459403815761,0.647398841002111,-29.7595069891775,-22.7267826818903,1.47874180003812,-45.739569474658,36.5398431321755,18.3584158563119,-17.0087049379657,-3.48406780357845,15.7648994452435,20.3270231394762,-15.1262822692641,-4.48572793983578,20.6215870172558,1.61021026191223,-32.2607275713981,-34.8930847847459,32.9134987434651,-38.863258431124,-28.4039750775392,45.5311977331259,-43.5902733947962,-32.8574482134506,29.69847623983,9.89806798315528,-32.7125947245359,-21.9208490094376,0.503255500491107,-43.2163502181595,30.0961275642124,12.0096584958482,-24.2581809772106,-48.2901152463804,11.5574209624767,-14.2196609736044,-36.4756066440592,-43.6289291992284,5.37491328535457,6.09370757571232,-14.6231349069847,-35.687033334533,4.29812471258703,-34.242169881682,17.1462951131416,-18.2991719951644,26.5757664931875,-43.7324852990302,-21.7135577589442,-43.773128172921,40.8068747628457,-4.46785862394216,-44.680424598946,19.0777089772848,-24.8239651701487,-44.6027540723227,-44.5566661506169,-23.0947858018299,-28.9919744187212,-2.90260654846504,-42.2477246854801,17.5177857502845,38.4384398727965,-12.8014106093454,18.7505494827278,44.0673328125877,-18.3863242663935,-6.59175311961713,-36.5148390898538,47.1910776962615,-22.1817597031042,9.503810736619,13.6846261188169,49.2907009192166,-14.0466705489105,-28.0412420058086,-17.239654738258,30.6259768082601,34.844632283318,29.5090713274891,22.6831954323562,-49.214616751009,-39.5944584488298,-12.7625803876298,40.4312520889169,1.85093885790564,-11.2791183389628,-36.7325916980834,-39.4515945819861,-5.95691528897758,45.273808685492,-14.3804972519658,-29.8274470581903,15.1433096377833,-41.5636577913407,-7.56094160790893,-9.59643245655671,11.6478127587785,-45.320895034466,-16.1402685199589,-39.3512795719856,-15.266245003663,-6.63835416731554,-6.83480721297935,28.1464344182491,-14.3243540589129,9.99839571405253,39.8905746408083,32.6923092592822,27.2228866227938,1.51080102355415,-40.7566560946554,37.2509203997743,11.0880816938905,-10.1758910213116,-48.2897168719933,38.3104709741182,2.1123168076509,3.07993349429889,-49.8519661669095,9.71650205376129,-11.5750040694462,-25.0907726968073,-8.79443294857668,-23.6384942874501,15.5002424563512,23.334875505915,12.5298751019185,-5.59408893214355,-14.2639414942258,-19.4263604082983,4.38232905911852,-40.783393383237,11.0342329565009,47.7916376891186,14.067319855616,49.022647821625,-6.61642380869282,-21.8164064569357,-0.873293417379706,6.7198457702506,-25.1086598854067,-3.79823383794137,-7.63922755669262,32.9473431131189,46.4618221851773,32.9318991233436,-11.012728581691
-20.3199498423778,-21.5314119358636,-49.8357827283955,27.0854087140225,32.4810720438525,8.34997437200565,-2.1660956013215,-16.7951850464323,21.0049047354438,-43.6599018026631,32.5705826498351,13.2905540790967,-13.4666981065597,22.6789370633576,-22.1844066112884,27.0329363117591,-33.8867546656059,-6.18311073938398,20.7526225291996,-19.4451470273495,-5.26898460067403,-49.3391892010425,-43.1183591426344,28.6127378197061,26.4602650194055,-17.8956264014479,-13.7462304179837,33.1087827738597,-11.2886253204475,-0.668900948750306,-22.9796151528639,10.6602887977204,-40.868338843852,25.0700986488298,-49.4712349982596,-8.98522994054009,48.0021248148348,-34.2291052237981,-6.8027737628612,-49.8321231090757,32.640517822922,46.0384903387532,-7.68219563419934,-14.5634637471599,-28.7187875472647,-12.2174440309734,-2.71746347634079,-13.6123058081657,-2.42938343902124,11.7203069353464,1.71031740060944,10.3424794794322,6.97258578046706,-0.781257305721639,-32.7041317255822,-10.3902385905767,-16.9175173091019,3.20698746503908,-24.4818380540414,10.7314777579608,-43.9679654856146,24.8095967782566,-0.567677844829151,-5.42151660277592,42.3959198988333,-0.0986034410644598,-10.5322572063582,8.58957279846411,-38.6297374904254,30.9282206434085,41.9945803192241,-46.7541465625198,15.064938846802,20.3082909330014,-43.2886778913112,-39.3887390549227,-5.63055956142678,-48.9811345474208,-9.69179527217691,-20.2075554354472,0.814046689072889,-38.9052913154974,17.6842350322498,7.84673199766552,12.1408909994889,0.15275632627435,1.0053047650569,-3.04581840137966,-9.49991054436924,-5.03466599443806,41.1980837334417,25.7736917022253,45.1706344378468,11.3407940708905,-3.11138516217057,-26.5629672622231,21.4008479682921,-15.134219999168,-12.505213228901,14.6950023679439,49.7814355172191,-12.9455312253401,-5.6849452761485,5.60347108494499,45.343093004971,15.439281667054,-35.6650444199841,11.6964176522886,23.5867098674813,7.59147089441391,17.2527594469072,-30.4066686026875,-21.6943802633722,-16.8475413471469,11.2331880915952,32.8848244139112,48.6108724335701,42.4364465934126,-7.68434259048058,33.2340087091083,7.54099103256759,-7.10936049585945,6.85397151309837,-20.0504917937718,29.3823386391897,-19.5970742906227,-2.4619792765002,37.4799678089926,13.702830366337,-2.40115236017204,32.5086183611339,35.1930647839741,-22.5523559013913,-38.3776660070018,-45.0612089844294,-35.4467930856284,-37.6237729378345,-43.8497934579065,-44.3973540970371,-43.4254972253476,-40.2726101582555,13.7079451276609,37.8475885684737,-14.0320615904874,-45.9050156542757,-27.9057377572238,-14.5418596383908,-25.2420311463304,-33.7159968865394,-7.60776061207813,6.98851453172872,12.9738180795207,-45.8349774221379,1.47616507842238,19.5923379925648,-1.83629717958783,40.4398433701549,37.8982801174594,-39.2582545779595,-41.4391178090226,-34.6444020353585,3.34333019150519,20.1339779185361,-39.4918400922483,27.6567550440693,-10.4119450911,-37.6367706583423,40.5968144362328,20.7081239737615,30.1793980279328,-37.8358135831975,-29.8917190909033,46.9379038439003,27.1178616297425,-10.7648437864326,45.8708314388668,28.6542946965892,43.0611994968205,19.3218696769358,-28.0946690665831,30.6976514466146,19.4770800033425,-13.4729692672441,33.7271636983421,-47.2314660564133,33.1144768112056,49.1507042034698,-16.0893352045619,-23.0722608365263,47.9244673056902,-22.0001751110139,10.8103632864034,-42.0635644972463,-39.7062045558275,-45.162761563607,-11.9195453592194,-22.4794493913097,-38.2482880088839,33.2666584041713,15.6353697385655,-11.3284404942318,7.51792861962602,8.26056958999667,-26.2408515380316,30.3836359377751,-40.149610275284,4.18017598020056,10.5669139320276,-34.4906437548551,-7.43195409804303,9.4916105279815,-49.3982995419567,35.3291874047372,-48.0386779754933,28.5180225020354,29.4120484371063,10.4519574985535,-46.6361605624231,-35.6377114101978,-9.67841085506611,-4.48425369730484,24.6069843321477,7.38391427916102,-25.0325275806007,-15.7523217828684,1.44485194819365,26.7419815551427,40.108261501579,49.5493704026313,24.1796062048442,8.14719219164355,27.6389022040523,-14.5731112274595,-18.4357082746077,28.8321947671338,-27.2037488175845,-7.34640140010956,17.886337695576,29.4703242724575,22.5832120524759,19.5603952575359,-8.76406819574136,-15.1810477383587,38.0132633995175,-9.38079754310106,7.28640724006878,-0.438574134773562,-13.0863847132524,15.4743607279018,34.180567799144,-25.7899432716284,-15.3989985125658,5.16306095717564,27.8483929708821,-22.2534465803314,-42.411124168489,34.5867877964954,-43.8970884812309,-42.965122080675,-15.4879367197457,7.66763745259603,47.8735065639413,-22.0658946343633,-39.9162364196424,17.5319545421952,0.566855280290635,26.7545903641575,3.55846129777339,-43.4854634253766,-39.2172014679798,-37.660195700609,20.4524083352478,41.3346939284653,-2.68867391428406,-21.6054941867537,-43.3151676501305,-30.6841476018556,-11.025385468995,-44.7068907953491,-49.0650165913802,7.60375221253756,-48.8347383200255,32.1122053355601,-26.6118611372626,-8.35580429322711,25.3135270785625,15.9914068657866,5.84853598550733,-4.7202608613244,42.0876038161922,-1.49788668846094,3.10093226709318,17.1470899032585,32.3865250289644,35.4489821128446,-13.381055168354,-2.73934313220274,3.42149831122874,-2.57911808382153,48.584565209308,13.2429476002393,16.6698817584857,39.1279610354071,-49.712576617968,-2.81715003239038,-10.5031904068662,6.96187412776777,36.9193454037022,-10.6157058352121,18.5715932822852,-40.0877583447416,12.2815082065597,-38.5270326708343,-6.36453717305098,16.7204600603186,48.2499421889276,-2.19793086683221,-18.6534571349951,-22.8918112168124,24.9494432096284,37.7447583058033,32.1945251821702,10.7658929494837,40.5421201778371,9.24125353556039,40.7712106212978,-36.9170064355508,42.9001920626083,-39.7849305452847,-3.14847951846643,-24.3832903612674,42.8154297424515,-38.6684150563672,28.4802760311657,35.2730936649905,38.4460149728068,26.6245131982746,8.64971377763616,35.5818994457274,21.6875679532053,16.7769457603451,-40.9775972325334,23.7371317954948,-14.1786211394346,29.273757910742,41.6429823346395,8.16179515878189,-13.7360180496169,1.13146748305819,48.7569146726092,-28.7300442097038,-27.1825311044622,34.9583001774726,23.9741796341407,-41.6767333701425,11.1119682295656,-26.9104643119591,8.680224227301,-1.95042657359759,26.767716730676,43.2741546204939,21.7768254018166,-33.9645656624238,33.2584976203083,-0.643929654064768,17.8599687119179,-6.55046197238154,15.7788664591164,-16.5044548853773,4.74466223766513,-30.2556898779469,23.4254454442252,48.2358354805787,-21.6976511243863,45.7283447162805,24.7407497756226,-25.3481878114606,18.5001063378242,44.7480730349961,-33.8493344482109,-17.7511486766471,-45.3962894559041,48.0449800879219,39.2442421519297,35.2791181134642,27.8338951740895,-44.2629197827211,-18.9530482115964,44.8996332669106,0.473517927997646,-26.0238259238012,9.03846674283909,8.60096401881746,-3.05818823538803,-0.15439366151111,-24.92634832786,-33.5890617612404,-26.233583046977,-20.7313518930287,-25.4546041494079,4.32936929629447,-49.5561188358685,6.76162444550636,-45.0308290973026,28.1516588137661,24.7666770033939,-11.1563079664745,15.1336940638515,-45.3083560028807,10.4729931364409,17.4058328091776,-11.04668386702,27.4571909478064,-47.0366540002034,-2.9694982590967,-19.0795950483281,0.664624764961086,1.30371187279813,-6.36578588546806,35.195627643997,6.30712545340105,-14.9005204589264,9.78575256384588,-21.466988563856,-47.4915674903519,45.6290600516384,-16.2842659277895,34.8551614952639,21.3503452044206,-39.4063921486969,-32.8122933745421,-24.6101249862519,9.99360251563313,-30.8092216405565,27.4323308623633,-42.0690039410435,9.80078528586677,18.0180148521392,9.2226827275821,28.8510726391109,-26.0029956958678,4.33772234788333,21.8893728500206,-16.4708005971855,-19.9111465761469,-46.9162784284686,38.7946675511496,14.2184150265257,48.2720201224964,49.0455543060278,-22.3642401217396,0.999708364158691,33.7273661444669,27.664798888483,28.1201771708385,22.5194826930519,-21.232020137294,49.1655939340759,7.43453130077454,-28.9634510348993,-35.1646407770686,11.742722911843,18.7713340290923,36.8616911059684,-18.7243737097561,-27.9889203985455,-20.0619667760127,-40.2742781667527,43.55772320359,-3.32991990946426,-42.6416125075589,-25.8765351316613,-7.36715661450085,-9.832499677632,-34.3021628936,-17.1057138779331,-2.13749308487686,19.2877312842996,-11.3436348979625,41.5268802001446,-5.03676872516754,-44.5427244727807,-23.8674258268674,-42.949645062019,-47.7057891899584,14.1530931961059,45.7950705478658,11.0149557051924,34.9165420982757,-3.92655773249007,23.2267781629968,-41.0192531062204,0.471745191966155,-17.6953130397639,31.6896234509535,-43.3548705584376,14.6495338378988,3.91472948448389,19.8984973579301,-18.8212674334419
-31.2278771338748,-24.6411794226212,1.54726119053935,-1.5068925011542,-40.5797267822677,43.9299351964852,34.9980032386194,-14.0016804828692,20.1552832581372,-25.7892327744065,15.9417280353321,2.71788329465622,-2.20586898954436,11.5813539518495,-15.1668005660989,-31.8518790880544,23.925073489266,-37.3954146871265,30.5694609640023,-14.9820421903304,-47.2471536522304,-6.70694144866192,2.54494810774902,22.1488728351969,15.7346262748045,0.432241412636591,30.8754060959979,-15.5881060719807,40.5236308666236,-2.82089789638117,-47.8068105091247,-15.3083117818719,27.4067149392329,-37.1232464733859,-42.1834091529441,8.39311165207918,-28.6996138266638,30.7431022617243,9.2249845860918,-41.7879909596957,-2.64482193605861,28.4068987782594,-32.5471283733058,18.348972009335,-48.7491321484549,8.34185382368494,41.8902067208985,1.6729480885077,-45.7513512536139,35.1615990019354,48.3457502464346,-3.62607941308868,33.7950878202213,-47.3085756020409,-11.2783724244304,40.4679071004107,23.1834517016749,41.0741329770006,-40.2767971698217,39.3624446941679,-34.3281806030393,-34.7899157850082,-9.39516394511994,-28.5992006880518,7.83962946695218,31.4577500417953,-2.61248000461562,-11.1946012433039,19.1071511802073,-12.8805461099538,33.8396717621456,-48.5477990042563,3.82320566747223,-16.9973251736034,12.9921305423103,-7.30383775292186,35.7075022660159,5.01907802147598,21.1156986979764,48.507494240803,49.4630444143934,-1.79905934973892,41.7666829822995,34.8778121077766,36.5681886442874,1.86759851491753,2.47242529441775,42.9213286952828,6.45659220771322,-35.0766752875259,38.7484639369775,8.29457774847124,13.8106562564984,-43.2375775169648,-35.6135314278242,46.2212137261723,2.08141437618747,15.1084719032057,2.69310622460684,1.30102585539977,16.8327104772566,16.2630900354053,46.7921027697725,37.1093839007683,10.4880338179116,17.6993682886516,30.2527620328991,48.4053775845611,-44.1436497470296,36.5999242372504,-7.39180654912607,44.8572515440445,24.8168335341471,-27.0190823434387,-5.78129320643886,2.12118763107676,29.5054145241452,18.0403199894707,42.5518515392098,-42.7695254819547,-14.236530865061,-21.2471134512978,-15.6664079078945,-27.3003052871968,46.4002795206671,34.7817080535681,-19.2667990596879,31.9199804740768,-19.3281457566923,22.7312891838297,-16.3589858380092,6.7593958120944,-35.832966452198,35.7910168245961,31.2542865881823,36.8337327916675,-27.4616864495942,-25.1932908409064,-32.1756839327474,1.00297762329825,8.27556274106714,22.1125134511454,-0.970328935666431,21.7302568483762,42.7757897607538,44.4273354295931,1.01990845492239,-37.6658499719922,-5.08103344455755,-13.8919043899347,33.2017962672066,-10.1156266978444,-1.80776436799446,-1.25268824044698,26.0678721160091,-28.7465797869168,34.5105146402289,-2.51067592297078,46.456589040024,-5.16507745342131,13.2108798212136,32.241132751444,-25.3044028668173,17.7607328288786,25.0741195157484,29.3802792343939,-1.60363476666187,44.4198348466207,16.762354559603,-1.92030205536676,11.1703522630486,30.7355026013798,12.6658137164535,-8.09066287041138,15.591888192927,-37.8003241002702,-25.2969147404117,-34.4188344388705,-32.2412773367487,19.630555680582,-45.0254073282575,6.66217464398043,-2.91780225609379,28.2437850937553,0.314968920782654,-23.9165364013878,-13.7261160551392,11.9359285249256,9.70926070809687,-1.33586567836296,-0.0592376010864926,32.0997407186152,20.0763876253363,-31.2837543536037,-1.77718174626158,-44.4330681884569,29.8841474200971,-26.7846961254013,40.0136940620523,-43.6835159884705,-44.6211712204832,23.849697443851,-38.7683944889431,-30.2375961357575,-23.3910894725073,-14.1926264852027,-37.5992992510158,14.5175269535403,23.4204120893644,-27.9918792055497,-24.7598722063707,-15.3782666493569,3.37358111521066,-31.0049321374778,-31.1173619267754,-40.7493737506953,11.8580510417923,-1.49007257281144,31.785344112741,-22.3645150393663,49.6165048262196,46.4471798412348,39.489072090272,9.01806389041854,-31.2960361467261,-46.2209836370168,4.82234154987088,-21.1172068276153,23.651746456462,-1.09358250730226,41.4145095409401,10.5184538322996,25.2241489672356,-31.5410802759639,-42.2330894388539,-22.124370319513,24.3137033347864,43.8821708078043,-47.428650636745,12.4046605818067,46.8680845885931,37.928577527943,-47.1167314190332,39.4035625533353,1.10862566682605,-29.3819069060245,15.0290011174679,45.3853228212296,-13.9117506094657,-11.1035434451094,25.6827965284727,-29.0897630659934,21.0100313090962,-25.3073082358259,21.895998455582,-31.2163085291786,24.837961560028,-2.98747508083331,29.1328005940082,47.4418941365782,-7.94716133272108,45.4177257185408,-20.9102189017553,38.4967190900037,4.91972575138786,-43.5049984177122,6.86133887187365,34.2529193007616,-33.8049178822107,46.5004655007818,48.2811174272931,29.397776090509,-0.173084958736114,-30.9335220168938,-27.3551359268536,29.4120533804573,-4.30876112039047,-47.0682700059014,30.9501793166061,-3.45413736333157,12.772286916244,40.6326764880195,24.2328744165823,45.2498597763161,-18.1444884080521,-31.7165463264485,-14.0105756453225,22.4469462072192,-14.9720116944633,-17.8569318887637,-40.6046929111045,-19.2305371130691,17.3199969520237,29.7413327284328,27.0308639344203,-35.569926950918,6.25885025601451,-43.5702559592231,-10.6972379077395,7.88345121871539,-36.8775186020861,23.9714762798782,22.0664661763323,38.7984582220659,-7.89921894776455,-42.0297003820983,4.63728575674391,30.5649771076042,32.3765235123418,5.93679854806144,21.4111797998901,4.90278318951113,45.1894571085682,24.8127227649907,-18.510768253273,42.7163680622997,-3.97631383453866,19.6315475232419,-43.5431511366291,-8.29931392195509,-31.9413442402799,28.0832468404661,-43.9713647054283,-25.061332273354,11.3882061340239,21.6488365645159,-43.8055536822066,26.380881711854,39.221147449902,-19.6133036747389,-8.54602085380771,-24.9353690190766,-8.53914519671988,-8.57996260376447,-0.641501346043405,22.623476013448,-38.6379225381343,11.0962779797546,43.6388293906587,28.2097389606132,26.9208876056624,21.9967790788664,-46.9814793179549,-15.4660550095284,-20.7642520093818,-13.3954002896228,-21.9306493634121,-25.9999159468662,-4.7903916917395,4.35967582066271,30.1026943927354,28.6412489475626,-44.7720967686984,23.584406367229,23.5042897560201,35.0957732705619,42.7635302120756,32.5428701049464,0.0897958210086425,41.2100969383234,-42.5323418502469,49.2308530193202,-6.65162579022348,2.96705137565757,-1.00284557378543,47.3170443184301,15.8043681135926,-5.45546632328759,-28.4481745251266,34.6069592150639,47.4446733525906,-1.00592821546446,-48.520457892503,28.0632837536507,2.66131780187167,38.6161601048778,-13.7784359058052,36.1766040947137,49.6555180549133,8.63428843563128,-9.72040811467059,14.1099153043676,-4.51372250245762,-6.17173968580189,36.0778612996038,22.9445933219487,-22.1556389082206,28.9289207187462,32.6479093892476,12.8806061400052,3.14888425403227,-10.3799468091713,-8.70776068542067,-19.3508547369598,44.6811326832457,-36.7317347359347,43.9176682680162,-46.0591401730979,21.3899637997769,-31.8195343871857,13.9398419904287,26.3079719778546,-31.066605201376,47.490645069513,45.1799241603997,-43.3118392650949,19.8510476041894,-6.88481655535607,-41.7271699411306,-44.5924341069963,26.6070818586292,47.9986591967147,17.1744216620568,7.91675210058405,41.9628614943266,43.9906194546476,-4.82316059684682,-39.5066985263648,48.1472446985548,31.1612167082095,-8.44953398149812,15.8083991341663,17.2595709553267,-33.070286230239,-9.55180122122645,4.30015692822537,28.8370147952084,6.00910458241946,21.4217273851779,-29.1875692569744,40.2930049642773,41.3673930254371,-32.6044691933482,1.02263719893323,35.7652830450149,-41.8624258159586,-45.0681853128096,47.0319512835467,10.6817142815623,49.550978551884,-15.8908030417751,-23.2758802437815,46.5063719360191,23.2365432110102,-6.27974561939856,24.7562078805128,33.4658285932136,2.27055451132132,29.7582058073223,25.6241414503495,-6.43707153065568,-19.189061225159,-49.9853190339617,0.446145464774728,-25.8228200233613,22.7693763144813,-16.5733924729042,-12.7489195471511,-21.7245031800726,-2.72418878139729,37.2713421279101,-36.3963524126278,49.2357159356342,12.7663801332405,38.3793063174404,-7.38940306519076,12.4504846229635,13.1683883993002,-49.3282166627165,-22.4857331878488,43.9531542973893,-14.1442758168798,-21.3842004065898,-2.02506858356613,34.5176896859449,32.700249756804,-28.2995010590905,-47.8933319170806,14.9069405039992,14.659639553895,-31.8340313187648,25.0988925888557,31.3924069410509,-28.5622620953086,41.1175195482822,-29.357959497375,12.5405746726,-34.4971281466994,-0.535571717234185,-23.598649986537,33.8174157478849,-47.4412973848092,-16.1954830809415,3.77162543287922,-31.2127165336959,-8.10448414725724,49.6501505142233,34.3626829367752,-21.511620994754,-43.1641111531409
-41.9258731235125,-17.2436052311266,13.9795176130857,-47.0888436327282,-13.8951581536191,44.354008201588,1.47379670006791,42.1470565959177,26.7331381117783,-41.4929538249784,48.6501441403396,46.1211140174115,4.20904090770085,8.85000649730712,9.12223113896565,-38.0230979241517,8.29108159234137,-29.6968019212183,-30.9343665801708,27.713429224723,-22.1022327925654,8.31126288435887,-39.5439793557867,15.316407775054,47.5459211104141,37.4183720385663,39.5599560140893,-11.9322942676607,0.105462379987586,18.7846756133004,37.1350880483909,-28.8473104940542,-44.8542068466175,-26.0099319702022,32.9808402863943,38.8999355442008,21.3216989608461,-29.8946140265495,21.6642394563357,-17.8821091123568,38.3176582024662,42.269372368169,-45.8011766222424,11.9878313384938,3.36786787627776,-42.1055462713146,-23.0346590349146,-15.3332040762397,27.6036064337154,24.3281341374937,-22.6054296890461,43.1156656776603,30.6509648386861,-39.1460914698975,-44.917858830818,18.5042312380268,-37.9872219978822,16.0343578251619,0.268618375017038,-33.5385400672003,13.4754139259569,-5.40881373834622,-39.4047829729645,-49.6397967942168,5.06052399635282,-13.0392955401314,21.9002523563257,1.0086076592842,18.0285609022945,-42.8842893531986,24.755815001575,0.863071800036563,-11.575932725144,19.1970036617254,9.85840189263705,19.7327066857378,32.292222204284,20.2624593119962,46.040805311605,44.6815197205421,-30.7672950193102,-20.3262133157015,38.5007675764265,-23.9922664276473,48.089409742897,46.6860824136031,1.82521667844269,40.2284785782749,32.1507105417764,3.89659297776564,-23.5579954651163,20.8970507641895,-37.4944301944021,29.7970285223509,0.574094240078993,44.3414469741575,-4.61157161709948,4.94206347468024,47.5114610648204,49.2870043410436,-46.2582664101454,-21.9122298042793,-23.3556426519941,-36.636737789614,26.6926923567941,8.81227662977834,-27.0828804922541,-34.8286249047067,-28.6539284660775,16.3508627780384,2.53470178859868,4.75418486772256,-14.2504098564485,13.3039594008257,34.2065010913276,-21.2586448363111,-25.1247891867923,-36.5027386292566,14.6766410362634,-49.869545247769,-1.83650341612919,-10.8250204404454,-2.89416525622694,-8.90327849865725,28.5842849742572,24.0516806703669,-31.4219143358264,44.9174967871685,-31.2709492473166,8.22024070614578,-27.564422492017,-34.5483464129552,-35.7061047651066,42.8982840727863,-24.9626522639194,-40.4696019883093,-23.2839353570556,31.7948085381293,-45.8466455045865,-4.52144663134249,39.5289428877931,15.1619962894504,2.62100893997973,43.3166690027329,-44.1942729166913,-21.9469854489281,-13.1588539283046,-33.4797288834233,-44.5972758763223,29.8463592100576,-18.8182612834868,-40.7948432518115,-44.5514166860808,-39.2404238632397,-30.1524565707711,-29.0422096098789,-46.7615881946029,-19.6278182285246,-12.786623243403,-9.89763791851858,-16.5939081297302,9.60901607353084,-49.5167542144383,9.07207500420787,-19.9800537873201,34.8902312739728,-13.1936016998355,-33.6054086556455,41.1663909732123,-44.2984999485943,-20.6578103449748,6.72616512641023,24.1445521623288,-22.3197925347175,42.6606884524615,-29.4991151723813,-13.7480158688128,-43.1423517231304,-29.9930753844973,25.5878844874833,-16.189256457899,0.488020055152238,9.10717576428519,-9.24797736366425,-41.9651568195707,-24.9227209026786,-39.8878929950123,-49.036872750003,11.2548428087498,-7.96206530119308,12.050473553137,7.59217571101967,-10.8226493993475,37.523823610962,-7.07237823490207,47.6761036301325,-18.5643462054422,23.1948937590468,-27.7082608911349,-34.9089939872217,-33.4314986361557,-39.9887134870883,44.2749300312362,-15.2217606265492,2.72680797949403,43.0158252118278,9.35440053943489,48.5701025046945,21.9787611900295,1.97956065894159,38.298459340594,-11.5778582751315,-12.6734945797047,20.6049840349858,16.6394991066706,-14.0878325117556,-16.9132749169317,-44.0667874208709,23.8801696695144,-13.9352586537678,-10.3052704552314,-7.31293806986795,6.95733655197285,-18.6082838424768,18.8569393692808,-12.7869203130909,10.9006359061978,33.624834261185,-41.292734934956,-13.6221350228419,40.2198855851681,-18.8854568272415,31.1317004721641,-25.8706747345865,-34.4000866766204,33.6756343946317,-13.9589961030172,-34.2261463662794,26.9403491543785,25.6941929600013,-26.8400760487313,-33.3782268141543,-44.9064281348785,-45.2729734578772,30.1661452189844,-16.3916051291335,43.2919808197667,33.539531224479,-14.4864167523082,-0.667361608214567,-5.00117559687124,35.9330111676448,48.0017530860675,-16.4953448430156,11.2141812473744,44.3303526701351,17.0424221688615,-6.26678867955554,47.6440604657673,-31.240375007314,-8.24745129936044,21.1938424263242,-48.7515986762613,-40.0733402779496,21.9041141807737,4.42310864797821,-6.27290061101915,19.8370474647343,44.5152298208027,-40.0261525398056,5.417753759489,-9.54157612347791,-9.26327915146679,-2.92276492726077,46.7529808882856,-34.701658280214,-3.41472314166351,-12.6738337341314,-6.43968423789948,-18.1876143780322,-18.108458690068,41.6424691127208,16.7221441300824,-17.6711022603591,47.0698838875842,-1.35212015862032,-15.9481183707664,23.1868444400678,35.4929825785297,36.9703353015782,-21.49603541721,-38.3382691510199,29.6741283636254,-8.43227158360471,22.411461872198,-25.0806916807342,46.7593251010445,7.66719914618611,27.9495099999913,33.2653778296124,14.7878928954895,-25.9756685591027,12.6944241555188,-2.51366243638859,-9.40152248348051,19.1326453508963,-0.583588789798317,34.0315404208836,-9.83729360128586,48.6966451248244,26.1769211882041,-47.560810237071,23.3423202947674,-41.9965609690057,-47.3071002893443,-46.4287562367892,-30.7717803435701,12.9635769107795,2.12126039919598,8.16574373204052,16.7429934984197,10.3127616876792,18.6004757482024,-18.89585099221,-10.947071473096,-28.0142391805829,-28.4795696956198,7.05532035571952,-15.9082730664535,29.5785324863665,-0.319632947628568,-17.0250150117275,-10.6955765258589,32.7795300513907,14.9115275316203,-18.7740079342985,-11.7638771040219,19.6357478372523,22.4727016191294,2.47708846987559,18.8683354629633,-46.9706687936182,3.63268142258756,-0.32988395439929,32.5289524285074,-35.2518807602758,36.9872963327931,-18.8333103167482,48.4578418528843,7.49850038872191,43.1741447990077,-43.4883291229401,43.7348049514899,-45.2181176364601,-41.6688444121981,48.8126863021195,20.9886872975584,46.5979289746181,32.7142346487835,23.4655168002113,41.7627578997258,40.3858113352782,28.3421683041586,23.4488678686347,-17.1596686689848,-27.7073941350731,41.1323351743162,-25.9210570533898,-6.07945448024213,32.732653011537,-36.9551858650414,-32.127491710766,4.81011115441231,-3.7183651326455,41.3991800201799,39.533858614379,12.2343958764739,48.8357130647444,-42.7674603151754,19.0114617015907,40.8468151988536,2.14972072062937,-12.975970430058,43.2204605089437,-25.1252249023915,-38.2280778182671,-2.30871793837983,31.5077710611688,-12.0362924547692,-4.23994592558619,26.4755102710335,-20.5244863780253,-21.0561932070669,5.9657830339865,1.90814812586565,-48.2032216385435,-5.43617851906047,-32.9128776451713,13.6961488239622,19.0717333447208,-33.8129043488699,44.0216467742629,18.5790635825149,32.0477718126769,48.576746006444,31.1558032220288,27.4617747843188,25.8231857756507,-4.80737031758418,-29.8143749522479,47.363150447649,-15.5861452275216,-22.1141806873208,2.43453321621347,-42.5773686334454,36.8031485197777,-38.1944698358163,22.3541967052052,28.5440312205164,12.4533981336286,5.04331484547903,-37.7195557986846,-9.5162552082197,39.862398969272,-24.4149542414877,17.0845909622012,38.6591680027591,-25.3601832843461,-18.4759914916833,-26.85834957263,22.9872671937115,-25.6028203391033,-10.8462489640355,26.8443009355758,-32.2269433774018,17.8495663122088,-33.161809144693,-45.8985260112913,43.3725434449967,-2.08369035363976,44.4170170917078,7.33819854490171,19.7919553312073,-32.2716881325149,24.942114574978,33.729939851036,43.3267007636472,23.346551795701,35.6241831656143,-8.97002365784693,-24.6457409178925,21.9123791834216,48.6056663504176,-22.7562234631097,7.12016948175521,32.5957041695682,-46.9034457177385,-43.4773446412724,14.3973787415992,40.6139961331906,47.9986707377721,-23.2440597527704,19.6847260402904,-5.5226802901714,-2.4763050000037,7.05434832696952,-15.8988146034001,-46.025127235877,-41.9262824409611,0.541851614085409,22.7177275302043,-22.1867270320433,-29.8936679772499,40.4072703327435,-12.0429940154513,-21.6981563613647,-25.7125579063604,27.2516386351521,-49.82418556224,41.397495825454,-19.5195067332078,13.3123222650789,-45.5897223038449,28.0467446588282,-12.6083089104018,-24.8664863550547,6.81963960389576,-36.2917894160558,30.3764288832417,-22.7546152493528,47.4518306521067,43.594685325496,15.1629692310525,24.0522910719635,-8.92778266881472,11.7407133475377,39.74805319052,-9.23921936472133,10.6093484534281,-19.4869260952612
