4.344351404593072008e-01,-1.821032554091690514e-01,-4.193084827077092624e-01,3.420892329905927953e-01,-3.891180282686853564e-01,-3.127731045057872139e-01,4.557784966269781135e-01,3.043741734740013083e-02,-1.474217219031864756e-01,2.561551481482485793e-01,4.336558879515020060e-01,2.246746113605024853e-02,-1.379329186524799189e-01,1.213488886439461067e-01,1.432418846905243459e-01,6.950576704856148424e-02,-3.010660511965157493e-02,-3.875578353957165323e-02,-9.121364617400440356e-02,1.310138465438490663e-01,3.661479930848342557e-01,-2.693213502545973581e-01,4.112388608622097319e-02,-3.768634336703819976e-01,5.399075688191978806e-03,-2.212844394369929413e-01,4.118952873770549417e-01,1.775551012089237046e-01,-8.254142448315715530e-02,-1.141659279090359025e-01,4.889392786270017055e-01,-3.427835782989926416e-01,3.365728665460990809e-01,7.372193476215360697e-02,-4.823534543119334383e-01,-4.521425312690967591e-01,4.134736355556546394e-01,-8.772543813659272605e-02,1.333784406456609561e-01,-1.345679897084676169e-01,1.652051879397573586e-01,2.474579373164391694e-01,-3.223761085034141383e-01,-6.287281499096364357e-02,4.304990378515937133e-01,3.054956069967286192e-01,1.122514987825820043e-01,5.704494657918646183e-02,8.051496382472711488e-03,-7.345275891774694088e-04,-2.776755773907522151e-01,-1.185512027481147035e-01,1.675542651421830787e-01,3.816049722975421998e-01,4.231342135297891938e-01,-1.533525712227279403e-02,2.556193836184836865e-01,2.890427346023817234e-01,2.412069506474487923e-01,-2.071863007930454526e-01,7.552617824586416173e-02,7.413254982981898333e-02,-9.064458815391218671e-02,-1.843424225793145466e-01,-4.786649294034508451e-01,-4.421634559011554666e-01,-8.067263554638293144e-02,9.917219973456603554e-02,-2.820742549015385903e-01,1.623859591756215970e-02,-3.167882718612058390e-01,-3.066481769962036141e-01,-3.395097929383540380e-01,3.386606808935491708e-01,-4.871346898095826328e-01,-9.837147233055965057e-02,-2.599011856172709356e-01,-4.243757917937897028e-01,-4.999555029115909655e-01,1.902437823042714138e-01,3.743222669167378669e-02,4.220300167051727058e-02,1.536558746773480921e-01,7.145066448448134100e-02,-4.090332529294885555e-01,1.198392650893627120e-01,8.501029921097880138e-02,-2.469642283180752962e-01,-1.078699011313155598e-02,-2.464346357857457592e-01,3.642542142619573653e-01,1.577573151342704927e-01,-4.771756062977650092e-01,-1.654146176568382920e-01,-5.117857225137800725e-02,1.145726789707979254e-01,4.343954992052201369e-03,-4.862594186006672370e-01,-2.370937839343245646e-02,7.873666575777138465e-02,-9.497936357011738107e-02,2.611081663513139528e-01,1.124937373884075109e-01,4.687974944427014679e-01,4.305422983488804700e-02,-3.281447409180513475e-01,-1.822938225808404811e-01,2.171097741704682837e-01,-1.795990988110299780e-01,-3.175997217872573719e-01,2.979286374048309982e-01,4.157730681054958577e-01,4.794088434504237828e-01,2.499875793010348790e-01,-1.682847568465850596e-01,-2.374842784128976536e-01,2.466619863356088738e-01,-1.700077077719988061e-01,4.555120999263779780e-01,-4.493463589990900342e-01,3.586330045293453228e-01,-2.611868804287701407e-01,3.902515359213332147e-01,-2.884726325830325733e-01,-4.144027516491498586e-01,-3.949167418885903835e-01,1.862327665570725488e-01,3.088299717781570752e-01,-6.203858053522126603e-02,-3.706501060440777762e-01,2.054374517241757125e-01,-4.489211847222870366e-01,-1.867092242028871585e-01,-4.202723448091907343e-01,1.857686643212738131e-01,1.627810571751339141e-01,-1.647511686818348142e-02,-3.868604116112086544e-01,1.009240829558820662e-01,-2.320132281224687176e-01,-1.028594700576372922e-01,4.321871517875267577e-01,4.658472016795047743e-01,4.235853125162316601e-01,4.184680836026177797e-02,-3.553085375469990925e-01,-4.308964593456801051e-01,2.714502112561132385e-01,-1.249942339693248528e-01,2.794702586840417391e-01,-2.667145595041123807e-01,-4.964224146225530987e-01,-2.275296482096966777e-01,-5.222917947936600580e-02,-1.433638975604456522e-01,-4.578661415083337127e-01,-4.607447771601868025e-01,-4.119119085459221896e-01,-2.831695263279214725e-01,4.449258591177582822e-01,-2.293050051374936338e-01,1.157534521009231376e-01,3.688009987465089567e-01,3.532134743721739856e-01,5.622583858406027257e-02,2.571093347905606397e-01,-2.153783938440206880e-01,-2.692001029610212592e-01,3.415073517873882247e-01,-1.828012803416669829e-01,-4.924311352626961069e-01,4.584300142085403484e-01,-1.069998315223477103e-01,-1.071638319721101018e-01,1.628481510654111730e-02,-2.415707754249279970e-01,-3.384164455974012498e-01,-3.691642156956614906e-01,-3.093164399991318314e-01,-4.243565356333803829e-01,5.574142964311823434e-02,1.868740104220169007e-01,1.805387077007917229e-01,-5.355944783680388621e-02,4.987706409522099094e-01,-1.469753044097366068e-02,-2.669355402990775117e-01,-6.274976840473134310e-02,3.629114181743361423e-01,1.525639107028761154e-01,1.208492177195863437e-02,-3.104066236649961619e-01,2.383725765072859382e-01,4.782570520126289138e-01,4.726204916905356601e-01,3.407771115658763117e-01,2.579977638391482975e-01,2.084395814998448726e-01,-4.037437858273040803e-05,4.002292564103187011e-01,-1.733548792966360663e-01,-3.895896614577960548e-01,-2.668368749941272267e-01,-3.231084091341763775e-01,1.733289403219125946e-01,-1.149724776102036827e-01,6.775950141405462368e-02,4.313640482810602306e-01,-2.844604896471585320e-01,1.843464938803052178e-02,-7.934263751706382983e-02,3.935092421194227308e-01,-2.747536730848328945e-01,-5.800611336032424070e-02,-3.321904684682044362e-01,-3.870687233233820468e-01,-4.074857395413813421e-01,9.470849055602670319e-02,-1.730201138838656227e-01,-1.907187135602295136e-01,4.172809023757478863e-01,-1.013467813932202866e-01,-3.979817019926641386e-01,2.956152619292461425e-01,-9.911298952276759167e-02,-1.540200473264006220e-01,-4.770236272095933483e-01,-1.003821992093807403e-01,-2.461812738543378565e-01,1.639349763940293192e-01,-1.326950204780380504e-01,4.567305081108151699e-01,3.733863366536227524e-02,4.175582552089681654e-01,1.263855088086881517e-01,1.710812131855821150e-02,4.180191822591413642e-01,4.733828661143144600e-01,-4.993347895007799186e-01,2.460795770874620869e-01,2.704954461252948583e-01,-6.283693369571474729e-02,4.231385696947894681e-01,-2.581289178558431319e-01,3.059209560457798460e-02,3.903927129863534740e-01,3.943387417126023031e-01,2.667187499802280426e-01,-3.658512552606623114e-01,-2.754318288846592244e-01,3.542273093609160650e-01,1.346061125633301048e-01,-1.141827873306011654e-02,2.820320118845170976e-01,4.783286111885098890e-02,4.242986951739976531e-01,-3.367318914374429761e-01,-2.846280083099818059e-01,-3.524842952730555812e-01,-2.454880037528969217e-01,-4.227866240123346886e-01,4.468933631358406044e-01,-2.790258359777161301e-01,-3.657312407595312287e-01,-1.892690480971025435e-01,-5.860807961824421319e-02,1.405853236078382640e-01,-3.882449958279009516e-01,-4.277280686042250757e-01,-1.999590720147141898e-01,-1.230873976409664339e-01,-3.359348124606639230e-01,3.203840975981425698e-01,4.644399451349197072e-01,4.675832369434174129e-01,-3.702377972426288411e-01,3.312382491257783723e-01,2.702304991834695302e-01,3.959781346579482886e-01,4.038042108438828492e-01,7.035517605502139560e-02,6.975266352146325399e-02,3.367509711663134730e-01,1.234024985770485472e-01,-1.640374794818207915e-01,1.871472595907170966e-01,4.807837306205661188e-01,-2.017430314272961045e-02,-4.203106331530559459e-02,2.471729659394656942e-01,-3.951527339432163721e-01,2.164604516515891142e-01,-4.062016628191454926e-01,1.964169408284610618e-02,8.028296300819137699e-03,-1.092375009005682740e-01,-1.256696389653674251e-01,1.345244996572511065e-01,-5.520032195047597234e-02,9.088685007994734555e-02,1.782813229561373003e-01,3.971885151175429396e-01,-4.324090812226655256e-01,1.674663531719452481e-01,2.581187345804382138e-01,4.222004997731524378e-01,3.100019256459705108e-01,2.241342959119742018e-01,-2.356122172339880638e-01,-7.173523825864447367e-03,3.150658400558055128e-01,-2.766617279601555346e-01,-3.015730816354731392e-01,-2.852916016125920384e-01,1.338588123509132366e-02,3.775751444129060719e-01,2.500120220359597356e-01,-4.675069159016177478e-01,4.190718072769283875e-01,1.091445552973816513e-01,3.566689943032029797e-01,3.321400650013174305e-01,2.161771429398335886e-01,1.990420405141851701e-01,1.715116726493337573e-01,-4.832051918332621598e-01,4.175984601932127838e-01,-3.243844571068388305e-02,4.775502844680723502e-01,-9.589387448477970644e-02,-9.155450781332086230e-02,9.230481978536786425e-02,-1.713128120374729502e-01,4.256747567614374006e-01,-4.048969348459008355e-01,-1.410802971428506414e-01,1.593849340285563576e-01,1.974964002359622661e-01,-8.796794256368400955e-02,-8.867831050501007173e-02,-4.129561530589981322e-01,4.769222688919582120e-01,-3.512460242044942449e-01,-1.613346546292366845e-01,-3.268090314594447321e-01,2.057386130946744496e-01,2.889811016658606624e-01,-8.064880906847382569e-02,4.672989640317730675e-01,-3.071348220314661370e-01,2.567765517595959057e-01,-3.582855078970275109e-01,-4.687340180494837805e-01,4.347447599863112355e-01,-2.610581661401588649e-01,-3.706157710356026147e-01,-1.989484355068561472e-01,2.284259317029508907e-01,3.590967444274530962e-01,-2.801868879531514978e-01,3.747012627004505658e-01,-3.290209948796191108e-01,1.646062850250121778e-01,2.196134371486950787e-01,2.305594115056883719e-01,-2.216513043602130750e-02,-3.224666558880315836e-01,-2.213275199637422253e-01,-1.642432447454510447e-01,2.264296730995520868e-01,3.698782702117932031e-01,-4.007003473694532580e-01,3.226327239392281498e-01,-4.394040930775762188e-01,3.316200394247502681e-01,2.881433492284243281e-01,7.090275325017159069e-03,2.150623746704206640e-01,3.423677843563972534e-01,1.483556284825348071e-01,4.593226633747132803e-01,7.715676030950735509e-02,4.370149627669623893e-01,-5.367792195563003688e-02,-4.542631883406476057e-01,3.346595490326325084e-01,-3.483306300896135133e-01,-3.397446377944308704e-01,-1.322503281300358990e-01,1.618804705648058118e-02,1.103192239921366724e-01,2.279462777406150442e-01,1.892563599999884660e-01,4.942316935781865261e-01,-4.593786613367443206e-01,-3.097434943847714450e-01,1.345100824047906762e-01,-4.259480506762584051e-01,-3.143978400326201683e-01,3.132596712571966702e-02,1.463871177019323566e-01,5.580314691765919655e-02,4.408916238013729227e-01,4.147733596385352328e-01,-3.841388367774511980e-02,1.207545772681601903e-01,-4.769581694930418170e-01,-2.702678654204115904e-02,-3.507907861881703893e-01,-7.751897423233577999e-02,9.409701244746160320e-02,4.462387361293670418e-01,1.955563807131711629e-01,4.836826924815651463e-02,2.231717702457350905e-01,-1.183568501339047341e-01,2.900016822322099008e-01,-2.773195702776702909e-01,-4.470307954349097557e-01,3.769230898358424398e-01,-2.400701331563703800e-01,-3.196894770505526173e-01,1.169209522283761737e-01,3.313499674126929584e-02,-4.233509356338482910e-01,2.295941017258432693e-01,-4.016841492414082726e-01,2.207476808713535466e-01,2.418024228076053328e-01,-1.534784038266543416e-01,4.045187761607319521e-01,1.393519528959717979e-01,-2.307885741939346147e-01,3.535214225261452681e-01,2.001614869674150921e-02,1.770167248301957041e-02,-3.200467033264834393e-01,-4.479932560067630964e-01,-4.585291587964348548e-01,9.399412234587167791e-02,-3.508067041220765958e-01,4.610177548607655718e-01,3.513999598091112064e-01,2.212065026813362367e-01,-2.222080374170481987e-01,-6.723369157676728491e-02,2.524096921075695832e-01,4.074867715852669159e-01,-1.222278941741571368e-01,-4.577113218978889897e-02,4.371455898252043504e-01,7.206458042344265902e-02,1.093612604400250321e-01,5.535517089998731599e-02,-2.363537028976659959e-01,-2.799711152252523094e-01,2.108852449461051659e-01,7.655457705515045230e-02,3.807719077401656715e-01,3.103835734095240495e-01,4.903004583197242416e-01,3.244373093387300511e-01,4.291375221228168613e-01,-3.439588874291837906e-01,1.978773302710822302e-01,2.084871367065584957e-01,-2.589050875847128674e-01,3.767601664996378386e-01,2.618056778223243342e-03,1.195362130752377627e-01,-3.215902187748631569e-01,1.651912972523135181e-01,8.575123750710711423e-02,4.460423221929494808e-01,-5.999378000916422149e-02,-2.564629666277122855e-01,3.686440423705807934e-01,-4.488380378957572692e-01,-3.420501071769952439e-01,2.062331123846624648e-01,4.014728901292322627e-01,-3.972156457594914203e-01,3.048344595275311875e-01,-4.118720081404735334e-01,-6.689043868150656991e-02,1.471897695137642792e-01,3.131645096469873879e-01,4.575868316156918025e-01,-1.431300967252646661e-01,1.127752480412407277e-01,2.244913489399836815e-01,-3.890910166996908170e-02,2.694809437741871871e-01,-1.442293550072238917e-01,3.150309285273180659e-01,-2.948919932923935727e-01,-3.094312320786264392e-01,2.252392066845106955e-01,4.235345427144057151e-01,-4.910446370914842706e-01,-8.867268739792577570e-02,-3.471013680562627934e-01,-3.542996872785088014e-01,6.285755340019338888e-02,4.776526835322918441e-01,4.682024505163069339e-01,1.118987819768799685e-01,4.894741417383728921e-01,1.130521356231460883e-01,1.175604354970586352e-01,-3.076945916904946232e-01,-4.655491585285294054e-01,1.052678839478715656e-02,-1.489395546603753395e-01,-9.309857900790297069e-02,7.066073574809972335e-02,-1.202886572155769107e-01,-4.621785516567702423e-01,4.232555744667862996e-01,-4.794975202789147906e-01,3.476387738058379639e-01,-4.473213968779033989e-01,1.146577952107655785e-01,3.828326868940207239e-01,-1.621028996754677598e-01,-3.533213362645444278e-01,4.536351689676150212e-01,-4.829659462703493888e-01,-2.757467765420773542e-02,3.823716128531283731e-01,2.419618666035922017e-01,3.460711537996985498e-03,-1.270592301289985571e-01,-6.938634562382828275e-02,2.686575342100783192e-01,1.970772210058937546e-01,1.076761010030556909e-01,4.613243250973566578e-01,9.663286826420824926e-02,-8.907302695426644323e-02,4.758624183595218105e-01,3.053035881312523570e-01,-7.652290215310775245e-03,-1.545833790134053531e-01,-4.937006888246413538e-01,-2.927773110550969671e-01,-2.967206666272295124e-01,4.250859707874803384e-01,5.047691311442226159e-03,-3.246133840451211894e-01,-2.608112444367638449e-02,3.335846303204987873e-01,-3.354357553623826815e-01,2.418511405919546720e-01,9.458232246604036941e-02,-1.777189403123130562e-01,4.749174900692330059e-01,2.896767841810506949e-01,4.468342011540133996e-01,-9.089190219675613580e-02,3.785959869859556459e-02,3.711279027521913187e-01,6.673219236288052691e-03,-2.723145627289681459e-01,1.781075145213174560e-01,-1.978457205386533468e-01,-1.969742167747127182e-01,1.285292402141728907e-01,1.471775783516168223e-01,7.173904784920304145e-02,-1.019444699548729405e-01,3.027930677558415828e-01,-1.402469504433070391e-01,2.582115632734373056e-01,-6.516209146074869452e-02,1.299213896996498363e-01,-1.028224173074491210e-01,-4.073662809701715792e-01,-7.390751500186232281e-02,-2.770993682624134369e-02,-3.148813210200498425e-01,4.768257239901585454e-02,-3.203305541697594183e-01,2.877229503550802203e-01,4.138368734168091922e-01,2.624799086854325836e-01,1.864192674203344335e-01,3.713892301672977458e-01,-3.442993463475774174e-01,-4.055346071640413275e-01,-2.658783245364694237e-01,-4.016459616063738913e-02,-2.367801253788670568e-02,-2.802549188747571751e-02,4.285257646686336797e-01,4.028618047714545014e-01,4.238253682939240319e-01,-4.000855420007876084e-02,-4.771560271754516913e-01,-1.276790471493750578e-01,-8.281637355386650690e-02,-3.847992003402577188e-01,2.882817984824557200e-01,3.001269559466426262e-01,7.162579328644791410e-02,3.973318328229041851e-01,-2.332886172691128746e-02,4.078646543130082236e-02,4.614789415845768072e-01,-3.844661677067288119e-01,-3.742394016244187105e-01,-2.498935701381121977e-02,-2.187162928852166566e-01,-4.932510584223752659e-01,-4.586336232926511158e-01,4.612056027417409387e-01,-2.066893875907784839e-01,-1.254735029180743533e-01,1.950763111527914484e-01,1.159423153395754413e-01,1.355997913370567964e-01,-4.971088802120998684e-01,1.027789491554533807e-01,-4.055329243300854758e-01,-4.824606038306914479e-01,1.445141999990795512e-03,1.316206339692944649e-01,1.508188757765619448e-01,3.751412372214292246e-01,1.324041732573533192e-02,1.882768711423769004e-01,2.026500099983373770e-01,-1.370333641807284231e-01,-6.622296442093544844e-02,-1.267002871926620200e-01,-6.162502757784249496e-02,-3.023556832987962517e-01,-3.933413760740714915e-01,2.315465511330393467e-01,-3.012913093428082334e-02,-4.242251384517879975e-01,1.814660864661465922e-02,3.542695533164311739e-01,4.081788148451545029e-01,4.228342539737858230e-01,4.072724795433430023e-01,-4.117575590958281184e-01,8.269915165095564902e-02,1.573760356544093852e-01,3.486014197741300613e-01,-2.776429159553662762e-01,2.214447828026132603e-01,3.085279070309210336e-01,-1.644487411109963881e-01,2.831912408815939752e-01,4.893639602008487133e-01,-3.001480257416277997e-02,-6.956156498290066992e-04,3.249093627984691590e-01,-4.804716942098284926e-01,3.287739957355078069e-01,-4.231991102446668318e-01,-3.583903630806108964e-01,3.707915225900411116e-01,-2.319444562813058885e-01,4.568490288164441804e-01,-2.696703798859567680e-02,7.724191797243040725e-02,4.140392291302866790e-01,4.571185227396582507e-01,2.451894678947114103e-01,9.634052861294950532e-02,4.492206430968098685e-01,3.694557095075886588e-01,3.107351467455521377e-02,-1.929229669479159970e-01,3.754367699138054792e-01,2.459091674206886902e-01,-1.441917404079058329e-01,1.102046492178496706e-01,-4.628625676572708514e-01,6.642993032180632973e-02,3.744248563805492314e-01,3.771089415305151071e-02,1.390620904933176361e-01,3.219174065495141734e-01,3.479191399484804492e-01,-4.740187092617487163e-02,1.688362743024860446e-01,-4.069082853577959957e-01,2.785704170720232353e-01,-3.564590342794533573e-01,-4.976714980179069991e-01,1.918138619144648116e-01,-1.136994154803004919e-01,4.156570276177832257e-01,-3.124458696243138656e-01,1.718850226094299494e-01,-1.486734941494184392e-01,4.871642726532576795e-01,3.394636537909431206e-01,1.566836334007934983e-01,2.286093049765484109e-01,4.890433170116903483e-01,-1.529571520855853572e-01,-1.240068064579258333e-01,-1.910716921419186587e-01,4.162679999243825701e-01,1.950433132663240698e-01,1.110594939408451332e-01,-4.497887829846036745e-01,3.504142043399803841e-01,-4.625868867637938919e-02,-1.511142395187728971e-01,-3.053715189104874161e-01,2.265208473294876290e-01,3.645073384837803632e-01,-3.589817962539577634e-01,-2.131047604417860564e-01,-3.605543376900923747e-01,4.841728674828370549e-01,1.701841877995069474e-02,3.743867149377820835e-01,1.778144354914653613e-01,1.846300181633567794e-01,-1.837215473629560947e-02,-1.705492278611367984e-01,-4.757223225341278283e-02,-2.233213943901352083e-01,-4.179527313123104770e-01,2.501239437054612047e-01,9.528838542648276899e-02,4.582311136360280868e-01,2.189135522330256656e-01,4.484091344285495717e-01,8.341267590307333002e-02,8.089052709578958833e-02,1.738374793635455440e-01,3.936253675866980828e-01,1.461290451977268479e-01,-4.556714423524372837e-01,-2.706953419138431460e-01,2.182262397506617990e-02,-3.410870722063921168e-01,-2.986710801235932244e-01,1.927148102649078876e-01,1.072944916365585755e-01,-3.863278177849287509e-01,9.595143109948411908e-02,-3.531398111647769955e-01,2.754672842569952929e-01,3.633478200237943989e-01,-4.826472058804827103e-01,-1.007656912623664525e-01,1.216218743867883978e-01,1.805625432737339997e-01,4.876713144295269364e-01,-3.720747742564225469e-01,2.132651336822755095e-01,-2.272071087083820107e-01,-2.637096992782290705e-01,7.198950962725114699e-02,-4.137011853659816607e-01,-1.336506988457667466e-01,3.524422005089415944e-01,4.371681368879110074e-01,2.161812798280653425e-01,-3.690496611224081125e-02,6.640863205477898212e-02,4.472485211845002029e-01,4.210463509040611729e-01,6.793917128502391378e-02,-2.514668980030470014e-01,-3.966978248811103835e-02,1.590992571932540178e-01,-8.469233318332158866e-02,-2.047550390439403234e-01,9.137687852549836176e-02,6.591944857570375405e-02,2.542830052273983288e-01,-4.628373226902986470e-01,-1.478120244170794129e-01,1.573722625883668957e-01,3.991970446901926817e-02,-3.813374962646765010e-01,2.730840655222720459e-01,4.669067183868365056e-01,-3.785376265846360777e-01,4.623998671129153637e-01,-4.722044548398653951e-01,-4.090852197050518502e-01,-3.751090247841142311e-01,-2.297661954455766375e-01,1.765932092501965034e-01,-8.589959780249456500e-03,1.218085778794819607e-02,3.215311811690968469e-01,-3.359254880744255711e-02,-1.522119515013811153e-01,3.019996361532014673e-01,3.751326052507349962e-01,2.349289261675685525e-01,3.078928894132263450e-01,3.369535957861539144e-01,4.118854674850416231e-01,3.943428318907341579e-01,2.845616842810682057e-01,8.111635789287086062e-02,-4.417577238174426046e-01,2.969395910014719364e-01,-2.719994948590632733e-01,7.639401487991759332e-02,6.193518010307119681e-02,4.929710332454939614e-01,4.097447718148932161e-01,-4.065775771346470391e-01,3.591516180396262525e-01,2.081899296931413179e-01,6.667978539181096398e-02,1.248295948562413438e-01,-4.506439317331274452e-01,-2.403844396466627842e-01,-1.237011012800840470e-01,-1.295399278067487225e-01,-4.934905752975254911e-01,5.935975634459800254e-03,-2.746884555445174847e-01,-5.791087273482542486e-02,-2.733536122955004810e-02,-2.035624798664016355e-01,2.064814238778388544e-01,-1.461293656007722763e-01,4.843790419345433973e-01,-7.982142362239874611e-02,-4.888352986463617711e-02,4.747094434595068302e-01,-4.869944243180763799e-01,-2.483497168502202257e-01,2.182727073317461963e-01,-2.213953424456963637e-01,-2.403188760014602909e-01,-1.875913901929546768e-01,-2.087414226841816101e-01,-2.946341837681245579e-01,-1.654064292922728940e-01,1.390339791701071803e-01,-2.600431347391294334e-01,-4.936155676807636450e-01,-7.618032445611211401e-03,-3.726739332152282369e-01,3.934123756413721029e-02,4.613003462836048341e-01,-3.208123101281700196e-01,3.776691949408350624e-02,9.230188909142833520e-02,-3.347453474266548490e-02,-2.407632665001739891e-01,4.150165383995955137e-01,-3.843270539739591651e-01,-3.055963096578352411e-01,-3.031018923158711464e-01,-6.593494379028919106e-02,4.896351450842678643e-01,4.021518017615562934e-01,-2.569273017755718813e-01,-1.431137528461809971e-01,3.109022917331308866e-01,1.418036687300820997e-01,-3.013142031139636190e-01,-3.386876656491663029e-01,-1.718333243530731913e-01,2.974433649931412793e-01,1.243172618565401288e-01,1.976251297454697520e-01,3.221015758215869385e-01,-4.992899892861246691e-01,3.118550243880386930e-01,-3.610373134832948194e-01,-1.560743214952269309e-01,-4.612711658813293258e-01,-3.922879968157555464e-02,4.200059699627016752e-01,4.180767725613986352e-01,1.000342490330631273e-01,3.003690054556480415e-01,3.068421848813496222e-01,-3.213571062779928544e-01,-3.154569050105594519e-01,3.292476047331849287e-02,1.327053346535566059e-01,4.681871715390977240e-01,2.704797402487445490e-01,-2.502723870330393341e-01,-1.811767419413723434e-01,4.815215000113381993e-01,-4.197594778126930715e-01,3.376124332022334418e-02,-4.391297621675022134e-01,-2.333606193413165775e-01,-1.569995546984964685e-01,2.041263708915108666e-03,-2.557464115009411287e-02,1.946680956687629749e-01,-3.767840666460929855e-01,1.121662078004094232e-01,2.131180918592104900e-01,-2.071991339094211293e-01,1.754467141342838099e-01,-8.923587104848862417e-02,2.522578584877268604e-01,3.916437499494078711e-01,4.314622418713374152e-01,4.007046074658147106e-01,2.735883687786140328e-01,3.884073029373107389e-01,6.024968803397534600e-03,-3.323930392110270304e-01,1.690711402616145165e-01,1.194266182307831548e-01,-3.918795113692805643e-01,-4.734268785595940887e-02,1.415357132174378529e-01,4.971869984828819478e-01,-1.888095076659902505e-01,-7.381781363510342420e-02,8.080387810290268202e-02,4.607826295694872343e-02,4.553198096783306337e-01,3.004447913546348659e-01,3.919524151304176751e-02,2.423610345655267118e-01,-2.002721778217670945e-01,-1.723916463944644706e-01,-4.527369314772032860e-01,2.102766522638446212e-01,-2.620507183113301997e-01,-9.753751286092970929e-02,-2.094730153403568940e-01,1.209033064701869886e-02,-2.013887010018444723e-01,3.543339266714672364e-01,-2.903634532265504387e-01,3.776264497562483724e-01,8.665787232173460808e-02,2.585896314100935012e-01,1.225940076746785401e-01,3.223928674322003030e-01,2.669265119977326517e-01,3.265134132852072213e-01,-2.595625574945108482e-01,8.466186617020377003e-02,-4.985203703313256796e-01,-3.229961038021862407e-01,6.269798657400227349e-02,-4.738416205938229542e-01,3.110906926169368925e-01,2.959463459254312312e-01,-3.283690467108206779e-01,8.390486848903688788e-02,2.176993875636664688e-01,-2.919576978152670366e-01,4.801343702577508532e-01,4.189371264647578919e-02,-2.339561536675315301e-01,-6.299495019886669489e-02,-1.430056763338466430e-01,-5.076288446140619914e-02,2.514181100703071214e-01,-3.836073562046260488e-01,4.698186723130860498e-01,2.579123127900163626e-01,-1.856698510535481628e-01,-4.153884869771680144e-01,2.539922874897785343e-01,2.310087124962942884e-01,-1.029711210884364236e-01,2.250292432786350494e-01,-4.397481942638101771e-01,-2.463629533892819357e-02,3.762765825308795886e-01,-2.303516992427110388e-01,6.012591994819216357e-02,2.766646799071076357e-01,4.335602780712478621e-01,-4.851542903668455420e-01,-4.324758816474710832e-01,-8.348380544721312191e-03,1.257973188247769603e-01,-2.743222617266960484e-01,-3.503595676909925238e-01,-1.066044005923723059e-01,2.229644419734717609e-01,-4.716089895712607394e-01,3.259989060109620418e-01,-2.062677147564799807e-01,-1.594795136125854995e-01,-3.294015094393143439e-01,-4.880061951022914846e-01,-3.925942736703549318e-01,2.716103655792397875e-01
