-9.966520954148135047e-03,1.339339033940958705e-02,-6.628260895883058244e-03,1.696659216606077186e-02,-1.043615917730326970e-02,2.403852088222433944e-02,-2.535009122075899263e-02
-3.626608223889833020e-04,5.660635441312377933e-03,-1.749373177834090062e-02,2.040160837923032672e-03,4.778014521028797063e-03,4.231675853621720031e-03,3.336824633985112191e-03
-1.728509892032840944e-02,2.157178325042004643e-03,2.837084291523303894e-03,2.099382663248147360e-02,8.040533864942543685e-03,-4.435319952334759730e-03,-1.112381072681377196e-02
7.786835180505803644e-04,3.647255451271175339e-04,1.809132284963086215e-02,-7.178801262358616882e-03,3.340971428726924059e-03,-1.970095309504998286e-03,-1.383776104229077382e-02
-1.219717631830448575e-02,8.643891044895204642e-03,-1.102078887364917048e-03,-9.708067128153533704e-03,1.741715046101272729e-02,1.390141272651091060e-02,-1.528785300470184190e-02
1.267104023657715343e-02,-4.542980014692055146e-03,-5.608806866797944220e-03,-1.837119775699930929e-02,1.638429628827743276e-02,-9.464312793924940445e-03,1.138786712079441904e-02
1.652180455986058255e-02,-4.692605203620539567e-03,1.036324565219327171e-02,-2.084435514964039574e-02,-1.955916238625174386e-02,6.288600217087917180e-03,1.297467427967853582e-02
1.763495195214852262e-02,-6.806322680436713117e-03,-1.183770510116890357e-02,-7.897468940283314254e-03,1.148853517488806174e-02,2.044519569056111111e-03,-9.130192110862714490e-04
-8.947101133183631497e-03,1.963724099809312533e-04,9.508357114097759286e-03,8.893284430049400169e-03,-1.109466030167469142e-02,-5.775263100562823791e-03,6.972571795330894349e-03
1.764376744302770597e-02,2.174580554266503964e-03,1.816594992021083182e-02,-2.421600940456530848e-02,-9.979545609774381418e-03,-2.994549671115761917e-03,2.504034303641287495e-03
1.492277707972310651e-02,-3.437098990439323414e-03,-1.182155048356250786e-02,5.131677477041398858e-03,-8.885294873812728950e-03,1.222410479336856612e-03,3.745060380431116005e-03
-2.391102066183991431e-03,-7.643619248696991754e-03,-2.211239122680791480e-02,1.854952596245493593e-02,1.764420618604796778e-02,-7.333136490302960640e-04,-3.210353384518078394e-03
-6.878414034651617742e-03,7.203677645890497680e-03,8.202029321819242699e-03,-1.629172149422164831e-02,-1.381752102979812331e-02,6.074355413079113482e-03,1.770088043212160109e-02
2.307471483652123300e-03,-4.904341134838887881e-03,1.773463992225334310e-02,-1.779088914554609671e-02,8.723641031326435230e-03,-4.671297141805001046e-04,-4.039809038449389614e-03
-6.152471435135708350e-03,1.759788823392036475e-02,-1.175945352965181157e-02,-2.542809897864079308e-02,2.870708114813032633e-02,-9.565765503744419820e-03,7.998678898198509010e-03
6.909619941954585169e-03,-1.275192063983025814e-02,1.020361638089884934e-02,-1.004544791666183573e-02,-2.017571554782360624e-02,1.182560565280463445e-02,1.637921995733683869e-02
-1.900019182651933912e-03,3.301005296410157788e-03,1.496015741561557838e-02,-6.977776091942337194e-03,4.300096508433656935e-03,-8.970705623526536651e-03,-5.367680345414696953e-04
4.666522292443607729e-03,-4.165690657994064396e-04,-3.149576945976934050e-02,1.357970468898928897e-02,1.155886602985616539e-02,3.695257465270160042e-03,-2.321513953886432337e-04
2.998843229183112760e-03,1.135982725851898863e-02,-8.772885215552916243e-05,-9.563664241799231178e-03,6.537673797199050185e-04,-3.421917969464829609e-03,1.195472997448334155e-03
-7.961954123176327031e-03,2.575769125400284663e-03,2.975029307937665859e-02,-6.573678727827369020e-03,-1.640502545915330235e-02,6.765463252938302453e-03,-7.889660053064876874e-03
9.053940382671529785e-03,-1.744105267389934547e-03,-7.919053573363076318e-03,-5.496944225646190237e-03,2.113707174254412721e-02,-2.589202270972041330e-03,-9.764182040105325033e-03
9.361830527029942062e-03,1.600019863449681293e-02,1.109979451500374761e-02,-8.200934129638333056e-03,-2.115833110179879059e-02,1.350720421512410395e-03,-7.602391866555592050e-03
-5.050499132173665202e-03,1.366207448817683377e-02,2.319329267900110958e-02,7.717339000861068304e-03,-1.922921773725288358e-02,-3.031695942335082411e-02,1.401409014200332565e-02
-2.662669356160082823e-02,-1.506610443678156608e-02,3.942989988315442895e-02,-2.225939870585243868e-02,3.521088213208506401e-02,-3.150748362282292363e-03,-4.654809182797944520e-03
-1.853455288567718712e-03,-2.481391625927559241e-03,-5.486834272488336044e-03,3.861965485310664675e-03,-1.482974341716488016e-02,1.210677594482620530e-02,1.018522833367245008e-02
-1.796404776996902986e-02,2.265817480452922417e-02,2.250468649941293059e-02,7.495318803920810455e-05,-1.344338251207399630e-02,-4.269207585799716584e-03,-8.627554361847970810e-03
6.330204792802621161e-03,5.772699097703902320e-03,5.022091594224767711e-03,-5.653505809107009332e-03,-1.474602258276576719e-02,-5.086386844400575535e-03,9.363225208809529757e-03
1.253143276850938147e-02,6.640099694220793700e-03,-2.127955393129809386e-02,-1.380073193870216472e-02,2.360133966846550066e-02,-1.898926007627715516e-03,-4.200405701738933392e-03
2.343230637984175177e-02,-5.875120545164479700e-03,-1.311648940543130859e-02,8.918852178378167822e-03,-7.114571428798142048e-03,1.343565447896924968e-03,-5.612012534512544025e-03
1.899595025464225970e-02,1.545443877486283148e-03,3.388287264162015856e-03,-1.521599560161064797e-02,-7.983703517476908526e-03,7.992403121475052594e-03,-7.103532355344481346e-03
7.625323709181703474e-05,8.163246826956148394e-03,6.761851917097846595e-03,-1.423331946439040929e-02,1.824628797356283444e-02,-1.495817457227604889e-02,-1.401809376101409736e-03
-2.857329052238760311e-02,1.056335889259859585e-02,6.513105246033998666e-03,3.394605709296664563e-03,9.701920987406091948e-03,-2.098450760751116150e-03,1.098602688790461471e-03
-1.013389812799774144e-02,3.020920316467055541e-02,-2.789223399979361140e-02,9.319657308109028163e-03,1.179618795393334342e-02,-1.662027865709540114e-02,4.095824959003811772e-03
-3.886221807926075467e-03,-3.268474443710730972e-04,6.001014435953521374e-03,8.857372046335763860e-03,-5.311292044766747177e-03,-1.594835725673585418e-03,-3.760593301283824720e-03
5.810743333775803161e-04,2.392508186903204506e-03,-8.967389222027008847e-03,-1.402209617663947513e-04,-2.228822231287565150e-03,-1.326690947148342773e-03,1.134577664447792428e-02
2.678865040101270634e-02,-8.734009750330467073e-03,-1.573801973549895233e-02,-6.459570455605996922e-03,3.691101123501620406e-03,6.969264608021405114e-03,-4.800606253950385691e-03
3.791755937908518597e-03,2.812053826265312369e-03,6.261615650536958393e-03,-2.232919302638239345e-02,-2.438753271659269140e-02,2.882362687807508723e-03,3.087280002072396654e-02
-1.975145195460313585e-02,5.469642727147685200e-03,-1.206540358969515787e-02,1.642103712861242223e-02,-9.423119279184315189e-03,6.482633587687965798e-03,1.381020582101611001e-02
2.120009450268998952e-02,-1.971212875198078557e-02,-1.881320772371708125e-02,3.797420340008920894e-03,1.600343837128051505e-02,-1.228811857487885177e-02,1.091214801445400395e-02
-2.414280215991429154e-02,1.887778799403082644e-02,9.649515036608775692e-04,5.594933002150082914e-03,-5.141954746517390235e-03,-7.425302136696091890e-03,1.260404266862043612e-02
8.115979875860641554e-03,4.982510775573560126e-03,7.950343822990752277e-03,-1.248874363093157962e-02,2.399497562625481362e-03,2.622093337091931011e-03,-1.157368896895570078e-02
1.964147308169513634e-03,-1.006725936878540006e-02,1.327649384820213038e-02,-3.365924871012555223e-03,6.465868446394810488e-03,-1.119884239746241072e-02,7.267494428932170375e-03
-9.122071545285274224e-03,4.472850468694524492e-04,-4.133038299059210025e-03,-2.849696433134529198e-03,1.708812285898978628e-02,8.563866953964641496e-03,-8.133987361442643685e-03
1.568172875841100308e-02,6.173478459594631922e-03,-1.170317865966880207e-02,1.953823461669769619e-03,-1.509457129416327294e-02,7.715513819703121584e-03,-1.626289115092917565e-03
1.400093691807487422e-03,2.397881240172644503e-04,3.264398886362357161e-03,7.207611074654892997e-04,-2.248300011324155107e-02,1.176228025270995882e-02,5.698597944061569928e-03
-8.801304125258405456e-04,1.432752793950566560e-02,3.912209016713642448e-03,-3.035414860413666264e-03,-2.161635335955142470e-02,2.327613068491406634e-03,6.692497853321112931e-03
-4.965631900177628049e-04,1.563134859310457217e-02,8.511791373499087016e-03,-3.340101611400590059e-02,5.152634658781315644e-03,4.255860429873525863e-03,3.745868563182704319e-03
-3.292432715765685847e-04,1.991266927096749587e-02,-5.582101807338357528e-03,-1.605345986759395757e-02,7.869220730271695233e-03,-1.740576199413389896e-02,1.414874145371501635e-02
5.581226793723817470e-03,1.112311757328727450e-03,-2.382641272256611278e-02,2.219045503051735382e-02,-4.241339158534802693e-03,1.358247313636322395e-02,-1.148062613072628121e-02
-1.177601234772171837e-02,9.583853060108789290e-03,-1.157379689534413988e-02,2.323050909204310045e-03,6.092648597963307329e-03,1.001093252632023582e-03,6.683697742729691714e-03
1.009849414826753666e-02,7.564796723381523452e-03,8.661327968480939457e-03,-1.267503283415527017e-02,-2.270551126295199812e-02,3.926012635310812196e-03,6.907391750794081124e-03
-2.661763776063096314e-03,1.345882406542937490e-02,-6.147360347253139588e-03,-5.381668737982646389e-03,-2.932387506616773547e-03,9.665445102710664566e-03,-4.676937956646238723e-03
-2.894835132005514709e-03,9.964526631067451359e-03,-1.438483819175113759e-03,2.827549324709683135e-03,-5.620831027913111670e-03,-4.579590967398582818e-03,5.833688725622701750e-03
6.145968514228426251e-03,5.033478860459872709e-03,-9.098676430892705183e-03,-7.950720640050770727e-03,3.443291495598232391e-03,-1.714169923842901594e-02,2.022728226947465360e-02
-2.482900602182126076e-02,1.104370913109094764e-02,1.123629420509905316e-02,1.603448020196815297e-03,1.426890131148858890e-02,-2.525734233798755668e-02,1.342219875260037068e-02
3.807309160530048670e-02,-1.719573467900439856e-02,1.635690910750198105e-03,-2.402498545499142692e-03,7.030616651405173674e-04,-3.505026874597311215e-02,1.596599161164601044e-02
-7.268622268703252114e-03,-1.555318917325565660e-02,1.258491707169319407e-02,-2.130543431166461842e-03,1.202969877418922501e-02,6.322847470411212083e-03,-4.938221008915288229e-03
3.761429382156638418e-04,1.343325221109409676e-03,-1.381214310222339103e-03,5.627772671950552127e-03,-5.267284056038731496e-03,-5.287380716677279532e-03,4.390758030379471322e-03
-1.018385146296574978e-02,1.109168893287125826e-02,3.904480406396943545e-03,1.147837644907354808e-03,1.083305483487601549e-02,-2.978498944010968784e-03,-1.169060994304137180e-02
2.110306596869944082e-02,-1.703504606648230391e-02,-1.334762581714612865e-02,-9.291684581622610892e-03,9.800417157760225526e-03,-2.586634582849430593e-03,1.183698474169673012e-02
-3.179473287619343207e-03,2.074731306734346054e-02,-9.092344700032121280e-03,-1.042936215198635684e-02,-1.038524396229659717e-02,-5.852252722429170800e-03,1.906293568795471363e-02
1.390481216641148259e-02,-4.025660773455801492e-03,1.155616425305159428e-02,5.865331726497475563e-03,-6.010573155758599552e-03,-9.132181383363961735e-03,-1.147847212973710125e-02
-7.056503386773469583e-03,-8.677310642223514531e-04,8.012567935607079611e-03,7.388102950127938690e-03,6.076116056543738771e-03,4.640654723541214922e-03,-1.668868388591704735e-02
-1.443714498677789969e-02,6.849146688293724500e-03,1.049240266810131609e-03,-1.929273701911725369e-02,2.060426585592556314e-02,9.422353506836147335e-03,-3.249022384714535683e-03
2.379152824409519647e-03,4.784485924721719984e-03,-8.768066696057081472e-03,-3.855950496628843000e-03,1.237480996685023579e-02,-4.267145950416583074e-03,2.549859538159018023e-03
9.337234306248267876e-03,-1.398353923725583793e-02,3.375647607114686498e-03,-1.676257885692855609e-02,1.400745088240616491e-02,2.984451897120311142e-03,2.885802414461579452e-03
-5.256584422839996433e-03,6.075470836074246643e-03,3.503264702814475528e-04,1.340636510886591796e-03,3.557101196167099071e-03,1.683339353859977404e-03,-3.427448098975700939e-03
-2.291152098002953441e-02,6.799582622935167187e-03,1.586680344254662312e-02,1.284590881285611885e-02,-3.008640269056691782e-03,6.116301475118174553e-05,-9.300504470182055852e-03
-1.324298643116174692e-03,7.159342581207373858e-03,2.690071097994135851e-03,7.269031022500507117e-03,-1.050127249581444752e-02,-6.263515914290761037e-03,1.937287549601085339e-03
8.305790950349372509e-03,-9.874942617417689292e-03,3.568651853062146037e-03,-3.264561362900703870e-03,4.506714047737912787e-03,-3.042986001918538807e-03,2.556470078592718628e-03
-9.684434263113236505e-03,-8.070514257120308538e-03,2.397352160201484186e-02,-1.188639834815972615e-02,7.092843116916838775e-04,8.451129774851301110e-03,1.031875314061823229e-04
3.598565704451098766e-03,3.327009039461484123e-04,5.791678057120679471e-03,1.198742759709859430e-04,5.317861463039240746e-03,-1.167237882135626660e-02,-2.528979384863552261e-03
-1.821869455276357852e-02,1.126736828974948985e-02,8.495449400793808267e-03,-4.404618563030734783e-03,-1.075746560082412040e-02,1.553103214534553786e-02,-7.829727923777272860e-04
-1.923490630595553474e-02,-1.805535537977484908e-02,2.730895769965328585e-03,4.320661218542102763e-03,1.461465620743784832e-02,1.369414553039634448e-02,4.479763650098558640e-03
-2.657237411773590279e-03,1.024631257794132635e-03,4.108585112272061107e-03,9.948603863200266781e-03,7.440245240166950408e-03,-1.484990696348349216e-02,-1.907223421928197667e-03
8.612476229047436385e-03,-4.463424623863281363e-04,-9.473135933798785407e-03,1.267335833430351805e-02,6.314692573942240310e-03,2.458841760356492417e-03,-1.819416627166035166e-02
-1.467838563248079209e-02,4.717197067752738546e-03,-6.216925130863886449e-03,9.468973627973163373e-03,2.044922974221737803e-03,5.656172853243793437e-03,1.724908642025886488e-03
2.048045014102232997e-02,-1.358582975752871749e-02,-1.421772146959820256e-04,-1.021907013720936780e-03,7.078148783105189454e-03,-8.841396784246396403e-04,-1.104989731236714900e-02
-1.381556146435118301e-02,1.239464592556656537e-02,-3.262230771266924536e-03,7.015152816848825752e-03,1.465452859449316650e-02,-1.054073332064367312e-02,-4.636998503153726831e-03
1.827719762068557782e-02,-6.089083943009905315e-04,-8.267743757323968434e-03,-8.149649667134224729e-03,2.151331873678390474e-02,9.263811227766961809e-03,-3.040727734840204671e-02
2.124568020967950756e-03,-1.126639954643508107e-02,2.707603568981372701e-03,1.268495554480033802e-02,3.901799311544778322e-03,-2.311480776993660256e-03,-6.788318966962654695e-03
-3.645408938686351547e-02,1.467052026891680315e-02,1.153015967327738513e-02,6.689398039369239685e-03,-5.790300577715968774e-03,-1.053414185336433369e-04,1.226758557372074898e-02
3.090763001468609800e-03,9.920252185532944106e-03,7.949809745346260795e-03,6.555537388451688520e-03,-1.534035514631259568e-02,-1.050004756309830896e-04,-8.581417525576834696e-03
4.222492647387619639e-03,-1.697621078601580999e-02,-2.942534267096557233e-03,3.132694370440067180e-03,-6.562804535221396056e-03,3.196398565061334823e-02,-1.175318977990591485e-02
4.293013965712866482e-03,-1.099294138627151217e-02,2.192909728467695284e-03,-9.308911897944341721e-03,1.391452276024427240e-02,-1.428322624297455193e-03,3.596203437436994253e-03
9.334400933950919715e-03,2.292613800229618016e-03,9.696685370320812236e-03,5.427628445181975798e-03,-1.718119114014089732e-02,-9.440549355833154077e-03,3.332935558922049245e-03
1.000554429699419129e-02,5.588396554416875071e-03,8.629050273098440652e-03,9.082996631363563726e-04,-2.527390514465054083e-02,6.445875571660181214e-03,-4.817133658213066001e-03
1.021040672830219632e-02,-6.986520418833571527e-03,2.707107248591499320e-04,2.295510989822574163e-02,-1.402010357674611345e-02,-8.661790760964334021e-03,-2.178272791763669579e-03
6.731374161447532464e-03,-7.024132463205957737e-03,-7.300975751909256559e-03,3.723740474852065344e-03,2.015421246202699079e-02,-6.058782810029038172e-03,-1.041532727433464381e-02
9.294903118394971103e-03,-6.356160392948478899e-03,9.907865437952370624e-03,-9.490533502094502041e-03,1.141002382714778780e-02,-1.561975895451569139e-02,9.885292137929750037e-04
1.558220777685061578e-02,-7.323222706223968086e-03,-5.396344060031432917e-03,2.252203423547004257e-03,1.083298919200756730e-02,-1.065973292757689712e-02,-5.029431021044082281e-03
2.545367243260157619e-02,-1.082905188355533579e-02,-3.516951387332269596e-04,-1.983611097122395944e-02,2.111972214396543642e-03,-7.137518086574071944e-04,5.856792740168871060e-03
-1.372668463595300148e-02,7.586146299661868661e-04,-1.765281124579935398e-02,1.933627063396281889e-02,1.307712338271580302e-02,-1.205114542795369080e-02,1.175983698439103144e-02
-5.171319979098640447e-03,-4.580163820055692132e-04,4.464306235415437495e-03,-3.552356671206454135e-03,-2.913813690854432596e-03,-3.862261509431931181e-03,1.256245952560996332e-02
1.844549269715277731e-02,-1.607286990469795201e-02,7.465773902847317942e-03,6.629346080207211035e-03,-1.143196280071496519e-02,-8.243025368902817326e-03,5.563128875030535526e-03
1.663631930003003564e-02,-4.211958053576259770e-03,-9.473204127791829895e-04,3.971730642448477802e-03,3.868672892661574516e-03,-8.655047385324785014e-03,-8.928781556916183526e-03
1.378469179678803308e-02,4.645013425222904550e-03,-2.878656463352624595e-02,-1.164706704515326013e-03,3.523382239053782661e-03,2.019798679884654211e-02,-1.140115104854417215e-02
-8.094479943683076037e-03,-5.249421328654551265e-03,5.834404500107503652e-03,1.233786148204271335e-02,4.730878422904229857e-03,8.942962120601732207e-03,-1.747748949772336136e-02
4.422700859128501742e-03,3.184403959726989867e-03,5.064134164056792906e-06,-1.652415344174649678e-02,1.660869291246155899e-02,-2.891066332932714245e-03,-4.957241462768571978e-03
-7.768696284093113032e-03,9.219010501445723191e-03,7.349610742030323815e-03,-1.606037151733433199e-02,1.490962647099375836e-02,-1.296838629828213048e-03,-4.601308230368164782e-03
4.837142205186334941e-03,9.417139348182102009e-04,-5.871653443003103066e-03,4.095186566508744221e-03,-1.425712542646987574e-02,7.575474898405096420e-03,5.286964238528583070e-03
2.540795539543163478e-02,-7.367376544193739683e-03,3.214582960053358977e-03,-2.102434967942337293e-02,-5.466016528218166880e-03,9.779570221732125299e-03,-3.727125639870572729e-03
-1.651172247353477687e-02,-2.188726817974258332e-02,9.318729785166622245e-03,-5.630312359827157817e-03,3.040348819095754773e-02,5.873317421448461494e-03,-8.730383715396107351e-04
-8.638687830874755211e-03,6.197063045858540974e-03,-9.603779892730044190e-03,1.442966827013575197e-02,3.443794613272320101e-03,-9.012835253154367551e-03,6.839686654672418910e-03
-6.452374410203867705e-03,5.082441731524478187e-03,-8.792138518401985958e-03,7.351237147773653606e-03,-9.145145847352815008e-03,5.993630124152628073e-03,6.766889246824186847e-03
1.381833726509593542e-04,-1.907984872199764564e-02,1.576960072211706530e-03,-3.637304700902430337e-04,1.811065633000443972e-02,2.238332131630040630e-03,-1.427636476123388901e-03
-2.044672564611582644e-02,-1.741986588445357254e-02,1.876312526738606670e-02,-1.445544881459702967e-02,3.815784387947500356e-02,2.059051477186125273e-02,-2.378897828460532771e-02
-4.434871141333825845e-02,6.718958733920261939e-03,2.177966408600061007e-02,2.421033529072924226e-02,-2.028989597682617080e-02,1.562920764651314423e-02,-1.537850950757756272e-03
1.252881287028156758e-02,1.907443900220305230e-02,-9.388521507421485404e-03,1.803363732720501822e-02,-2.848927984118296286e-02,-1.049877110238595437e-02,4.255751400362350260e-04
1.510265244047089526e-02,7.463804294813969342e-03,-2.242233970908008578e-02,-5.833643450546948392e-04,-9.124960129602111697e-03,1.893504991897478063e-02,-6.894226512382512113e-03
-2.043556577600002741e-02,2.918450543569744635e-02,-1.636040818783016928e-03,1.237882478129188890e-02,-1.157625047225038263e-02,2.525476894617379657e-04,-6.710020567336143910e-03
-1.474744785696664555e-02,3.257426919820939626e-02,2.021157189378003372e-02,-1.503208006526241328e-02,-1.521814039429937593e-02,-2.033498377261022238e-03,-4.638425162778255124e-03
-4.482339683109868265e-03,-9.561918590631074411e-03,-4.038829359803575679e-03,5.064677355089142186e-03,1.459214292036197479e-02,7.409961800504496251e-05,1.040149781341154298e-03
7.989579659619307217e-03,4.498695299341410637e-03,-2.923010523567252938e-02,-8.416205826316253006e-04,1.210753885527231363e-03,1.392768691404206068e-02,5.021944558908507557e-03
-1.394394260271261329e-02,-1.667778085383984921e-02,9.833733492248898644e-03,2.425296316687783338e-02,-1.496997780333742499e-02,1.166188468359878258e-02,1.435995536945304865e-03
3.452646387634595443e-02,1.578711478112623454e-02,1.442064255341045896e-02,-2.413567843404879065e-02,-4.627920006184214202e-02,-9.186981738250282400e-03,1.574664387940707261e-02
1.097120776569867132e-02,-9.197654426579315911e-04,1.306624868736283313e-04,4.550063467263647070e-03,1.791541876387404714e-03,-5.449176651852102697e-03,-8.981741682168189675e-03
1.075797861281789676e-02,-1.169187413008458860e-02,-5.429096922796679790e-03,1.183061979349647914e-02,-2.114982875154721234e-02,2.100500957434152730e-02,-3.581416726189868682e-03
4.400843756439948642e-03,-1.460482351585433956e-02,2.343539356151839309e-03,1.162955305816740399e-02,-4.838914003592228660e-03,4.929988769223302841e-03,-3.126974065039277162e-03
-2.251813805235067592e-02,-1.229064512926757689e-03,-6.863190630685107353e-03,2.001791638568499454e-03,2.174674884664344957e-02,-2.235594845559317912e-03,9.674814631307088533e-03
2.835665910476633991e-03,9.249439728586841825e-03,-1.747813700826999009e-02,-3.523230609669017986e-03,-8.831279603218120458e-03,1.262695264033104545e-02,6.641402561648529143e-03
5.301425360745465852e-03,5.545950495907570228e-03,-3.852635122678246815e-02,-1.389188571561784762e-02,2.168183366366269182e-02,-3.732399881527857479e-05,2.231122139101959778e-02
-1.351955052757482061e-02,7.480952568658936694e-03,2.800936644713104481e-02,-3.892576867857293864e-03,-2.142733307963290358e-04,-9.749662800304339377e-03,-6.259356276233557503e-03
-2.941833118291367621e-03,-1.113994345352175078e-02,9.627067163085657395e-03,1.244338590907751591e-02,-1.749569610501761074e-02,3.373736325483039401e-03,6.984626644723344879e-03
-6.042673483106490067e-04,7.000672738552211893e-03,-1.579198249828590297e-03,-6.781139790174874581e-03,2.054662183583445129e-02,-1.329353514096108871e-02,-3.407926487195419348e-03
-6.768546041257214943e-03,3.696417329866326113e-03,-5.365321785376430492e-04,9.372963329614812655e-03,-8.371953451792882306e-03,6.879756896739286018e-03,-2.153136849864512904e-03
-1.017946324308993157e-02,7.296410251005761884e-03,-1.333217024116318400e-02,1.467894928409133048e-02,-1.519980991811928014e-02,-8.470880962655049501e-03,2.622977160765382204e-02
-3.629103715386919901e-04,-8.473527818487236116e-03,1.580347253590279333e-02,1.430877178791217091e-02,-2.914273159157201865e-02,3.240606867764300562e-03,7.607724081519585090e-03
1.772195744045453047e-02,-2.327010493788831541e-02,1.109183669351209399e-02,-6.151898521627651925e-04,-3.543386155184197021e-03,2.195764427908325316e-03,-1.859551167281100733e-03
-2.118578816175590088e-02,1.784152311894924084e-02,4.623263802249992635e-04,1.260429379490099824e-02,-5.824985369054101053e-03,1.486028448995160497e-02,-1.660899486306350800e-02
-1.104027365678128363e-02,-1.520577351043204441e-02,8.792508811796707208e-03,3.001228368826708987e-02,-6.877945354277326118e-03,8.602247847383431151e-03,-1.281334440158601873e-02
-3.103594829463980458e-03,-2.196283982496270801e-03,7.696308830157962133e-03,3.202855554622133054e-03,5.756809030304771814e-04,-9.444769072139660993e-03,4.667962878028939812e-03
-6.991241913329917373e-04,-4.165704238847175328e-04,1.478044555028741429e-02,-8.322374728747937433e-03,9.355315664499470538e-03,-1.375744315915957902e-02,-5.589903272712083834e-04
-1.791867344505511384e-02,1.264168323611529303e-02,-2.646370062044539097e-03,3.965584658416715542e-03,-7.106394616812045269e-03,-5.145198054737255659e-03,1.757521136212131935e-02
1.015093795197925114e-02,-1.141370357552914765e-02,3.939804438355811594e-03,7.145601221071075197e-03,-2.524364059612692682e-03,-7.727350739337446317e-03,2.899203998968853321e-03
-6.204026370713732787e-03,-4.539729188874746732e-03,-7.986669638432291468e-04,4.110685069403161376e-03,3.229736360797211964e-02,-1.168980209127450792e-02,-1.126111654138866984e-02
1.742344121633409779e-02,-1.377114853767956622e-02,-5.374823991461144014e-03,8.409523834284525490e-03,6.267260310019522399e-03,-1.305285524281141890e-02,2.011762770048589836e-03
1.109853912349490282e-02,1.365529406796706091e-02,1.623482142522396539e-03,-2.242063886933487807e-02,8.595157578137693072e-03,3.358635112778312628e-04,-1.130516176391357409e-02
-8.447545604782809650e-03,-1.480152996987074481e-03,1.090253528264619430e-02,-1.396597969188695734e-02,1.860085996492569921e-02,-2.167962903393470548e-03,-7.707465419270909807e-04
4.981233779062657109e-03,5.690023565469218107e-03,1.201650903898048538e-02,-9.832270041573479627e-03,-7.476389527098168016e-03,5.381144648702819791e-03,-8.244373865814058622e-03
-7.812670761806484940e-03,8.926319773465781274e-03,2.764381747706877446e-02,1.297839648338363315e-03,-1.262395332792965764e-02,-7.645327910876143114e-03,-7.920302570487763524e-03
-1.896913920451058846e-02,8.859558666268677399e-03,-2.206798073739546506e-02,7.175511618279552424e-03,-7.168044548657834594e-03,5.028346995315939420e-03,2.832064914509845044e-02
6.604400949274313523e-03,1.179703496492899746e-02,-1.842552930397076127e-02,1.299520226541354441e-03,-7.117031942852247023e-03,6.404827452949835714e-03,1.794082247378790641e-03
-1.380589715051514573e-04,-6.704836790519063880e-03,1.231853602078276586e-02,-1.192270178029533872e-03,3.452344574385541530e-06,2.665019564589610548e-03,-5.417418741243949266e-03
6.386976943166910829e-04,5.717857558502752527e-03,-1.638930651686464762e-02,2.973528240849193996e-02,-7.053673680078190698e-03,4.028920062895065095e-03,-1.615204380099736700e-02
1.585193673310094503e-02,-2.043116654347498784e-02,5.856160608905872783e-03,-5.006006586014688509e-03,1.178413872796850795e-02,2.040718165306384252e-02,-2.769031567958721990e-02
-1.887304474046163022e-03,4.142372875672086234e-04,3.689777539517351355e-03,1.698260244777724179e-03,2.798507030818953283e-03,1.180846577363018875e-03,-3.059127856199786877e-03
-2.491987889799482554e-03,-2.260849577333134096e-03,-9.038688577567625254e-03,-6.391889337244031737e-03,1.681011161402430967e-02,7.094997813591316302e-03,-2.103031590877041737e-03
2.751461112087132121e-02,-3.231920325130455823e-02,-1.026065812111338384e-02,-2.224908880080655755e-03,3.284413123741355620e-03,-1.294160080511960742e-02,2.781821293940636361e-02
-1.024747222653961398e-02,9.870993314152911799e-03,2.256833820930903567e-02,-1.368462802304226721e-04,-2.991314215911354199e-02,9.846124739997170246e-04,1.030793662679554620e-02
-2.989489478428606142e-02,4.003385404077268971e-03,7.104121727940923385e-03,2.256790208573406648e-02,3.264366371961285006e-03,3.856801480124244594e-03,-1.004623472712112831e-02
-2.084487711562305924e-03,6.359630987701053555e-03,-2.156049063743217895e-03,2.102811589908260004e-02,-2.303695409140215505e-02,-1.229417471868383136e-03,2.319230205013182895e-03
3.441233144676098931e-03,3.241204224640171615e-03,1.334923324289030537e-02,-9.074489214367440339e-05,1.276223125385314919e-04,7.310394383564743775e-03,-2.584063397130452466e-02
-2.327292970041175413e-02,1.749487252007316668e-02,1.947430233438288139e-02,-5.929613742373922997e-03,1.334297035349630255e-03,-7.648522755676459388e-03,2.708401061527134662e-04
3.242510482728736682e-02,4.807259592079425777e-03,-1.236108052286585476e-02,-2.641204684366589908e-02,8.328495591208458920e-03,-5.108672597001581066e-04,-4.213668335375080412e-03
-1.487769114467113116e-02,-1.386815850889636104e-03,-1.617966846967770636e-03,1.275458980645963452e-03,2.218186900108728640e-02,7.953466165267859475e-03,-1.252936866886166997e-02
8.064296412998590499e-03,-5.684226476986430944e-03,-2.911156081190796087e-03,1.944461754373488782e-02,-3.571530619572139097e-03,1.906662361045577490e-03,-1.597211272194419204e-02
5.799738065346050214e-03,-1.433735936122539252e-02,-7.067610841799400363e-03,1.013558577866098369e-02,2.091296436775203979e-02,-3.225070459603105160e-03,-9.744000393533730833e-03
1.259596331501400962e-02,-3.118899805236350861e-04,3.070816381823174290e-03,-7.225222638769119307e-04,-1.462063045330769077e-02,1.338524080582302427e-02,-1.128102494741047013e-02
-6.184839290031917888e-03,-1.489094681135266426e-02,-2.010072511156466447e-03,1.687062033089114718e-02,1.040178954180860475e-02,-8.200550052455816627e-03,5.427889783878233135e-03
6.565502324090842674e-03,-2.061308926671510250e-02,-3.608216074538908059e-03,2.156017833859036163e-03,-8.153624039376958232e-03,1.209277240632552174e-02,1.258446766521143824e-02
-8.406142376365199551e-03,2.738272604329898552e-03,-1.335367935178903781e-03,5.553270333922284696e-03,7.874256635573305407e-03,-6.211760119347440115e-03,1.830961804801328535e-03
8.864497855885241848e-03,-8.576470344851272205e-04,2.134426688007450576e-04,-1.443632545549976623e-02,9.386220935362774020e-03,-2.781647627478935937e-03,3.515829665722221102e-03
-4.590464644777927927e-03,-1.731339199942102730e-03,7.418337721354932926e-03,1.491721040896025127e-02,2.553845981774653228e-03,-7.795690230941376350e-03,-8.461205518475831133e-03
-1.331306098000103154e-02,1.070638264091608623e-02,-1.109322848729671004e-03,8.158936379249118534e-03,-1.451724274302163345e-02,8.229208945908110528e-03,5.433329250537091704e-03
-1.583265073865814223e-03,-9.822945623739298519e-04,-7.194405868537966878e-04,1.332943169152143309e-03,1.986596672500781386e-03,-6.883786804909367701e-03,8.498068641519685579e-03
-1.935585940039905809e-03,-1.538715088260826126e-02,-2.995876714165442677e-03,1.597486562061185746e-03,3.336803826990889562e-03,8.788380126135244760e-03,8.018307591437318083e-03
5.945251806869257527e-03,-1.224558380174933792e-02,1.173369798616324261e-02,9.656381138283322632e-03,-1.241022934786461911e-02,1.388506225604629538e-02,-1.458340522562653029e-02
-3.381884161441967799e-03,2.193546276263969377e-03,3.645303663283266764e-03,-4.279933125014443113e-04,-1.647433823761157087e-02,6.296777499146271988e-03,9.153840969849587686e-03
-7.949068552536211335e-03,-7.747125304968426268e-04,2.982625987684000765e-02,-1.709460623616696623e-02,-1.696423690461777451e-03,-1.176573072797937368e-03,-1.055354917915558985e-03
1.532364527997069278e-02,-8.107066930366408491e-03,-1.666247644818735774e-02,3.320461768428095272e-03,1.612878369260815599e-03,4.185660677701163318e-03,5.428389004399280463e-04
5.710243844623630414e-04,1.510106549918741915e-02,-7.249974104272159658e-03,-4.599366605240203139e-03,-1.221094855816456069e-02,3.075751515940072615e-03,6.125260163834895730e-03
-6.912807653588048246e-03,2.399186588906582554e-03,-4.128223883412912576e-03,-1.262358627595183171e-03,-5.057701351860239246e-03,-6.073995522805580947e-04,1.774711463082617735e-02
1.023406010970448130e-02,-7.268709552128337775e-03,1.047617591318312363e-02,-2.257852321565112941e-03,-5.336104433120657763e-03,1.481702288259003492e-02,-1.796026455643957506e-02
1.437881483758849700e-02,-2.385362749466505769e-02,1.140635529743735249e-02,-1.078780370257106068e-02,2.820513738792816347e-02,1.046451367077420001e-03,-1.803935096037443536e-02
-6.842280102504739135e-03,-2.522947841563044722e-03,-8.101224456410704988e-03,8.747510561689188224e-03,4.635830398885655047e-03,-9.867408673554102885e-05,6.534183526764767054e-03
1.591198687244177196e-03,-3.597639142673233928e-04,8.971305162603779998e-03,1.321519458702339190e-04,1.428214685830811979e-02,-2.493509180307712514e-02,9.777615735729492871e-04
-5.780362074020477074e-03,-1.220969345598919321e-02,2.184793641850414636e-02,-3.464923833704053671e-03,-6.009658245643197810e-03,-6.623196150813383080e-03,1.343427702531537447e-02
-1.269208258434342297e-02,1.296350687652096829e-02,2.988517094124777413e-03,-1.121095933324571829e-03,4.003499801676689215e-03,-4.047125667593251021e-03,-2.296447545809921040e-04
-2.728973313737675932e-02,-7.967604721448164756e-03,3.904293847672268836e-02,5.967615359106726892e-03,-6.422675194362715244e-03,-9.702909300581229191e-03,7.670732012123312321e-03
-2.479299735182572198e-02,-7.244876981121242329e-03,1.532817359396346224e-02,-3.023125145287801092e-03,1.447794835436921369e-02,5.780451729509228018e-03,1.656999185647452851e-03
-1.559941099159726716e-02,1.634123034053767964e-02,1.262874852964247958e-02,1.355788541736769465e-02,-7.466621408499819583e-03,-1.090656987358303541e-02,-7.916623687759929973e-03
9.871620928939331061e-03,-8.341898988147758431e-03,2.561292177708656445e-04,-6.544284403723022066e-03,-2.536826715845149488e-03,-3.873134448848733653e-03,1.209270350119887212e-02
-8.387837248233678822e-03,8.502325544035049462e-03,-1.969542707958945107e-02,1.375918234249492479e-02,2.170712098587972410e-03,9.646563821985761067e-03,-2.896327423689578403e-03
1.881015937536077709e-02,5.259028318937969577e-03,1.485504341343695661e-02,-2.659657176764124858e-02,-1.257375171121460043e-02,-3.354330612037332258e-03,5.514694323170315701e-03
-2.193921385991732739e-02,1.139792122379787269e-02,-1.446156757211746607e-02,1.818910587206719678e-02,9.905462190649860776e-03,-7.099204165031725716e-03,6.391507553167429662e-03
-1.514705602082457546e-03,-4.316139094496619817e-03,2.269561911897459081e-02,-9.333870912662654840e-03,2.511710778464428667e-03,-1.009652277477548696e-02,1.809708244392924884e-03
-7.318624872548471112e-03,1.913253033659714428e-02,-3.509420076099544622e-02,-5.299572107750246883e-03,1.708729144019226209e-02,-5.201105179220407750e-03,1.962934025479013897e-02
-2.855199596017202711e-03,-5.365931451432540654e-03,-5.278994795719943456e-03,4.967711562917603678e-03,-1.479808060047808948e-03,1.226467567158330205e-02,-4.014080734833832132e-05
-4.700175230794791277e-03,-3.670568050342325715e-03,1.331106731614748687e-03,2.267430550804775541e-02,1.225249855095842798e-04,5.572714013598966017e-03,-1.894927895370902837e-02
3.710695570325087903e-03,7.130502329354152825e-03,-2.526677606785217994e-02,5.586213553131011075e-03,4.273970224916340960e-03,1.903421998719864727e-02,-1.287451496570062894e-02
1.253316564767201040e-02,5.889092903498601740e-03,-7.114377505743918820e-03,2.915878751149925032e-03,-2.919981272799485422e-05,-7.089967633376879561e-03,-4.498044075558736005e-03
5.454991025083812811e-03,4.149055561674350710e-03,1.260055329867335212e-03,8.764241878276263220e-03,-2.004586947504756814e-02,1.556868451904072463e-02,-1.406157195244609609e-02
-1.787343477729555485e-02,-2.620535358761125200e-03,1.581811617525707633e-02,2.765715048759471648e-02,-2.498108150916622527e-02,1.536780102381777712e-03,2.229331849750802903e-03
-1.082835581202535626e-02,-1.656493479970723090e-02,2.481067182956745582e-02,8.339147410049157919e-04,-5.595999077154269891e-03,-3.865043547217132149e-03,1.405836370478491699e-02
-2.885956056192972088e-02,2.060364288114007597e-02,9.631356083092290632e-03,5.693091071080132182e-03,-8.008740430442942877e-04,1.544065756364012068e-02,-1.950030964911542153e-02
7.708315050689052220e-03,-1.397788105852117721e-03,2.402286243155841820e-03,-5.838227770304816114e-03,1.899417889372972262e-02,-1.640137792543842551e-02,-1.988629767208757899e-03
1.704168796793902735e-02,-2.379378074827489739e-02,9.160680549698211467e-04,-1.196658809532612049e-02,1.062199336612573188e-02,5.127034706110040162e-03,2.331553416765835482e-03
-3.849132433883574477e-05,7.052971499338077724e-03,-3.228942518687528095e-03,4.344614126616586254e-03,-2.155275212853201630e-02,4.967863352081664918e-04,1.653013928609411293e-02
1.359404807736123641e-02,6.676074700125541467e-03,-1.870622189858487869e-02,-6.048970001784241893e-03,-6.030510048816752067e-04,2.582552867570102675e-03,5.003276307326990323e-03
2.985202950937332084e-03,3.902248807300901130e-03,5.099278913857810229e-03,-1.342778677478322254e-02,5.494210032978947070e-03,-2.811785987160774804e-03,3.200035681217414454e-03
4.297168446257238167e-04,1.088381894351314778e-02,-4.402617696836161852e-03,4.699065402605403542e-03,-2.449375428498894516e-02,1.515999121798473513e-03,1.296938840906502674e-02
1.804191415925735387e-03,-1.026407058539622122e-02,5.281083166291584453e-03,9.567416092916090214e-03,1.145190613019994239e-02,7.654730360936918318e-05,-1.607908101290686856e-02
-3.732170159526336951e-03,1.701884431509665188e-02,8.720681205554154519e-03,8.935711970776762407e-04,-3.975320840869141746e-03,-1.412585165351330427e-02,-4.703367923303047697e-03
1.076642370866110442e-02,-1.873573290407464301e-02,1.951325704460432631e-02,1.353222856691613935e-02,-3.171632376024100929e-03,-4.735034730900620353e-03,-1.578025669318208757e-02
2.095997434552574271e-02,-7.716145650663738809e-03,-4.390635566655919607e-03,-2.615131262619619854e-02,9.459225490668349626e-03,-6.069625597044414275e-03,1.537968244913523116e-02
5.221393941775781013e-03,-5.837272129450198944e-03,-3.878924787342068019e-03,-6.564385643061751256e-03,9.453302283662565891e-03,-4.754575838652979128e-03,1.028626381918599196e-02
3.161842282515059388e-02,-1.633177524062654623e-02,6.100183049790881828e-03,-1.266807101615199938e-02,-6.231925894195958736e-03,1.370305294591198444e-02,-1.478226996983363246e-02
1.623629649131512476e-02,-3.807000183470318853e-03,-1.424811179431128769e-02,9.058617466322910552e-03,-1.199219630264955656e-02,1.447182766925230075e-02,-7.594887828528512110e-03
-5.832960317860839961e-03,4.691210333795048587e-04,1.744020077173765373e-05,1.017867173358497079e-02,-1.671315915007193535e-03,-3.906535135755500633e-03,5.133473943366137320e-03
1.462359469033000308e-04,-1.415805060082674528e-03,-1.695887400020917521e-02,6.319791669010568248e-03,-8.923187963968851966e-04,1.692606289058961157e-03,1.436195586606707313e-02
-8.368937563320409320e-03,-1.237139527483879266e-02,1.381704532576998046e-02,-1.064394030962406007e-02,2.123376213348448366e-02,1.461248668319198654e-02,-1.733536938283529796e-02
-1.045624540542275036e-02,2.789227816232603754e-02,-1.531320957787731321e-02,-7.236817567265947312e-03,1.313793221380447993e-03,-2.178871030231944311e-03,8.076323196699567927e-03
2.132847042048080857e-02,-3.140142838758807481e-02,6.553406151328721591e-03,7.306706174021172957e-03,-5.380198097003029839e-03,3.778966298724771838e-03,-2.349966301056879720e-03
8.650243329732654543e-03,-9.548689699818566773e-03,4.540667815864043305e-02,-1.888237207299191950e-02,-1.534292699027622019e-02,-8.653953679540042979e-03,4.931097707237572063e-04
-3.862842090306500787e-04,1.262369953344229419e-02,-1.103176566305543935e-02,1.342288853190560811e-03,-1.052464622733508513e-02,5.666028476262627463e-03,4.639555155691245554e-03
-7.741279066542771509e-03,2.147622468360131653e-02,-1.725321201707820731e-02,6.649163786090646604e-04,5.110241094659815318e-03,-1.438464915223939752e-02,1.449079982073078234e-02
-1.578772326556451139e-02,-1.629392448429103912e-02,2.773120780567253293e-02,1.493666632953839562e-04,3.528607389721610029e-04,7.752722956151448901e-03,-1.955467082639017820e-03
1.441022972282392754e-03,4.619372592453793334e-04,-3.824218373222513373e-02,-1.768313464400210542e-04,3.201098875115786137e-03,1.751524618525515317e-02,1.700520094524339554e-02
8.731891839103649716e-03,-1.174611708110393367e-04,1.073532188233260881e-03,3.439944936442168935e-03,-3.564255059912591062e-02,9.421571792254309144e-03,1.699896575497060122e-02
-1.778805775288825122e-02,3.817263251920700873e-03,2.031428347487955477e-02,2.118345295059643682e-02,-6.999232695130024919e-04,-9.336346631802444271e-03,-1.688816269875832027e-02
-5.243985763752270898e-04,4.978776210086955506e-03,-3.999469198346245749e-04,2.102644265280595968e-03,-3.595300074196275050e-03,1.192883407132728406e-03,9.723351135231886322e-04
-5.056283462500463233e-03,-1.035712470552560376e-02,6.773058662066287414e-03,-3.014806384124978436e-03,1.511048181080817607e-02,2.314553925787152591e-02,-2.435805154269230638e-02
2.598045556278543583e-02,7.323496872766389193e-03,-6.904562258694770839e-03,-3.701012512179857605e-02,3.216523920742495046e-02,-1.722411421363266842e-03,-1.700720741759447277e-02
-6.319433147137077864e-03,1.118858998574963001e-02,8.216230191048013495e-04,-1.677491224098724698e-02,7.595349843744658713e-03,3.378824345938062808e-03,2.706234070772036305e-03
1.006256022619709048e-02,-5.079336607568253788e-03,-4.685473597601719740e-03,-2.857776644180728097e-03,8.128612920377479428e-03,-8.593252219141495757e-03,3.723359393683475880e-03
2.729931453905895186e-02,-5.081698573388018433e-03,-2.289214718564814427e-02,1.720454177109542477e-03,1.249350618257150623e-02,1.923631142483551298e-02,-3.191575764146133143e-02
-1.540645486158110722e-03,-1.115398582424872304e-02,7.064823243770902358e-03,5.070078010266394937e-03,-2.889275263110277665e-04,2.294245231604776902e-03,1.174162974301918303e-03
-3.596188677618430713e-03,5.104109359216852347e-03,-1.498958658762361389e-02,-3.610835646785036726e-03,1.952700410876469922e-02,2.482094902337870449e-03,-1.777357810020410364e-03
-1.377109502239687723e-04,-1.935328565825342184e-02,3.529219989866708238e-03,1.754571802937619773e-02,-8.932805419108113057e-03,-6.619558640899624383e-04,1.085004701813847665e-02
-3.435343010029930436e-03,-2.985154490475885186e-02,-3.166608325389216883e-02,2.762976180457859393e-02,7.279052318098412459e-03,1.842639522540057834e-02,1.426269636371458108e-02
-2.463284927363910536e-03,2.401552519757447959e-03,1.291293560244666759e-02,-1.397499719943548317e-02,-7.480943001028758123e-03,9.620259242808628167e-03,1.030375809000698504e-03
3.445729831958927228e-04,2.582146431384273796e-03,-4.545775461032845743e-03,1.137259010368127203e-02,-1.311158312647147696e-02,-3.796065088979762737e-03,9.536287084709705458e-03
-1.371804667393541032e-02,5.549618665051350881e-04,-8.939502548244358110e-03,1.211068028890309781e-04,3.573258658780986696e-02,5.740022997792589227e-04,-1.356364638817003469e-02
2.785081431498935209e-02,-1.455442746609851394e-02,-5.006437117695602262e-03,1.048763781015437518e-02,-2.565569753321524787e-02,4.917293486743538368e-03,3.851055074902502966e-03
2.891121819751373521e-03,-3.247073989931122378e-03,-1.183785232011261117e-02,2.471247152805965824e-02,-8.476963456659374063e-03,-5.680835561293892189e-04,-1.861855271162782700e-03
-5.061632656216424019e-03,-1.293586058318429467e-02,1.244799109824007086e-02,-2.201710243920552978e-02,8.020392554133937840e-03,1.676216586773504949e-02,3.341487029718705117e-03
-1.099342511421865995e-02,-4.929519165840751983e-03,-3.318166719996614843e-03,1.729395168467411439e-02,-7.627296988876044841e-03,-1.151895362147323243e-02,2.319221388626195937e-02
9.636812678861044444e-04,9.588922536633955745e-03,-1.078329593022507929e-02,9.034662974808769023e-03,-3.111714141236977468e-02,2.662691784424339389e-02,-1.378342515975562689e-03
-1.591655514657400227e-03,3.848534999326302507e-03,1.018654375917358440e-02,-1.700469695676296716e-02,6.672135196611235150e-03,6.901949196769189589e-03,-8.624782276597953851e-03
9.129575840844735002e-03,1.637179754141461496e-02,8.415776982121640770e-03,1.450866162345194714e-02,-2.543844943802717889e-02,-3.726005289335317799e-02,1.647915235564238398e-02
-1.212069597486192460e-02,-2.926915184246182532e-03,7.251051067695860747e-03,7.307366101476665647e-03,-6.087547890338726800e-03,1.104846961246028908e-02,-1.498621551080961140e-03
2.026933899056613305e-03,-1.127635290159606160e-02,-7.366375627153038362e-03,-6.195155731482241898e-03,1.426392805150380506e-02,-2.248161849825476739e-03,1.088073485327443850e-02
1.449177292191016105e-02,8.482322419465747332e-03,-6.312016474883526754e-03,-3.771567420151153427e-03,-5.894787448195359589e-03,-1.718128029061439209e-03,-3.196674798631209818e-03
1.295285810380452686e-02,-9.492281789287305635e-03,6.534093562816976550e-03,-1.872884440324392927e-02,3.605155591330115594e-03,6.723639509467587913e-03,-1.004392609840117426e-03
1.018071919865088266e-04,7.682827363415898215e-04,6.827228782119601578e-04,-5.406571341613028870e-04,6.379614549512756944e-04,-9.066892488734470436e-04,4.601750359704806677e-03
3.561288753944477289e-03,2.006720623897344583e-02,-1.097332242239298580e-02,7.964468058202804276e-03,-1.839644526151704845e-02,4.749494425106341559e-03,-5.182530384019256794e-03
7.034370176965107357e-03,5.403937547709819489e-02,-1.898029060588615410e-02,-2.202800289534705830e-02,-3.965842685889329512e-03,-1.825616035172461038e-03,-1.120240819314153452e-02
-8.630466290250798705e-04,-4.969572911356745504e-03,2.107236728037948856e-02,-7.373697140198858836e-03,-7.040274983111868834e-03,-6.472052734609918742e-03,8.571916202328333512e-03
-2.174405278057795279e-02,4.986797967408194629e-03,-4.813497131725834148e-03,-5.607206641216864323e-03,1.925390989964531618e-02,-3.081296258604121377e-04,9.852810694145730519e-03
1.338345470849937498e-02,6.895603589408882961e-03,1.251527027001194531e-02,-1.794566509691985058e-03,-2.720364762471401063e-02,6.087517882361427601e-03,-8.972736368505717514e-03
-2.502737363708287550e-03,6.620131544925957241e-03,-7.902573021918456175e-03,1.077059709025503416e-02,7.270964796880721552e-03,-1.977646085729924813e-02,6.253368594800174859e-03
1.250070848077184174e-02,3.489114435468437976e-03,-1.540295418349116492e-02,-6.275394964020163287e-03,7.592323277504605880e-03,-1.468677985921566656e-03,3.932474823992534833e-03
3.278281044117991889e-03,-6.622157179559001391e-03,1.881923358730566362e-02,9.083678473018995045e-03,-1.234144247399264656e-02,-9.821545319217557871e-03,-1.951187105365147006e-04
1.335554914217995486e-02,-2.781135900434241609e-03,-3.904490018508318403e-04,7.657840167972483104e-03,-1.584463518401684270e-02,-1.206996533501929376e-02,1.122064564682375906e-02
-2.277517623166233976e-02,2.220835414169824995e-02,2.583479663826011158e-03,1.398570130244257415e-02,5.501270159504210999e-03,-1.136850560138898993e-02,-8.933931638714484938e-03
-5.141937137206777477e-04,1.398528237653900996e-02,1.369810235754287788e-03,3.396548322065544474e-03,-1.199838891097644925e-02,-6.027137263126307321e-03,2.909046718925684376e-03
-6.521231548867174529e-03,-3.908459033988319516e-03,3.151482395056045432e-04,3.108058533074276736e-02,-2.006761090649836297e-03,-2.526441871164767858e-02,8.397652006198703251e-03
-1.189300170735460051e-02,-1.538741001076758194e-02,7.108534161946876602e-03,-6.562341091854696773e-03,-1.085643104582147481e-02,1.079803176029111439e-02,2.763531864420499737e-02
2.937401197557230632e-03,-5.437099483513074989e-03,-1.526649192499169444e-02,-1.545904014704162915e-02,3.549294423651571523e-02,-8.629128195399246928e-03,6.580137023788513485e-03
-3.184069618225370685e-02,1.196225699506504522e-02,-2.182336582558754012e-02,3.770179719300201671e-03,2.824299784864802570e-02,7.948615752619890909e-03,1.244835555213661630e-03
7.161868692894533470e-03,5.517883401145878136e-03,6.936409675153326626e-03,-2.041684410672849406e-02,5.557240748668717915e-03,-1.073109425471953891e-02,8.026194624967083677e-03
-1.099876715114110788e-03,-8.851536712538451979e-03,-1.331367629774300385e-03,-5.130061532658548341e-03,1.089256999396505735e-02,6.058661526357589366e-03,2.498599506434527780e-03
-2.403051464122658127e-04,-1.411470958608895777e-03,7.095796844424118004e-03,-5.665907757329725382e-03,-7.617892088050253092e-03,1.210149151479919527e-02,-2.624803688999984876e-03
1.448023679324888548e-03,8.860415004142509210e-03,-2.546330184186958081e-03,-6.964439152979983935e-03,4.287074421392054156e-03,9.952392836890087621e-03,-1.160050200975833515e-02
1.690485733068451246e-04,-6.173445737098992581e-03,-1.399693072492265260e-02,1.660287148950825940e-03,8.697455411205895492e-03,9.953676016692782416e-03,1.169771437466296483e-03
-1.078011568214086967e-02,-1.150543538528934302e-03,1.501651823022570132e-03,7.618245205192189680e-03,2.877158482933700814e-02,-7.602105370998600391e-03,-1.669936229941906478e-02
1.260449077786905854e-02,-9.469698728166863963e-03,-2.275644812537173586e-02,1.745075814602368991e-02,5.105987467695955080e-03,1.507081820725468362e-02,-1.835047071995924914e-02
2.736608725643310380e-03,-2.959354853090990622e-03,5.061292878625586571e-03,-2.506975472828345316e-03,9.642773799094525242e-03,-9.140496537556129508e-03,-2.999865252817884680e-03
-6.018571910229297004e-04,-1.714055467443294711e-03,5.322287376397237361e-03,2.108630504758888125e-03,-1.172250525801066950e-02,-1.798676359037870709e-02,2.682045138581033716e-02
1.180501524029639940e-02,-2.208182335230481769e-02,8.737364117077069461e-03,-1.415271292235181604e-02,1.903068308161203273e-02,-4.546630850269413326e-04,-2.213729666700218687e-03
-1.875890087514597154e-02,1.094099880373781628e-02,1.454580416913361929e-02,-8.565723680711590307e-03,1.096025541998337481e-02,-2.928157000468084581e-03,-4.586998956472757884e-03
3.672124281313733293e-03,3.521584785012250429e-03,6.150260768235670666e-03,9.459743963388807589e-03,-1.664351027920280002e-02,-1.432071432407933109e-02,9.795325233201606155e-03
-1.140636155164585254e-02,3.344148704093365815e-02,1.307203851877616028e-02,3.044598955468234185e-04,-2.048659936564698608e-02,-1.149678614206665547e-02,-1.368873881304925790e-03
9.889829500508699744e-03,-1.995048984858195130e-03,-1.727074783066499808e-02,2.115351161705859850e-02,2.804562282752016706e-03,-6.911496204493320326e-03,-6.356907592581340083e-03
-2.190310037914419000e-02,4.282525958687601552e-04,1.768264017493147156e-02,-1.031197579627472945e-02,1.167934907600508623e-02,-6.937441627721219542e-03,1.084962600309574351e-02
1.358791645677131545e-02,7.141383073586409815e-03,-1.467806462220318416e-02,1.042028781108648473e-02,1.886354499121302474e-03,-1.919994494579961228e-02,4.689427733153350882e-03
8.483921052971847565e-03,-9.829003632908003135e-03,1.581254561828998725e-03,-1.501872645520841007e-03,7.525663831602568202e-03,-8.415627603377717758e-03,4.172609656343199275e-03
-1.713472734649671564e-02,-7.737412359409273979e-03,1.335629757090213247e-02,1.186609419865516935e-02,4.328091439498219124e-03,2.079602933268192601e-03,-4.795729893101194005e-03
-6.326712870757765332e-03,-6.583222629884523565e-03,-1.329194255824296678e-02,3.593591852958508137e-02,7.857266369243862819e-03,-1.653147540439996871e-02,5.133295799231856220e-04
4.230436331925090457e-03,3.664691570897416883e-03,1.473103186857440024e-03,-2.727550843547272858e-03,5.112195967475227469e-04,2.736595182761172168e-02,-3.243745756269444946e-02
6.384929043199900379e-03,-4.461860954592744045e-03,-1.959700062028847320e-02,1.910736067641949365e-02,7.531815743336091112e-04,-7.511373961382425066e-03,6.106785417163164247e-03
1.114876102615124792e-02,-1.419114239341575344e-02,9.785967558299557209e-03,-9.688334336408872816e-03,9.153399639948541638e-03,-2.127807092527735783e-02,1.886785368738211344e-02
2.107491011096456965e-02,-8.102720025490950384e-03,2.604049788510267704e-03,-1.284442556807597127e-02,-6.440061584701603503e-03,4.042431088297932310e-03,5.097845052502365023e-04
2.579210157891451485e-02,-1.319537814810592055e-02,-6.315713411584941185e-03,-6.681700737573741285e-03,-4.170641863001411757e-03,-8.455879386110700183e-03,1.251353243352387387e-02
-4.372536647980681049e-03,-1.885004430794627204e-03,8.527260032227033590e-03,-5.314610139533186214e-03,2.263287417181777950e-02,1.449823506213658271e-03,-1.953187475837009010e-02
-1.019246875206212318e-03,-1.785376225352272236e-02,-7.262911017679830189e-03,1.480364670635591663e-02,9.978091502589669232e-03,9.073198704996607300e-03,-7.146652333937377616e-03
2.824190605365340875e-02,-8.389861898790157077e-03,6.756815361120418291e-04,-2.250421738017480133e-02,-7.223891479622012758e-03,1.091541203899230005e-02,2.018041796540208615e-04
-3.650230659754153534e-02,1.146508361681949223e-02,-1.128269500932217728e-02,3.352616204646544085e-02,-5.096513311838675106e-03,1.031441994138044410e-02,-3.915865307666423624e-04
1.251201437389355860e-02,-9.047488640464070031e-03,-2.351269171313930505e-03,2.467026785054583175e-03,1.582706296958653197e-02,-3.472532808589412511e-04,-1.836524271660316954e-02
1.926752780368818502e-02,1.544716812561073129e-03,-4.249094994005926315e-03,4.445001238972423954e-03,-6.472218535122013609e-03,1.867301713278400133e-03,-1.700893346038308274e-02
-1.273671770825537432e-02,-8.748832857307037650e-03,1.363587770931428203e-02,2.625258918527325486e-03,6.421077909463685646e-03,1.382299104064134594e-02,-1.454887432921939637e-02
5.247693344263466148e-03,-8.268675695550793681e-03,-9.818656657387713968e-03,2.180799135489293675e-02,-8.431454347232546220e-03,3.316511805617487502e-03,-2.967092621997108933e-03
-5.369142666294515580e-03,4.066497995286208998e-03,-1.897184982374825954e-02,1.512814430737060775e-02,4.089716805399251816e-03,-6.143890345878520482e-05,2.942025399631201417e-03
2.001916691168081908e-02,-2.225690672092546767e-03,-1.308153581161111342e-02,-1.264075577220032977e-02,-9.057075049483477363e-04,1.145328901655633634e-02,-3.089391976052774120e-03
-3.068975384661649583e-02,1.902794370213133079e-02,-1.086213603050162173e-02,-6.208247853640375472e-03,5.808676626393613658e-03,1.221559405353758211e-02,1.268460471076023055e-02
-1.668555171998809677e-02,-4.887088536392208797e-03,3.423437542929990557e-03,6.207331381951273520e-03,8.016740697348877925e-03,-1.528234112103205727e-02,2.221503248366509670e-02
5.622193471661531168e-03,-2.552490606155188792e-04,-6.200277375085162281e-03,7.250567415850433378e-04,8.927716742967623659e-03,-3.067712920205519205e-03,-2.991068055959040291e-03
-1.106932208701532543e-03,-3.416175251946844491e-03,8.930940418320954324e-03,8.486875738569602673e-03,-1.001705768423782027e-02,-1.351100047756097731e-02,1.200439835542805971e-02
-1.538720060702486458e-02,-2.148470862061832923e-02,3.046991229886906582e-03,7.546666504540347487e-03,-8.454143874818357413e-03,6.789457830658026348e-03,2.978173668677831440e-02
-7.139040832557541280e-03,-5.371913755377471372e-03,-1.821717077922189662e-02,-7.824828813441849287e-03,8.371428304077733681e-03,4.239920810128057840e-03,2.691165657802909242e-02
3.435515711946727363e-03,-1.042897338192080858e-02,-5.326366870673436039e-03,1.055739429070652949e-02,1.229117051256279312e-02,-6.166674189825179474e-03,-2.746470026105939446e-03
6.746367006714208692e-03,-1.477674421112997426e-02,-1.950982102989619197e-03,1.530128598192146729e-02,2.186103402339802451e-02,-1.897497372149931777e-02,-5.161154006432925635e-03
1.374170309192514206e-02,-2.033660301501932777e-02,1.000280342068087490e-02,5.674797032220266040e-03,1.050421221746116645e-03,-4.895226364351515889e-03,-2.561804170717306168e-03
-1.418510144656867124e-02,-4.393748600501462195e-03,2.901895364978684250e-03,1.203865142138021765e-03,1.229241847059794890e-02,1.473587904803682659e-02,-1.157608593285026216e-02
-1.668893030548479397e-03,1.198776153629199301e-02,-4.633855500604548358e-03,-1.504111611303551345e-02,4.497462124993716580e-03,6.801497485807730080e-03,3.312792983557703982e-04
-2.028344283459422234e-02,1.598290521241496837e-03,1.929947714996523012e-02,-5.174978937165113091e-03,-3.827722875633196142e-03,1.024110171901056188e-02,7.109203839422829994e-04
-3.283680522683746737e-03,1.066373930192097454e-02,-1.918353073978161169e-02,2.589330665355421297e-03,-1.191241849966225529e-02,1.043478684700039835e-02,1.088379915146208202e-02
-2.612243211879448565e-02,2.323745474322658298e-03,2.130358311513327191e-02,1.712169036246912954e-02,-4.054311878947588869e-03,1.652976942931544055e-02,-2.612887094239903576e-02
-6.375992684654538389e-04,6.024106918584962861e-03,-4.811145386131758040e-04,-3.492258201647218275e-03,-1.861784699155997645e-04,-2.195385145542895662e-03,2.326994716585023722e-03
5.610376516007997000e-03,1.407622507411522908e-02,-9.459252516728508748e-04,2.519766327188127392e-03,-1.847079803611895513e-02,1.231764197318599256e-02,-1.485636575310139533e-02
1.347514561351185157e-02,-1.392122358088437178e-02,4.574665251945144655e-04,-9.620996220746342795e-03,8.332904732837001505e-03,-7.569491678452619195e-04,4.047230932983852253e-03
-2.103725306414942330e-03,-2.497569346812249756e-03,-3.560769386575867758e-03,3.545530158482509530e-03,3.607697903647972409e-03,-1.003486771476224098e-03,5.035149594079639697e-03
-4.194257947498565564e-03,-1.307926942816364617e-02,1.065881417739003752e-02,2.750866185502368402e-02,-5.500672792331980261e-03,-3.250632972341969268e-02,1.944300725164583091e-02
2.780347221225813736e-02,-1.073782470665706097e-02,-1.832019116664956870e-02,-4.541779731039547602e-03,2.092448017303753707e-03,5.581870388731776864e-03,-3.870157155607160341e-04
5.532315886973602527e-03,4.159056523722276869e-03,1.304892601536451410e-02,-1.675765663153074708e-02,1.944792150739593078e-02,4.515919248197441949e-03,-2.983410019239988303e-02
-1.433864184444392023e-02,5.732852571182534517e-03,1.438019549020877474e-02,-4.653263882140663832e-03,1.293100752628146936e-02,-1.475130121315552066e-02,4.094730182438890802e-03
-6.978360534856184808e-03,-9.894711238541555043e-03,4.427545543216282464e-03,1.565052180580957589e-02,4.674697401842196898e-03,-2.116203408937879574e-02,1.551103454507125716e-02
1.130765524507867416e-02,-4.992028166269661150e-03,-2.010130175222530485e-02,4.117944443654197699e-03,1.709885722376874514e-02,4.877377075418415885e-03,-1.070388950689525956e-02
-2.691624212170700813e-03,3.397439220173221813e-04,1.207799104663673413e-03,-3.238809930959051647e-03,1.068628033041571328e-02,-6.041069574974473021e-03,2.565756846343823783e-03
-7.637432755953124305e-03,-5.421526818551887159e-03,1.737440191875224294e-03,-2.669850650985061951e-03,3.823700456469035936e-03,1.948495853905175476e-02,-7.548369914112505394e-03
-2.301815100136316711e-02,-7.915121464463676943e-04,-1.661352521599732427e-03,2.618822490974399841e-02,-2.554868318716210177e-03,4.718455520774501952e-04,1.290510328653509493e-03
1.920784649772411604e-02,7.191962979393052430e-03,5.440416967077428556e-03,1.107422573968361822e-03,-2.977260887609403314e-02,9.744642878091961530e-03,-1.116301423894330846e-02
-9.508654831017699163e-03,-1.713316193146609615e-02,-6.578737366505469503e-03,1.608165647478384391e-02,1.654357033720940499e-03,2.867610611251490346e-02,-1.153993540978565970e-02
-9.301779432805669379e-03,-7.037194725681576550e-03,1.682916823820951313e-02,1.029492224140345427e-02,-9.516780149799775740e-03,1.574638094231436275e-02,-1.641673159408409827e-02
7.974550794638633061e-03,9.275459224544580633e-03,-5.961076552053100330e-03,-1.614455696338169821e-02,-6.127022954790047569e-03,7.395798232556472212e-04,1.128164554624258922e-02
-1.563411158589279176e-02,-1.239897833799621582e-03,1.147854190939489455e-02,3.275742173550134223e-03,-2.474098345935903391e-04,1.611088497346648690e-02,-1.276479517503567411e-02
6.637683112735618708e-03,-1.796798996160553150e-02,6.941118612734990811e-03,5.494522299143429593e-03,-4.076503811573725308e-03,7.178063285896886395e-04,7.048752333279209928e-03
6.257110871000525799e-03,-8.328128580042974335e-03,-6.411722257987789893e-03,-1.536343477131931748e-03,-7.379612387084317528e-03,-4.736755158469667555e-03,2.346508813606553237e-02
4.434420033906406010e-03,3.207727268395008102e-03,1.854739516806636415e-02,-4.861432482912336761e-02,1.247121993759100697e-02,-2.118498389833062875e-03,1.472198698085421670e-02
-6.343562007566348228e-03,1.466980192812037363e-02,-9.900840896191451940e-03,-2.454194251291849996e-03,1.352122733084354725e-02,-1.061421440667867540e-02,3.358308327448800232e-03
1.451595464339155983e-02,-1.488782035922315162e-03,9.313393243854002634e-03,1.032230404629286107e-03,-1.621143005714107202e-02,1.528307284966464591e-02,-2.274016464286685024e-02
3.762156638238273870e-03,1.487063054272024128e-02,-8.190154971767118000e-03,1.410397161370239086e-02,-8.148578009312703457e-03,-5.147111664484758237e-03,-9.768272459391529744e-03
-1.873430673538887745e-02,3.657059117167257151e-02,-3.786745092072842187e-03,-3.776007261643273081e-03,-1.591017859261969428e-03,-3.552609223142212582e-03,-3.927439769627800309e-03
1.063548020520284354e-02,-7.760731452906744106e-03,5.264207381153472413e-03,8.364746709751430531e-03,-2.000299205736967220e-02,-4.071815942643547425e-04,2.900319951375646826e-03
6.255033421354917224e-03,-2.158432729213456344e-02,-6.623499340913800368e-03,2.513395419393378398e-03,1.254511056309043013e-02,1.707288570648075529e-02,-8.505285999426761417e-03
1.115587224162494038e-03,2.802056669291620207e-03,2.586674354134680018e-06,8.559780455008273586e-03,-9.086213328030166500e-03,-1.734112280680820753e-02,1.471344788117827547e-02
-3.984243370946361461e-03,2.399695583122963844e-03,-5.707414582822842135e-03,1.353706143965164796e-02,-2.058751056969090887e-02,-5.670506797929607441e-03,2.130922891030214220e-02
1.874803409581115438e-02,-9.099924220959228899e-03,-1.975717424233110111e-03,-1.100366984798322421e-02,-1.382414800204224926e-03,4.243653028602123282e-03,2.129694713433968704e-03
1.032338924369266553e-02,-1.569034750012803653e-02,-1.401600223288345694e-02,1.788326145204769541e-02,-3.016629412514266941e-03,5.611494824814522962e-03,2.586764442735785610e-03
9.369628047625689488e-03,-1.712248881016597765e-02,-7.630723916786418329e-05,-2.678282244172401193e-03,-2.859154057424342010e-04,1.260963293849318850e-02,1.995844044935461529e-04
7.939289735708029636e-03,-9.017265009530230774e-03,4.690626712689115879e-03,2.529641036642069161e-03,-3.182729332447608098e-03,4.211292829487111103e-03,-6.617220940046761833e-03
1.054352921955812629e-03,1.121750887518400790e-02,2.252171339985977762e-04,9.445304644935162419e-03,8.639786832057542651e-03,-9.947151113864424396e-03,-1.730461473747597206e-02
2.941053232398641373e-02,-4.522530079911291426e-03,2.470717495874020023e-02,-1.415662374594621638e-02,-3.476283164812010024e-02,-2.921283131645107138e-04,1.765002103368649251e-03
2.422883389682590691e-02,-3.027876497293528063e-02,-9.907558369916627181e-03,-3.136046855354281734e-03,7.599384843645677449e-03,-7.934245644762949121e-03,1.988777736716519987e-02
9.391393773700169520e-03,4.682839541179349002e-03,-2.295832332015607796e-02,-7.879080290475900389e-03,1.221155793270632152e-03,1.997950650013464655e-02,-2.775196584262448057e-03
-6.148266925813572828e-03,2.051965213523196732e-02,1.145780832142032947e-02,-2.175454544145835611e-02,-4.323298804608219185e-03,-6.878280769366436082e-04,3.755953560266249436e-03
1.739826818434014183e-02,3.375655590928131923e-03,2.425823244753350582e-04,-2.234724166163744221e-03,-2.837826532567503182e-02,-3.041274657653629098e-03,1.417700448007814390e-02
-1.065231039612219398e-02,1.890927222097634809e-04,-1.092012603290424058e-02,3.597912655346657135e-02,-9.149481112090416049e-03,-3.667630721281922492e-03,-4.296304580013355517e-04
1.275427038210547124e-03,6.594227558462519533e-03,-6.066029346975837511e-03,-2.971928929446399927e-04,-8.455625461309689700e-03,4.239756538108753643e-03,3.331168746227547439e-03
-2.415235096840989346e-02,5.302636697342228561e-03,4.522063982051944750e-03,1.017749195873059002e-02,9.305483063828374687e-03,-1.430028393180082444e-02,1.063935228604152849e-02
-9.778180609383712793e-03,1.092272557319228128e-02,-1.576872404041410394e-02,-9.227257412041653178e-04,-1.273534808700078902e-03,5.633225195979196798e-03,1.489212811284033010e-02
4.534228654534897159e-03,-1.749696868452378651e-02,2.109386420092327491e-02,1.105641867272947991e-03,5.483120317658701608e-03,-3.929667084774562773e-03,-9.199375407253292808e-03
4.754452080929578300e-03,4.626107360006280825e-03,4.239862576585298228e-03,-3.709360148747552991e-03,1.554267662717363774e-02,-1.030187808275776808e-02,-1.352811730164498079e-02
-4.590467739680416381e-02,2.250995908176281826e-02,2.593279581921854871e-02,7.168662372402234174e-03,3.967837885506897075e-03,-6.297450456257173979e-03,-6.586075468616561616e-03
1.084943526508770975e-02,3.401808343610682531e-03,-1.196249500231595132e-02,1.606670985101069224e-03,1.252152004911896016e-02,-9.557456136229502269e-04,-1.022293622752933930e-02
-1.822278831435154541e-03,-6.965230663646000122e-04,6.656624286246195458e-04,-1.934778016586685429e-03,-1.227375807126149503e-03,-4.828886187973486718e-03,1.133041081699336615e-02
3.430947775820823546e-03,6.613537064834203172e-04,7.240156872088602917e-03,3.434886233055025207e-03,-8.308795187938427737e-03,8.435081609804870317e-03,-1.357469707045694078e-02
-2.026855112890892097e-03,1.873509421155994739e-02,-1.712091313246165425e-02,3.628021515707571202e-03,-5.102111217783481673e-03,-4.153113768898232354e-03,9.689524087348230785e-03
-3.089663194407885494e-03,-9.047407637729210084e-03,2.248592005595933738e-02,-1.103516028454816153e-02,5.410984936392982010e-03,5.885630250827625365e-03,-8.782203628909688795e-03
-1.692351375333884730e-02,-1.382727599790103609e-02,1.175027812822096104e-02,1.176896955486460110e-02,-3.245804312188107967e-03,9.724050876365700636e-04,1.163395635082382223e-02
-8.081554863713021368e-04,-1.202580921682508755e-02,-1.799915249829801139e-02,1.296489185307094297e-02,-2.677441654545320500e-05,4.717438419367597086e-03,1.530525218425754334e-02
3.166832264398323181e-03,-4.512152705034118069e-03,1.852051785203318729e-02,-1.709676141184808540e-02,3.376230178732250731e-02,-1.260478979285849926e-02,-1.786480311363312576e-02
-7.759901836320276525e-03,6.254695375987028190e-03,-1.000513212563747256e-02,5.435577455224984908e-03,1.369452518704136236e-02,1.507978023709902020e-02,-1.979029533881436140e-02
3.282180979313405970e-03,4.347483412835197202e-04,1.243087269847269888e-02,-1.963586396960515477e-03,-1.376333858836302840e-03,-1.863394582665280769e-02,6.884050788160866498e-03
2.115043815541052877e-02,-2.094178156970365450e-03,-1.109923729407597155e-02,-2.675773221539238730e-02,1.987773116948380811e-02,1.865728991037107938e-03,-1.584784781093527637e-03
-2.269731714366012704e-02,1.818588474411806169e-02,1.204138734945354311e-02,-8.629390898685685568e-03,9.312780530967120635e-03,-3.639414101296479121e-03,-3.788968410269575888e-03
2.042542501895886885e-03,8.677477281193720499e-03,-6.740736851003037780e-03,-1.904426759416789905e-02,1.451206936255227016e-02,-3.386168811228407096e-03,4.496623916926589283e-03
6.695709778187736681e-03,-1.045989186067999843e-02,1.575498857702211514e-02,-1.679414330547391448e-02,2.204992879512873358e-02,-1.399345994279768517e-02,-6.692443892119922166e-04
-1.514239638625549181e-02,1.338897896548639499e-02,9.367108989253620718e-03,9.637627519171718810e-03,5.812704822932065508e-03,-1.631215924953505160e-03,-1.875111889735147849e-02
-2.964400961961308634e-03,1.999543439586154697e-03,3.118186991653824815e-03,-2.558582912832594453e-03,3.858275453441438463e-03,-1.012918528665528867e-02,8.788393641415533780e-03
2.281299418122750486e-02,-1.681016079552273427e-03,-2.026869813790689590e-02,2.182254210772090978e-03,-4.127004203567744348e-03,1.794072463071478803e-03,-2.408495467168754872e-06
1.227992065655801428e-02,2.167737446769943833e-03,5.558763633595664201e-03,4.044033777589324356e-03,-2.902854438020347708e-03,-1.325372155106068449e-02,-3.046900343729674020e-03
1.943357598959354407e-02,-1.146948974171000876e-02,6.103119613734899439e-03,-1.879528095462394341e-02,8.519519025768928361e-03,-4.694160575306540427e-03,2.784526086817860902e-03
1.086884769440692525e-02,-2.833541211958219824e-03,-3.588904453776463332e-02,1.689986351222059341e-02,1.104637692407408472e-02,2.580550041910564894e-03,-1.432801362869229496e-03
4.127456494983834136e-03,2.595031938071617160e-03,1.468566523924576435e-02,-5.293842976894478931e-04,2.720379604205069423e-03,-4.518789890817056024e-03,-1.709505766436479265e-02
3.883598184044119613e-03,-1.215681964053901692e-02,-1.354395592836116907e-02,4.475595603525649342e-03,1.492083991928505431e-02,-1.614060120482422450e-02,1.920554822001262207e-02
3.893278465194223870e-03,4.551691178925078816e-03,-4.165107190304103563e-03,-3.018850890258193559e-03,2.287086306341208977e-02,1.275962074921867164e-03,-2.295623786383120535e-02
-4.494532913208802716e-03,1.230289194842982062e-02,-6.822749287620853698e-03,-9.938663626331088047e-03,5.729940001013878207e-04,1.429087065834091889e-02,-4.175178925008229611e-03
3.544720969567408033e-03,-1.635325548144948675e-03,1.325836385693043634e-03,-2.395273710006426068e-02,2.001413123737883978e-02,9.193311862506946958e-03,-7.439527975687926752e-03
1.169884179283007045e-02,-4.589370673096893928e-03,-5.585020766902682853e-04,7.155593827824063662e-03,-4.618182139390409995e-03,5.815563719924291344e-03,-1.222833062239637655e-02
5.431085473959340083e-03,5.207014379797063851e-03,-2.101453972406673240e-02,2.207933297081239241e-02,-1.343845619590574442e-02,3.563449044152248481e-03,1.305163245656075152e-03
-2.117520836004405452e-02,1.820764084143233763e-02,3.293361148924832393e-03,1.637897183430614412e-02,-8.332128121606541954e-03,-2.965817720727777738e-03,-3.878435215194564380e-03
3.218986013292094057e-03,-2.496065086745627611e-03,-3.390656107529958058e-05,-1.571097853135737651e-03,2.709457470480887507e-03,-1.456080854882320320e-03,2.901986463739340068e-04
5.629515246976447840e-03,2.123522096714602903e-02,-4.409958600553290364e-02,1.971872982755608610e-03,9.268372409238185422e-03,-3.232046523946515218e-03,1.188760884750825891e-02
3.234001397906569476e-03,-2.491775865867574147e-03,2.422188179017527310e-02,-1.948551406020364004e-03,-6.731383734200697272e-03,1.089473801353231042e-03,-1.678335868190470107e-02
-9.862318412303812745e-03,3.125592486910498853e-03,1.528054090205282697e-02,-2.128419768475339237e-03,-1.566715045993398100e-03,1.070082059197549965e-02,-1.426063353282376080e-02
2.388256231393615266e-03,-4.299300692341426959e-04,1.674316648781714115e-02,-1.937843024121500878e-03,-1.810558560359533040e-02,6.891079215335457406e-03,-5.116972848531137728e-03
-3.919512411396177537e-03,2.263426601773623360e-03,2.176991851744971770e-02,1.492248679570340811e-02,-3.255884004452117703e-02,-2.691080564503703972e-03,1.509470820312197028e-03
-3.625452976552658978e-03,-1.351655896931722037e-03,-2.053800928683425370e-02,1.932079302544311566e-02,2.239015867612903152e-02,-7.087134700765276678e-03,-6.929433284039736643e-03
3.302455323699443699e-03,-6.559306550611447920e-03,-7.039938545657991806e-03,3.639927100446893257e-03,1.365521639217889306e-02,-6.591257401695766599e-03,1.088398584491230125e-03
-1.189280545372587393e-02,-1.514236451836514352e-03,5.947143493007706928e-03,-1.037231038203765589e-02,1.253877570442533083e-03,9.527582448380388688e-05,1.733978865221732016e-02
1.511292298666717243e-02,-1.937131247383455310e-02,-2.893787824022129446e-02,-7.592705828482220268e-03,2.750770595359140411e-02,6.088040033301595280e-03,8.170925243818714240e-03
7.050219300587250333e-04,-9.791436356170201555e-03,-1.546257348364711570e-02,1.835009707612226268e-03,6.169238216929687386e-03,1.113704426128933611e-02,5.510494673637946102e-03
1.373221738341407101e-02,4.263124035067534894e-03,6.645002067963011634e-03,-9.536306329533391496e-03,-2.361205923691044387e-02,1.645179744775487462e-03,9.050945916557784007e-03
3.127436344882501829e-03,1.375741194441283503e-02,8.097263650487955544e-03,1.192958237788534345e-03,-1.432251251411030893e-02,-7.383590099094637649e-03,-4.715041953807932269e-04
1.724722479459291774e-02,-5.094684017995028576e-03,-3.777323633629241229e-02,-6.610213663485542748e-03,1.370872024361661015e-02,-6.122823922035312144e-03,2.636723022416786674e-02
-1.675497454868088909e-03,1.692804362873726390e-02,4.308731500149388591e-03,6.917847017246323699e-03,-7.203843478470630876e-03,3.636950534915446044e-03,-2.185511536172882185e-02
1.437603840793456531e-02,-1.054856995330584945e-03,-1.820888660747308277e-02,1.433305066346786047e-02,-1.312154485542703711e-02,-8.643826984489471135e-03,1.526502196420741024e-02
6.726595086668800752e-03,1.209284632273621533e-02,-1.063014296649045752e-02,-2.296453181836567888e-03,2.638537866481181012e-04,1.258776788736428592e-02,-1.531315905979058548e-02
3.716546235305450731e-03,1.546026837464877001e-03,8.451633333354226230e-03,-8.433806275478135384e-04,-2.976971961613150350e-03,-6.086963603589397136e-03,-3.162196249959288441e-03
-1.117852239023645229e-02,-2.762666492861506895e-02,-3.119315534363063889e-03,1.513328551226883305e-02,2.587663569757794532e-02,1.413544643937100428e-02,-1.237084271894697829e-02
-3.951223225538947996e-03,-5.500105275708093867e-04,1.782630397001679469e-03,-3.827827863135861187e-03,-8.938841437782793845e-03,9.130086069753068703e-03,6.888430254841591480e-03
6.555524174176186568e-03,1.852075522414606918e-03,3.396139950634818883e-02,-1.502544340411076686e-03,-1.316447581269407884e-02,-4.499451657706876606e-03,-2.000589354694745636e-02
2.261474384451878442e-02,-1.558898027101773137e-02,-1.307874927059095305e-02,-7.426413301008516488e-03,1.201895961933893177e-02,-9.256642200147578020e-03,1.145859555753623790e-02
-1.674756303506817409e-02,5.772334025894879615e-03,6.351328098106032681e-03,1.782185081449032260e-02,-1.592412398939668447e-02,-1.757377802496387989e-02,2.403105941667988549e-02
8.414998967647759369e-04,-2.597543964091631515e-03,1.445331561473062491e-03,2.837390633620833977e-02,-1.917931601949996595e-02,-5.549698595447525966e-03,-1.630741843385406006e-03
-4.475811925701797013e-03,-5.489689624796192068e-03,4.756582638771099034e-03,8.790407945472008058e-03,5.966176235619452019e-03,-7.597954134216280964e-03,-7.717513783387447640e-04
8.164807054137881081e-04,4.720706804800942763e-03,3.059955205913874113e-03,-6.662177917444989366e-04,-4.508922993295791382e-03,-4.080846951861979814e-03,1.329574042851389788e-03
3.171219217460731141e-03,1.728756819276523922e-03,-2.450838604664981168e-03,-7.910461010440999335e-03,-5.191013430680175731e-04,1.532806929040150118e-02,-8.073096047382991719e-03
-2.484345601248467598e-05,1.506282337567374681e-02,-1.827866101389620523e-02,-5.981908585214554090e-03,-4.351177399390510590e-03,8.588355663111130883e-03,5.772411371145388589e-03
4.482021923936324137e-04,-1.066022070042120344e-02,-5.480156684042713881e-03,-2.194947532936560811e-03,4.231679789228811120e-03,9.770884174631001146e-03,4.191287340493863277e-03
-8.555893396467841375e-03,8.224360420502016891e-03,8.551816080621141986e-03,-2.356480662699404240e-03,-3.562798515517607428e-02,1.352746621183321517e-03,3.037415049490686109e-02
-9.149322219528398595e-03,-5.032252375704664941e-04,-1.071407316575200691e-02,-1.543245241148532079e-02,1.757885801000689738e-02,2.675173206084299239e-03,1.708794876923857425e-02
3.536488017434874249e-03,1.456959195549307334e-02,9.866787014801759771e-04,-1.045743099142495622e-02,-5.226467589450149547e-03,-6.954479075565280118e-03,5.489708300448181352e-03
1.987174149350542235e-02,-1.852058448448498347e-03,1.262314631188183114e-02,-2.024489745403160873e-02,-1.401604728471611723e-02,-1.303596847175965358e-04,4.707034523562285237e-03
6.034959918265863851e-03,-2.108473215344084870e-02,-8.861492517821481659e-05,9.945644340660959523e-03,-6.002075958242036012e-03,1.350717413787613438e-02,-9.950010788343406631e-04
-3.863300199668194806e-03,6.035605181767243928e-03,-2.247978608142986359e-04,1.318802566600559348e-02,1.356015480453224209e-03,-9.104092310415985712e-03,-6.435175300405068452e-03
-2.073267272722668225e-02,1.791654801752838241e-02,-1.023444009241568017e-02,1.823574296667628295e-03,1.637493619106675236e-02,-5.228507167874929529e-03,1.150198019846756679e-03
-1.145762989216156033e-02,-1.923315719356248274e-03,1.418880248752307782e-03,3.759588162977456956e-03,1.369798768438389158e-02,5.482297590903150754e-03,-1.013569277407232010e-02
-2.336579021290760907e-02,6.730424818621971901e-03,8.581760285013839695e-03,-2.774771383257452670e-04,1.192407729467056220e-02,1.097903279660215545e-02,-1.361619355398326243e-02
2.865250520343855852e-03,3.109457070495919798e-03,-1.151831920774383337e-02,-1.271059639224186681e-02,3.038211372499948631e-02,-3.466578381697890850e-03,-8.188220849689951605e-03
1.627967894892144024e-02,3.626129255152111749e-03,-1.346311044632109849e-02,6.017474758115592091e-03,-1.586539451675784279e-02,1.155581828126350970e-02,-5.873849950788932392e-03
-7.690936535748752433e-03,9.676275520631825652e-03,-1.798045800627769489e-02,7.222691506878262287e-03,-2.450925560299715110e-03,1.270567689902530467e-02,1.400176477839273946e-04
-3.940123865947953337e-03,1.020276778782126109e-03,2.678605112253892081e-03,-3.895785534313845905e-03,-9.033196039944903569e-04,2.022411407734158242e-02,-1.398526573509401016e-02
-1.006559413013183302e-03,8.807272215955064265e-03,-1.188018011305566612e-02,1.328315711430305864e-02,-1.218913951281583958e-03,1.092379823748501969e-02,-1.849455062077875675e-02
-5.119413972155341212e-03,-4.941969795433680777e-03,-2.319986006218966324e-03,1.373550733664311366e-02,-9.744761304742858773e-03,-1.680348148365699845e-02,2.621493995768746019e-02
5.396606500472935636e-03,-3.368025992785834630e-03,-9.466873098247251261e-03,1.325679528633056563e-03,9.803158502880110134e-03,6.289514657635480316e-03,-8.450984214952737827e-03
1.839020697213575306e-02,-5.645211672510116845e-03,-9.337975852831631798e-03,-1.285482371894530566e-02,2.652970012193161023e-04,-7.765521079315780562e-03,1.799863036358451129e-02
-2.386289310554774723e-02,-2.197789863240946426e-02,4.326433674216388636e-02,5.108634953419731971e-03,3.568300657284845852e-03,1.023876911713971806e-02,-1.464901723584853717e-02
7.509435357497232406e-03,2.395079173525464095e-02,-2.844216954366516475e-03,2.145306076626328148e-02,-2.678651183750064071e-02,-2.154797069461623048e-03,-1.856570676666480235e-02
-2.404860212152977808e-02,-2.934494179063344005e-02,4.486143067517438243e-02,1.356254559233265738e-02,-1.137621939986604297e-02,2.130521396187023530e-03,6.523887192751270589e-03
-2.481971050741234308e-02,2.254965193434001550e-02,6.256351475035376759e-03,2.530570634109193646e-04,9.747838956253453147e-03,-1.494177739072887964e-02,2.031011775713806658e-03
-3.582382709726932880e-03,3.296858327349669457e-04,-2.036107527754500365e-02,6.612070863572778665e-03,3.129342564519128900e-02,-3.038940146045516696e-02,1.895702495030736345e-02
-2.473801465093188653e-03,-3.214678093456654895e-02,2.013755982098973038e-02,1.304700287891806185e-02,2.526872784629103762e-03,1.004561287402424945e-02,-8.674553841896415207e-03
3.070191304830226166e-04,-1.838117601400247880e-02,-1.354914101576251695e-02,-3.245069931530647055e-03,3.164277108911718595e-02,9.534953811829420187e-03,-4.735838799333404181e-03
4.017114603128974296e-03,-1.587327231290042509e-02,1.070352780931974794e-03,-7.684125158517312974e-03,6.944646545986989626e-03,5.531294604537526777e-04,1.321981846402487532e-02
-1.144249154418629233e-02,-5.593104290827578600e-04,2.726271587927826378e-03,1.716671584709240916e-02,-1.008757180684600498e-02,1.367679877040080434e-02,-1.067683728653352586e-02
-2.306859490910212127e-02,-2.828731230393234999e-03,1.764941732527139373e-02,-1.102705495646189504e-03,-1.209647694508836011e-02,7.544915998083018271e-03,1.421074237446807997e-02
1.105554812736368975e-04,2.504059326322045659e-03,1.890551694922887544e-03,-1.480612372901018992e-02,1.915782118534545275e-02,8.578323856636690947e-03,-1.564264367847666495e-02
1.785925881960344699e-02,-1.670182298649533839e-02,1.167859295402414160e-03,-1.468574321093508474e-02,1.512866481872291238e-02,-2.327650792106099797e-04,-2.486371379131332364e-04
-1.446621756798488305e-02,1.373926127661574854e-02,1.032589986736528846e-02,3.053184201125923661e-03,-2.203674640393290737e-02,-3.978801605434911098e-03,1.582647404814326725e-02
-6.323429517040199052e-03,1.407054022130776495e-02,-1.867965769521347241e-02,1.466371374228630543e-02,-1.800271155363181944e-03,-2.387716415227334951e-03,2.223978608230213309e-03
1.209215544067030607e-03,-1.136770808543204059e-02,2.510665974054634986e-02,6.384692931237404001e-03,-9.570836061576997941e-03,-3.919785658420894478e-03,-6.114215897834521241e-03
9.645704011448720180e-03,-2.321446624512943716e-02,-1.261257387104998580e-02,-4.905500760445504448e-03,2.102724602818708405e-02,1.683411148208507555e-02,-6.855407130408994361e-03
-2.066487743098593174e-03,3.369447102086402506e-03,-4.966353890974951543e-03,2.337277249347104614e-03,-3.116158953252525909e-03,4.810843306562051329e-03,7.938752848133762098e-04
-2.873166853482212249e-02,9.106539135996811335e-03,1.016580700685012183e-02,3.404076121873547689e-02,-2.824415849002656978e-02,6.125829096708512896e-03,-2.221206159330682637e-03
2.880154805042887609e-03,1.305162268418149675e-02,-1.662786393102935398e-02,-5.926314624515490771e-03,8.128050846868434265e-03,-9.621562034319981055e-03,1.065987622225408535e-02
-8.520104992387055477e-04,-3.805995195710419610e-03,-1.097122432485540290e-02,-4.079042014729633917e-03,-7.828609037245434429e-03,8.154235964814744719e-03,2.074629571284983265e-02
1.111376481484948643e-02,1.301330396681609110e-02,-2.165176765805053999e-02,1.099592495836386810e-02,6.371268625878845522e-03,-4.643230862285989934e-03,-1.448898931126337691e-02
-8.177837918856721913e-03,3.906884415077745837e-03,9.155537433405046277e-03,2.734190439209013401e-03,-1.054565869487806423e-02,8.793003232174091341e-03,-4.744962745702038451e-03
3.773618796968978509e-03,1.442920094345988627e-02,9.169845420477001560e-03,3.558105353124139947e-03,-1.567684153298402536e-02,1.798478276174936925e-03,-1.434479251434539471e-02
-3.157449263032686016e-03,5.894940801872822038e-03,-9.651328948743377947e-03,9.299061222641452976e-03,-5.385333967765571633e-03,9.047500386681568696e-03,-5.921967717414131777e-03
2.831727050489771681e-03,9.109635337530239477e-03,1.785103577882383649e-02,6.823521143335063363e-03,-2.765292697897166630e-03,-1.635230195840124343e-02,-1.660866428083930188e-02
9.627454989322598369e-03,6.270810320982238978e-03,2.852181011357055995e-03,2.277189104359382890e-03,-6.127381667839734355e-03,-1.058903595568402856e-02,-2.141496704476583517e-03
-1.788061973583062250e-02,9.924161257385993515e-03,-6.775447301011688211e-03,-5.765199557447845194e-03,4.392184010830284518e-04,2.543664241910614451e-02,-3.984999416154270252e-03
-2.658752439740336062e-03,2.948492157412196775e-05,-1.301888870685079247e-02,9.744464616229435092e-03,-1.139849041868075917e-02,6.777037379755141040e-03,1.164042567888789667e-02
-1.584282343822693631e-02,3.539174514610847391e-03,2.270637636534233571e-03,1.257773774593844499e-02,1.088166364005274927e-03,8.734372376790807552e-04,-3.085469199700602381e-03
-3.652522295456844380e-03,-7.546422904781100198e-04,1.683654795666859145e-03,7.394186222706596728e-03,8.917102861407266365e-03,2.232717913789670616e-03,-1.436762171681813492e-02
1.679835174791139904e-02,-4.598565336874505492e-03,3.345688720865180356e-03,3.731520701585432434e-03,-1.593064365021603507e-02,4.590641426586657831e-03,-6.759702186920916490e-03
1.093762158349477487e-03,1.029759533598116443e-02,-1.066706995620086453e-02,1.187994482320223026e-02,-7.074710973155972152e-03,3.824828991272098862e-03,-7.428265846174304105e-03
1.333581907170436516e-02,-2.102575997592105467e-03,-3.303839227717576127e-02,1.118526778355008640e-02,1.376774582139731959e-02,-2.397734520971464209e-03,1.306263819141206687e-03
5.018693530601815375e-03,-4.253905803303169308e-03,-8.962379312616345489e-03,-8.787007402593884769e-03,-3.026174781277032617e-03,2.030073043601826263e-02,2.556210274361735320e-03
-1.092760830285030224e-02,1.160778977253680913e-02,-1.803703976387331306e-02,5.157644504792507564e-03,5.005818249462031314e-03,-1.298135576117112741e-03,9.800849029839225207e-03
-6.371588350103428965e-03,2.257293076432873111e-03,2.058718618187450194e-03,-2.092892799210657739e-02,2.001598813724061662e-02,-1.012635044683438817e-02,1.552488385371115012e-02
2.842979794289455641e-03,-5.093955382740942943e-03,5.007694682128609708e-03,1.211773362914965848e-03,-6.946028192463797428e-03,1.470045376564663858e-02,-1.037937957410454276e-02
-1.299919224065103004e-02,1.647026771845620623e-03,-3.038912583984733351e-03,6.734208767059359814e-03,1.660734075254204078e-02,-8.138923931224706018e-03,1.345898077702044934e-04
-2.047372987437233536e-03,-3.127599323362329972e-03,-3.641128668251693984e-03,2.662840725691136175e-03,2.395087522813895645e-03,-2.776578141098365662e-03,7.107157710278591382e-03
7.280113401373725437e-03,2.689389355709001853e-02,-2.270962991111347834e-02,-3.839326868476936310e-03,-3.581579300690224555e-03,-5.875085985826287299e-03,3.329658571918894285e-03
-1.586728418235884563e-02,1.629119515357804054e-02,-9.923042020496396221e-03,1.354227308321262480e-02,-1.463633989931086747e-03,-7.738769664922534944e-03,7.349396867011183561e-03
1.637544158150158009e-03,5.685615150450053223e-03,-5.253502491193369137e-03,1.109824980923116529e-03,-1.000217281837462342e-02,-4.175584845419746775e-03,1.331427682325271068e-02
-7.014453757803853877e-03,1.962908971389256980e-03,1.208004199007425838e-02,1.144811165969668657e-02,-1.020489151190130325e-02,-9.331860642852497778e-03,4.052708869252438610e-03
1.961243991623837571e-02,1.806983273235897303e-02,-1.526211417517345931e-02,-9.531283552473093085e-03,-8.830913811436769470e-03,-1.171802234844463407e-02,1.017087481445662876e-02
9.417740391706865694e-03,9.405481738400708457e-04,-1.418784266518315854e-03,1.121015908170579223e-02,-2.677244509880531698e-02,-9.650034639496485322e-03,1.806641638147403126e-02
1.949748517069343134e-03,-1.072285710233884977e-02,5.359557796963388548e-03,2.810162021454142359e-02,-9.209167764769795109e-03,-1.104623541618676187e-02,-3.848830387078509569e-03
-1.399754872046186059e-02,1.200099512021545085e-02,1.822638275422015439e-02,9.029224275962605822e-03,3.644022426334691742e-03,-2.291326557748969012e-02,-3.951599771783637950e-03
-9.110350399309023045e-03,-1.360178494112231767e-02,2.170788871891413466e-02,2.739988675352262020e-03,-1.776536821970476493e-02,3.517073256838416755e-03,1.335992290443175322e-02
1.114792862450597610e-02,-9.175607305562884144e-04,2.640834165093840398e-03,3.984462432721880276e-03,8.370262137913111328e-03,4.234500589465271499e-04,-2.450414358138179594e-02
6.405265024374131666e-04,9.535918404781199009e-03,1.473763322965249926e-04,1.014031179881264705e-03,4.304011342507798113e-03,-1.520509763872961335e-02,2.858547731220885835e-03
-2.379061136894839584e-02,2.074246298497844573e-02,1.230903846701611286e-02,5.981647776759748195e-03,-7.505273965718376600e-03,-1.109569789819245082e-02,4.526380338401944474e-03
-1.577095292996282764e-03,-1.639741216852700148e-02,1.484273787815363309e-02,7.488050460184502918e-03,-2.274834658038085711e-02,1.186890044986827104e-02,8.452274569551467692e-03
-5.490131199964793512e-03,2.210857285632328653e-03,1.446913626158345331e-02,-7.829162541059012451e-03,-5.543096142998748220e-03,6.693793545414173859e-03,-3.380531382689879339e-03
-2.095609474467007710e-02,-8.941851223938602697e-04,9.679575924541340345e-03,-3.234684664865419834e-02,3.117671824850407752e-02,1.202293215651186777e-02,3.704977739254463991e-03
-6.813301232510353758e-03,4.180239599763441692e-03,2.760657649487682774e-02,1.865090027507631826e-03,-1.883477296112293087e-02,-8.748939234471394405e-03,2.966671615306175954e-03
6.026167394146512979e-04,4.416644380282357639e-03,-8.924254188503613280e-03,8.013188711893218935e-03,1.842258655735098428e-03,5.700782697081058399e-03,-1.038324380918604836e-02
-3.226350543020613509e-03,2.345603340986053553e-03,3.139882817366752496e-03,-3.519393134240088230e-03,-1.817565962688905828e-02,6.075579684950791620e-03,1.560706277673590964e-02
-7.021340769309139876e-03,-8.001730821877345344e-04,6.875837463766158600e-04,8.547241038706158631e-03,-6.138577533252771463e-04,5.547283080328733323e-03,-4.696436166301044997e-03
2.667286627026735704e-02,-1.079479111186097814e-03,-2.763589295584505546e-03,-2.450673759811532269e-03,-1.550244611454349754e-02,2.074936481930124161e-03,-4.465333553541884354e-03
-5.922238083189013645e-03,1.439218154468754202e-02,1.099248208331767701e-02,5.530952495063107266e-03,-1.185191978173260642e-02,4.648224319606485654e-03,-1.285770844548710622e-02
1.837929628609917196e-02,-6.933744782327885998e-03,-1.619013510875091585e-02,-1.290245028488768396e-02,-9.551999518605651732e-03,5.821190491998019106e-03,2.184608337776193510e-02
2.378164335566307428e-04,4.170233744800702635e-03,-9.175074622967645862e-04,1.615489316429807821e-03,8.041303241758784512e-03,1.008390617609592789e-02,-1.970558682376811338e-02
1.343156715472648656e-03,4.182699562086894243e-06,3.584262297282737007e-03,-2.979448285666875997e-03,1.322259499941456831e-03,-2.210233979747458759e-03,-5.462211052981415715e-04
-7.938496894254501793e-03,-1.871462697319336991e-03,1.281192939263770848e-02,1.304976932687118563e-02,-1.587074421078216863e-02,6.668053356344494018e-03,-4.926857014462759747e-03
-1.928547012939950747e-02,7.322947431941853602e-03,-1.631856847329529389e-02,-4.891595138220594143e-03,1.989379643328839653e-02,8.778201275516053781e-03,5.739758744489268164e-03
-3.026093084138635828e-03,7.835575537381973127e-03,-1.709103438168804376e-02,-9.333783844540328523e-04,6.621435937882717837e-03,6.252998158549220691e-03,2.600089783434750106e-03
2.179186347176635154e-04,1.741658402232599428e-04,2.348403946369525055e-02,-1.164168562293610258e-02,-6.421399627654445288e-03,7.150950804966668510e-03,-1.280920130299247409e-02
-3.189741301662062361e-03,-2.969615446257327200e-03,-1.740481505484942418e-02,3.043636489301177958e-02,-6.394425285970284367e-03,1.188291076003421612e-03,2.797653860371698571e-04
1.729653113051216745e-02,2.644659532903467173e-03,1.160397133450345383e-02,-1.154290018784489592e-02,-2.344678754570226828e-02,5.006866823577559890e-03,4.067554644692502155e-05
3.751052124665837928e-03,-1.258424951086753278e-02,1.123808297982060479e-02,-1.888679593565835077e-02,1.264268206323567248e-02,-2.609631839141994449e-03,7.770435378305428666e-03
3.351209112008044291e-03,3.970312081571600749e-04,1.368199438188540855e-03,5.483188424089958414e-03,-4.293431192227908401e-03,8.158049515183250777e-03,-1.187576178292826592e-02
1.005344897928998893e-02,-1.355378492477570624e-03,-1.893217667940247720e-02,1.219568681430592723e-02,-3.292743143340000345e-02,3.508466269342939980e-02,-1.809241948731081170e-03
-1.146080093825162932e-02,-1.789133756327215526e-03,2.129804256831045739e-02,1.554039613128399902e-02,6.051541219840320986e-03,-1.251953557977474388e-02,-1.563772023621202642e-02
-8.690234871201700864e-03,-1.812128494115249414e-02,2.079260323336293986e-02,3.454729967244857692e-03,-4.903114885519191044e-03,1.642153397033564721e-02,-8.427292030673987078e-03
-2.334722135933931929e-04,1.343568920650467860e-02,1.214332463593401600e-02,-2.147328317301012632e-02,3.169351546691351329e-02,-5.627426454959378807e-03,-2.973405292396017960e-02
8.775743383266589384e-03,-6.038179876246845337e-03,-8.329058856605054545e-03,-9.807003303988284099e-03,1.366924309747344357e-02,8.596043069325879499e-03,-5.644271943576930316e-03
1.719784898673751110e-03,1.800832204127363056e-02,1.150072298216374368e-03,-1.202048493364906947e-04,-2.285062644251509636e-02,8.104751893129211529e-03,-5.298585041830937772e-03
-5.657458612521920095e-03,-5.995930245615017050e-03,1.417991589148896031e-02,3.264083972852631441e-03,-1.012005695425843930e-03,8.325080721607919579e-03,-1.164263058959942761e-02
-5.990355346095608061e-03,-2.573802550269794348e-02,2.260288031480999979e-02,9.565491128015012404e-03,3.639466932200575901e-03,-6.917512036879311030e-03,4.386053119807927468e-03
4.223426017227542920e-03,1.496541543154101921e-02,-4.093159035314008348e-02,2.052165424508674285e-02,-8.382399203089035619e-03,1.186045721703946976e-03,1.013484862890727013e-02
-1.102597783426109528e-02,-5.202453465465026660e-04,3.034771225454428040e-02,-2.102221371603631497e-02,-2.279098136316557929e-02,-7.969094828674716871e-03,3.455851811434919318e-02
-4.425522682737242051e-03,-6.494258990782903786e-03,5.455623933385658417e-03,1.360129862893333028e-03,-6.264625281748636802e-03,3.586891668134836557e-03,8.492285016512633733e-03
-4.043988875393323898e-03,-4.519416807114470802e-03,-1.488953858226131459e-02,4.836161392450627830e-03,2.352985703152849981e-02,-3.588913326004709772e-03,-9.524594743730073563e-04
-1.048576242598080188e-02,7.011443676321667956e-03,-8.817506057299018848e-05,7.339633875247196688e-03,-2.834216014763790530e-03,3.153220451328007500e-03,-2.966762488807877379e-03
4.850284033397882395e-03,1.012543188828394537e-02,1.296122187366612272e-03,3.380310103596262297e-03,-1.022341533505084776e-02,5.976908764194072132e-03,-1.391700772885519181e-02
6.783553369522110285e-03,7.610526645961850252e-03,3.105069037416114709e-03,2.428577734053591689e-03,-8.147852698109908989e-03,6.190641589542685702e-03,-1.279655090174762130e-02
9.440799854554928275e-03,1.789028139740795123e-02,-2.764086893033998113e-02,-6.696387027658692002e-03,2.107799702674858361e-02,8.215966308450922684e-03,-2.192680681677524820e-02
-7.558598496217170358e-03,4.192869815501110327e-03,-4.287637510842261246e-03,-1.289145211192667048e-02,8.280292831296571371e-03,1.101898973141113638e-02,4.250403173831410024e-03
1.512002865004908334e-03,5.752726212801742914e-03,-1.656385233628969705e-03,1.744058094213063806e-02,-1.499732918171488641e-02,4.771690390046387639e-04,-7.829778187429239575e-03
1.114222870094679421e-02,5.169592999604721677e-03,-1.947957877390226952e-02,-6.772062781503895151e-03,2.091625242943430038e-02,-8.052281156796525091e-03,-1.756998967706770902e-03
-2.874457763687418566e-02,-6.721868465667619683e-03,1.437905502348340268e-02,1.757542744934276896e-02,2.713528945055306354e-03,-3.019639570884316993e-03,5.115169316987158883e-03
7.111579624182960344e-03,-1.314507338435301834e-02,5.875744481705363551e-03,7.877844749350916553e-03,-2.976597859244576802e-02,2.241097187034058261e-02,6.611050724166786042e-04
3.568170261305191743e-03,5.506565143985460648e-04,-1.422578668428847032e-02,-5.802973699525792659e-03,2.067229368288163796e-02,-1.183901515342953431e-02,8.046300434957855477e-03
1.445021042052566096e-02,9.173639395090476753e-03,-1.425873247041377530e-02,5.508059012035690198e-03,-5.498390017546640925e-03,-1.082823053385769362e-02,2.871824905570220191e-03
1.431751368612182822e-02,-2.053663826129938173e-03,-7.494825271034685245e-03,5.095299093437730825e-03,2.075162676031006969e-03,8.172461159871925382e-03,-1.838346370135858845e-02
-2.424632256370967687e-02,1.068215095309359500e-02,-2.662422052563282078e-03,5.319936185214279613e-03,2.533017065742950227e-02,-6.062373840940729619e-03,-7.992275935521105101e-03
1.189812916594878457e-02,8.695305777177976883e-03,-1.062513942442432600e-02,6.197024116354690401e-03,-5.198349261461653222e-03,-8.774993620052176299e-03,-5.319537784355205185e-04
5.552360655963788603e-03,3.671340851959836352e-05,9.065223836051317444e-03,-1.730256064363550061e-02,-2.361967697965264637e-02,6.241018159214992839e-03,2.223244127268408574e-02
-7.049374294590347520e-03,9.142052393397619506e-03,-1.711227820806181243e-02,-2.921968705668663742e-03,2.108529054104535047e-02,8.251386409283682777e-03,-9.454540135338524234e-03
9.979086368849317268e-03,5.958477192397647511e-03,-2.384749886452272247e-02,-1.317621040053626631e-02,1.491497086869499403e-02,1.328092390935861795e-02,-5.924342780510554601e-03
-1.294172210857824981e-02,-4.939298116745214143e-03,2.686187279107043330e-02,6.210542379567319735e-03,-1.086797952640721973e-02,-5.388370709686006975e-03,1.545430667424999363e-03
-1.971284083874125931e-02,1.542816899011908126e-02,-1.811779521181785787e-03,-2.152890502410657533e-03,5.269933457894762120e-03,-4.993675055018077270e-03,1.018245428746516155e-02
1.131413972428805571e-02,6.914419951239235808e-04,-3.204567192972080768e-03,-5.374599671988311220e-03,-8.094827184753600191e-03,1.123880845824593022e-02,-6.149149434319188708e-03
2.452446849810744484e-02,-6.322867371399267487e-03,4.650814361587676110e-03,-6.396124589798476978e-03,-2.435928295967750706e-02,1.459061459211385622e-02,-5.643097878666520316e-03
-8.996810864495609697e-03,3.197226843149402788e-03,2.409643855351216446e-03,1.791250511186254918e-02,-1.987565187834862065e-02,-1.196129068004785599e-03,8.154284430357703825e-03
-2.877215297324590103e-03,1.710863588422879616e-03,1.204195494833031760e-02,-1.407227801400539290e-02,2.198120735963694436e-02,-1.364091336701528899e-02,-3.168955125201852133e-03
1.065273344199354350e-02,-4.340280370745071975e-03,-4.839024081262812381e-03,-2.149907667890814736e-02,1.092194400320431295e-02,1.460742410812293848e-02,-4.447634783850086190e-03
1.932116540108073932e-02,2.016857141501229942e-04,-1.793066469185080822e-03,-4.607056137653683589e-03,-4.497715462418047649e-03,-1.329447451324319504e-02,5.959477147897451581e-03
6.889634762359118925e-03,-5.888095036615040301e-03,1.736584947697087907e-03,-6.127240671071596673e-03,-1.378384050296224293e-03,7.851326546002132881e-03,-2.087665995528785543e-03
2.219859298172394135e-03,-2.882685305509346055e-02,2.762030787013609878e-02,8.336296407629119679e-03,-7.107207037111498704e-03,-1.224215879367497942e-02,1.149135575743917385e-02
-2.208996674443500143e-03,-3.991315051419271238e-03,-1.543949009582104050e-02,5.467302325864206551e-04,2.650649704969398543e-02,6.791153996484135084e-03,-1.187792630526073555e-02
1.428064741438848234e-02,-2.452360548241459479e-02,-1.203784322797811328e-02,5.649049696773623779e-03,9.830302979213939932e-03,-2.618238868499135619e-03,1.078160122077652730e-02
1.133200015724871064e-02,6.258925673854536659e-03,-2.802046780579572644e-03,-1.984439987587884469e-03,-1.083727741055179068e-03,-2.655985819780473309e-02,1.615740823300142182e-02
4.625665762807669511e-04,4.819837753645412129e-03,1.746924999160210257e-03,-8.237162864015127803e-03,-2.006715340202821270e-03,1.794510711867498354e-03,4.249028331236192300e-03
3.790918474728942680e-03,8.620103224508221529e-03,-6.803988893856641011e-03,4.333655216687939786e-03,6.377818804143493489e-03,-3.876593676162745378e-03,-9.090161347108619005e-03
3.891241308143537740e-03,-2.872007374539820718e-02,-1.631656193380632072e-02,2.920589384763613156e-02,5.274733032734333672e-03,2.190349040553933591e-02,-1.450628899850052965e-02
-5.355556231834712917e-03,-1.118442377756576067e-02,7.005762867783685635e-03,-1.413355877444041724e-03,5.918927500722364655e-03,1.786628726739951031e-02,-1.052116548500843345e-02
9.673337479049238380e-03,3.830662128068998418e-03,-7.151298830575337183e-03,1.163952895779928227e-02,-1.685561816083107258e-03,-1.067460689474342660e-02,-4.059661821864981451e-03
1.528091971070419212e-02,1.761970570215160752e-03,-6.615856953194949224e-04,-1.100605039332304066e-02,-1.967009480631885798e-02,1.853576515696918336e-02,-3.433452442644616305e-03
-1.675022177584787556e-03,3.529297594887354037e-03,3.074968924746551008e-03,-1.069260956833496985e-02,-3.824965769062016376e-03,-4.234097488903221761e-03,1.703226862589141827e-02
1.478220917688223383e-02,-9.655636368297604646e-03,7.895636330860744331e-03,-2.291015155474288717e-02,-2.405710214956182768e-03,1.247021344182101636e-02,3.941598941711188129e-04
-2.738481942458092372e-02,4.217707699466492766e-03,8.234637894849043335e-03,1.064923280157489653e-02,8.106102144422937597e-03,1.123345340151887459e-02,-1.296964929072173117e-02
2.100624592835580867e-02,-1.404018224852664545e-02,-1.600618785976636732e-02,-1.265439427777945332e-02,1.890613471387155020e-02,6.086554392752633463e-03,-1.938411200007534099e-04
-4.526544573286692824e-03,1.631693257773109487e-02,7.877481800819235991e-03,1.395953316629597318e-02,-2.182328746439038056e-02,-7.859040816819481273e-03,-2.860635356206937471e-03
-4.507164234901750964e-03,1.869763770033512195e-04,-3.604494461318199106e-03,1.616807516719139318e-02,-1.838360509812436705e-02,9.626230083628556713e-03,9.036648972100773782e-04
-3.833725938858148410e-03,8.325969780003524348e-03,3.963298183828223124e-03,3.931829964316607001e-03,-1.246508313750943099e-02,7.704542454270109364e-03,-6.076533374160596884e-03
-3.951150468483129521e-03,-1.485745057373420025e-02,5.829428068451110445e-03,1.539082299342539074e-02,6.588578393753410402e-03,-3.536711627651932706e-03,-1.613159413404961166e-03
-8.437722934725328319e-03,1.856276197284579751e-02,-1.449314535768190908e-02,-1.077598477841559994e-02,2.166996442635120423e-02,-5.169738248869749572e-03,-1.106523019649212911e-03
-8.488132488738824380e-03,5.845360170022334718e-03,1.134494867124717296e-02,-1.530867847089931698e-02,-8.496787230017002410e-03,7.172777395568370566e-03,1.043475665322302938e-02
4.701683307406308212e-04,4.880687487081513017e-03,-7.727063093699947267e-03,-2.373187178617027545e-03,-1.925993232678393369e-02,5.619721677718151828e-03,1.990556186454526047e-02
2.741217677199988146e-03,7.418128680094247807e-03,-5.840488179261481326e-04,4.780536952530173821e-03,2.159917550875514389e-03,4.038471356190828643e-03,-1.992132158253909907e-02
