-4.580544651357852937e-01,-1.496695227687158125e-01,6.744824937510407459e-02,3.254749607676201695e-01,1.913566704615257130e-01,-1.342900760533726201e-01,2.516764329507323872e-01,1.371870347557943015e-01,4.874854251857931864e-01,-3.375754255907954526e-01,-1.450753777789904886e-01,4.473885746593432300e-01,-3.786842792731539564e-01,7.340239228457168252e-03,1.383009375202269853e-01,2.748241424482233963e-01,-4.982653144597808392e-01,4.051735138054846086e-02,-2.887543556959001334e-01,-3.622075245136417987e-01,4.083441202294519901e-01,-1.536620456163123594e-01,2.595946389438391622e-01,1.772083298963108566e-01,4.984542563897687018e-02,1.032877881848438539e-01,-2.140387302569169981e-01,-2.048830581835016096e-01,-3.027893165430366462e-01,9.255367733917685413e-02,-2.379795272677855955e-01,-4.745242761547793231e-01,1.445562425317725719e-02,9.034435166559007246e-02,2.384702454214226996e-01,4.538843969611174867e-01,-1.533768906074631788e-01,3.816668063312604886e-01,1.674338233948829968e-01,4.166940095529503285e-01,-1.752963788412942314e-02,4.560292314433018745e-01,3.462966546236152521e-01,4.919573601404787500e-01,2.584775522573748985e-01,-3.630980729663403350e-01,-3.011271572091368531e-01,4.701535387829391954e-02,-3.808046341345924235e-01,8.293932089101119232e-02,-4.846665498055303667e-01,2.923381312828470247e-01,6.789899601875593049e-03,-6.975911943864931963e-03,4.156688846074620969e-01,-1.985401870838526817e-01,-3.802258660509895138e-01,4.660024747085499408e-01,3.725844639853939100e-01,1.062368610535917579e-01,-3.284844347633754102e-01,1.678221308208232010e-01,-1.831837605572150807e-02,3.580939596393979407e-01,2.084760139695667203e-01,-1.774171987057010513e-01,2.565119680807991243e-01,1.218981708566375666e-01,1.977880912951096581e-01,-4.280796541984532855e-02,3.344624167472680654e-01,2.659685724160110176e-01,9.061847861458316444e-02,2.830836710047919258e-01,3.396383828106255276e-01,-1.845054696621729606e-01,4.417120887751823100e-01,2.952809994650337222e-01,3.923760155697589846e-01,-4.772270150860526972e-01,2.778113124899663777e-01,-4.820745052428561106e-01,1.316035760588672998e-01,1.732610279460927716e-01,2.255513775422495204e-01,-3.881038617250935907e-01,3.641756602059140757e-01,2.890113444502895312e-01,1.095267670926265424e-01,3.872621841922548880e-01,2.098476856203788099e-01,-2.484689935839590191e-01,2.489844355557915279e-01,-2.761460247560960646e-01,1.572001851829619712e-01,6.260493418716206460e-02,4.276563494798224507e-02,-4.143111569416215723e-01,3.325725707674266340e-01,-3.592292865326376372e-01,4.525668768798252195e-02,1.893411289840690737e-01,-3.726532410039100629e-01,-4.051803959126708543e-01,-1.115709508306426123e-01,-3.781938485184408449e-01,2.321462426039970772e-01,2.150600783228978630e-01,8.515487299713131453e-02,-3.827367519809944385e-01,-1.276366525367383931e-01,4.504200617765352632e-03,-1.528341093305075615e-01,-8.897780156621892811e-02,4.260731700154414270e-01,-4.854085347147519824e-01,2.430865997940022671e-01,-3.650262248807460974e-01,9.346119278316100676e-02,4.436107446802847187e-01,-1.255007298424800632e-01,-1.053788789266385528e-02,2.149399154171548476e-01,9.120099152609673077e-02,-2.400126768233531438e-01,-2.064112216283262580e-01,1.543993325314001464e-01,-1.859135663756462664e-01,-2.837591638857618337e-01,3.691512773836067574e-01,3.834430736866808465e-01,9.840969730468396293e-02,1.514031543787389689e-01,-1.540312101319053495e-01,1.934513421387741294e-01,-3.720625682616868213e-01,-4.360870899777546938e-03,4.167990402209831302e-01,2.690372298950960417e-01,-2.447975140257766524e-01,-1.885659357058410146e-01,2.838332047991543039e-01,-1.096955925364162532e-01,-2.936165028651793740e-02,9.184174988284987684e-02,3.755407781963148173e-01,-3.087483465769260693e-01,-2.475050902568954880e-01,2.307922150300023567e-02,-4.796801249722482119e-02,-4.970945814844813793e-01,3.471328939212309228e-01,2.792835598370831951e-01,3.693674997489648781e-01,4.438601278780662795e-01,-2.733393866102029612e-01,1.648294981015518967e-01,3.596874585818879977e-01,-4.005705395549711278e-01,-2.864664181295694112e-01,2.711140409792479611e-01,1.981956905238345668e-01,2.836854027778453746e-01,-2.058615476270796441e-01,4.966623903971045806e-01,4.189566859551103750e-01,-1.699909838768765002e-02,-3.234379349864753284e-01,-3.555708619305786300e-02,-1.689959660857236479e-01,2.738900741182885845e-01,3.088224336074503196e-01,4.675128718162998576e-01,-4.758832789009463937e-01,-4.646866134743462551e-01,-2.067310140358348258e-01,-2.680699478946514391e-01,2.530043255431533300e-01,4.660695503483932578e-01,-2.298963102882075615e-01,-1.595703525052579730e-01,-2.654273776381015360e-01,-3.469261576774518296e-01,3.624951913221269306e-01,2.468020389331513353e-01,2.402140506635460637e-01,-1.872957029478259372e-01,-1.000631968695825380e-01,-2.377555037804407467e-01,3.527436265475858423e-01,-2.792529702131575364e-01,4.430073226544195553e-01,8.336668998879637194e-03,3.196337133773946571e-01,-2.843498245962742255e-01,1.516717407751786428e-01,-2.923263795275286014e-01,-2.675613413364575921e-01,-2.366812770883818251e-01,3.387351523837585088e-01,-1.560912525123137051e-03,-1.529260645050263268e-01,2.768968595038880931e-01,-1.116204254528132545e-01,-6.349304659182930521e-02,2.412210603351020444e-01,-5.152280340370296585e-06,-1.416066478267294926e-01,4.118227031731338528e-01,1.242411244661724146e-01,2.144417650007658382e-01,-2.715945993146599013e-01,3.864196372647477062e-02,-4.859184361069601721e-01,3.997427619040317959e-01,-3.054959273525110763e-01,-4.460225238036281681e-01,-2.378088805129507932e-01,4.235963913185032403e-01,7.844201589589105961e-02,4.590317838398402239e-01,-4.573433135731066468e-01,1.328600814848506229e-01,4.191637088150093060e-01,5.592169668809154892e-02,-3.430464514425747291e-01,3.730149718503783518e-01,4.428104915577965039e-01,8.969334962253627808e-02,-4.158528410806213715e-01,1.732747569438923829e-01,-3.556600027900639338e-01,4.430634554425200156e-01,-1.513803802315362157e-01,4.577536984089236594e-02,-4.871997820909613752e-01,-1.293240503869357294e-01,5.092446596940913839e-02,3.126108963306114541e-01,-4.843295983341191491e-01,-4.024121482403467676e-01,-6.882586112477873108e-02,-3.843561444248204673e-01,2.653689002308400324e-01,-4.024802457918141840e-04,1.557324543643163750e-01,4.162260347829225271e-01,-2.535250002333200303e-02,-4.530964078676750217e-01,-3.687927475623884455e-01,2.347401984357210258e-01,-1.441122289469825013e-01,2.563886341160044324e-01,-2.560453953442907160e-01,3.432682197038123828e-01,-1.951213483431402107e-02,2.116522638595396133e-01,9.864828592828411846e-02,2.324534564728943931e-01,-3.760172097936317348e-01,4.365859228012964888e-01,-1.772465545680605992e-01,2.772001467510066819e-01,-4.931087067370099053e-02,2.966245607300461717e-01,2.198032749909095696e-02,-1.473324725975476701e-01,3.909479817163470372e-01,-3.811900118077561350e-01,1.038698393556312105e-01,-3.848820867174964633e-01,3.566167935243673703e-01,4.450862500128250909e-01,-1.025718238824913087e-02,-1.773219348877888013e-01,4.585910806235277137e-01,4.982751272800576281e-01,4.559627523110264535e-01,2.228089524182852443e-03,-3.988142385503328224e-01,-3.650679347877363590e-01,2.361524268535812876e-01,1.484399845827244491e-02,1.417146879342151555e-01,1.112924253962521703e-02,-2.647332437476128675e-01,8.247141263702006952e-02,-4.022669333082248277e-01,3.986694286862710879e-01,-8.152863908074192700e-02,-4.150893175804174495e-01,-1.213941194347842867e-01,-3.823889318679787319e-01,3.039555530136510697e-01,-4.321246966037278758e-01,2.238576915063099637e-01,1.245761138264028789e-01,3.069515185036284510e-01,-6.731344988927756567e-02,-1.606422595278513832e-01,1.447343174791673182e-01,4.190472084361648308e-01,-7.821262673760276396e-02,2.110659911586432180e-03,-4.380769828331603222e-01,2.552981639874422060e-01,4.777685669076646713e-01,-2.623594544145457785e-02,3.531959265874559106e-01,4.319142841986526316e-01,-4.555918116897854642e-01,1.312403239031839641e-01,8.150115680327385537e-02,-1.339078077493477403e-01,-4.773676073612475035e-01,-1.742133417311659827e-01,3.196950098845295907e-01,-4.234407218603464251e-03,-1.897909761263572026e-01,2.834255071496816214e-01,5.914061543648818642e-02,-3.756280359112494915e-01,-3.876906493238314599e-01,-2.967309933966054691e-01,-1.621948849505838730e-03,-8.279281090102463825e-02,-4.122120727537612606e-01,4.782833728178209620e-01,2.689729546768793167e-02,2.845595660127978599e-01,3.167490030857431638e-01,4.472864227523395408e-01,-4.425577348273598277e-01,1.521865791271707069e-01,-2.276298524109218180e-01,-3.392607236300495543e-01,3.786551514471713231e-01,1.223140794432275857e-02,1.236741183094763885e-01,2.389460532275569093e-01,-4.084437196471640830e-01,-2.893377916585957443e-01,2.484520101244750423e-01,2.110974364091255939e-01,4.207202392508047062e-01,-7.495681162926026708e-02,-2.440026063372283671e-01,-2.147854245266390683e-01,-2.919215382520896629e-01,-3.841580166669626983e-01,2.760777168646025848e-01,3.748069660192936414e-01,-1.897768963685545485e-01,2.893204810373412039e-01,-4.131091188517831414e-01,2.734176120686232503e-01,3.409414520676319338e-01,7.558203595614576553e-02,-1.336830767548883303e-01,-3.456213258465768989e-01,1.876497569496660134e-01,-1.248259325415849164e-01,-3.579508235831155849e-01,3.289229621083273880e-01,-4.817317329755318456e-01,-1.290437951388571092e-01,1.306079558614124947e-01,-4.770392888575776258e-01,-6.044202463907055733e-02,2.393704948338428729e-01,-3.365417455702034433e-01,-3.935413081149974346e-03,3.631119701020316670e-01,-4.035592769984230888e-02,1.367813560971961051e-01,-3.910816669144290270e-02,1.242408440124996849e-01,-2.372532442859541790e-01,4.979688559778935319e-01,-2.558098965509977285e-01,-2.328499834951160974e-01,3.381882144455528039e-01,1.871688427118209930e-01,-2.838894200589057171e-01,-3.988881620863771182e-01,-2.995810183368927682e-01,-1.826463300717188210e-01,-2.729732267148936575e-01,4.783189232828888304e-01,2.311032090853548659e-02,6.554360317625274046e-02,-4.933874378742599820e-01,2.052516031094513416e-01,-3.511335397759102195e-01,2.414004910913536417e-01,-3.138508772468370234e-01,1.636014241716911011e-01,1.847854984259601485e-01,-4.078507032584951508e-01,-4.508847960125103027e-01,4.422968936199267453e-02,1.044712078161718072e-01,-3.814098607581475342e-01,1.030923468971474133e-01,-4.027557785290960535e-01,9.555650306124618965e-02,-4.381525889621851189e-02,2.709351360990545077e-01,7.684795020135992694e-02,-2.406252451150430183e-01,1.111226020981249674e-01,-3.795696569628514982e-01,-6.543446269146158123e-03,2.581550786987354407e-01,-2.957772412683344898e-01,3.852065645896245449e-01,-3.910006286796191555e-01,3.572045509003282104e-01,-3.860937706343664511e-01,-2.917888761806509690e-01,1.710441483578957200e-01,3.441523306232767698e-01,-4.162878923467649983e-01,2.170754521590907427e-01,-4.624898821008698313e-01,-1.337162576543260428e-02,-2.753452615835138007e-01,-2.078743170052234079e-01,-2.790372913397398680e-02,-2.955691540490242852e-01,1.339858468407101322e-01,3.018976925932684852e-01,-4.815067396455006143e-01,4.870126443804658756e-01,-4.279482181086713410e-02,4.638310318121352527e-01,2.192291118513159942e-01,4.302971079054589421e-01,-4.857627056191633486e-01,6.604009100731944581e-02,-4.739585664107109908e-01,2.422861767511963471e-01,2.928736549285196888e-01,-3.496106055150132175e-01,2.894842988610613066e-01,-3.337039429093847653e-01,1.008090943964448094e-01,-3.550483825369512569e-01,8.620268741642034271e-02,-2.516373336254287274e-01,3.490153905490280817e-01,-3.627284159377230921e-02,4.429049900031623022e-02,1.668936768042083019e-01,-2.062639046370541296e-01,-3.174519670022335482e-01,7.706513594793795718e-02,-1.418695730781435183e-01,2.111554014071816976e-01,-7.742812360009576622e-02,1.265042272766339071e-01,7.338841049176347830e-02,-7.952291401005273652e-02,-4.224925645021323506e-01,-1.629888365072561518e-01,-2.991891668770080281e-01,2.624580933856313081e-02,4.614562537839931311e-01,-4.684737985244064040e-01,1.224489136295219271e-01,7.990673064926467895e-02,3.388998425568454653e-01,-4.936179219224289261e-01,-3.849484395106357315e-01,4.354591066992133941e-01,-3.169485682321380171e-01,3.343986232263208569e-01,3.628390435163486583e-02,-1.082044603749032774e-01,-3.427240761663300495e-01,-3.507008219298635154e-02,2.032952996000256807e-01,-1.592314364487823486e-01,-3.165669890633499017e-01,3.915062724237584613e-01,-9.246404812529995798e-02,-6.972061385040984050e-02,-4.468268866569469200e-02,2.512136935025264250e-01,-2.585457292387821626e-01,-4.748427193449640260e-01,-3.490887081212425969e-01,-1.064461121919456632e-01,-3.213092730365630922e-01,4.850575301439908893e-01,-1.941064000856802529e-01,-4.786298799716337538e-01,2.034631732854830233e-01,-1.566314656222318469e-01,-4.893639560474358774e-01
