2.209797960190879821e-03,-3.231006636870351403e-03,6.523342065284891541e-04,5.454295428135238696e-03,7.091314608242490916e-04,-2.789257614983626805e-03,-1.311772030945465486e-03
1.181212192637691883e-03,1.156885977769133312e-03,8.001943316820241342e-04,4.559964211023678901e-04,8.739558940496742903e-04,8.395327097259953518e-04,1.077034002103979685e-03
1.173994169084294128e-03,1.063889993308226407e-03,6.308256647979521535e-04,1.235318466045694664e-03,7.470579224923524445e-04,1.211076658861695186e-03,3.899714658238253922e-04
2.569926769837314710e-03,1.932321564187630724e-03,3.431909703125289460e-04,6.239173490807330309e-03,5.371637997215887627e-04,-3.957859255910940212e-03,-4.522884603042589408e-03
7.890244740821973678e-05,-2.875687734396313762e-03,1.165167199098015791e-03,-5.457959153383316756e-04,2.494157817791566555e-03,-1.467352187252081788e-03,2.118032466731450091e-03
-2.394002054130244667e-03,-2.201768172186258088e-03,8.833308095242416820e-04,2.591088285713363196e-03,-8.581628524257504161e-04,4.030034497172695421e-03,1.340546070862284759e-03
-1.445773093046258384e-04,2.562462952453556722e-03,-4.031580381446340546e-03,1.319169690026314760e-03,-5.125497429768104476e-04,3.647695567933013396e-03,2.496183352091182073e-03
-1.529164428497148528e-03,-2.500636370010799869e-03,-2.402064238546013433e-03,-1.136908109582120780e-03,4.389627566675811748e-04,-2.138942622582490349e-03,1.050535745063532408e-02
2.122374958383259694e-03,-2.375188645874991809e-03,1.867757405210028129e-03,-1.699314899488841429e-03,2.029782811728940515e-03,-2.696955112778678877e-04,2.569205473408225568e-03
-1.939271117466296679e-03,3.154650355526600509e-03,-2.255201266955316440e-03,-4.064411807412383025e-03,-4.512393945216859169e-04,6.960158366404664565e-03,2.631134617304801710e-03
2.070175395076268628e-03,-2.153245924005275588e-04,-1.318785180665569797e-03,2.498476706030917666e-03,-9.115210916508873894e-04,1.647697910375610668e-03,-1.655418309920968526e-03
1.409913646316201781e-03,2.477069234343736836e-03,1.876686583317520611e-03,-4.164774570655275197e-03,-5.294439914242673280e-04,2.765611423656888068e-03,7.123658435445404937e-04
1.113790174559133993e-03,9.773255425916738733e-04,6.360572132274245260e-04,1.152329814846475347e-03,6.787116662854521861e-04,1.042308462018151421e-03,9.201799712113518199e-04
6.984524171250335294e-04,1.446174362943862405e-03,8.320555609412089030e-04,8.495962840849698378e-04,1.015186267378777058e-03,5.434015632111191237e-04,7.948696542821110430e-04
2.483146664176251635e-03,-1.899233534169340225e-03,3.071156006109912288e-03,5.889888330089338916e-04,1.678999983495211516e-03,4.754430448512750838e-03,-5.954224106525568896e-03
2.578946084038482266e-03,5.271865678811769526e-03,-1.576361936744793361e-03,5.167640267158050277e-03,-4.639034254302766558e-03,9.251335770451969654e-04,-4.516384123516567657e-03
-1.315981576406718284e-03,5.624590141732752763e-03,1.456082726824495374e-03,8.422225394068813314e-05,-6.843088694766752368e-04,-6.800977358616466101e-03,5.014230923017388812e-03
1.478714669759992372e-03,1.253622645848911270e-03,9.035095945787149701e-04,3.112025507999073993e-06,6.926333503471438814e-04,1.346102208040201665e-03,5.539386130690814166e-04
4.647815666577982067e-04,1.010488607251714549e-03,-9.050070794967435966e-04,-1.401321773872983350e-03,4.704367390341713639e-05,-2.136454140628126202e-03,3.774355814938524720e-03
1.703676775823374833e-03,2.409698984168270365e-03,2.137012759744249916e-03,1.831232631157181986e-03,1.890060550026248553e-03,6.661712840333060054e-04,-4.741864823075913130e-03
1.465426589636844917e-03,1.070264456668206096e-03,9.070393727203576164e-04,1.694371984728205082e-03,1.212397982357557970e-03,-2.410847513889070382e-04,3.633672893599387393e-05
1.818547032782426949e-03,-2.224522332149988114e-03,2.281865925691653647e-03,1.015678200681977440e-03,1.264968580831700006e-03,4.918896736840904123e-03,-4.600362270131033195e-03
6.296809304951052040e-04,2.080379390225067793e-03,9.100488960885556779e-04,2.491428704929908675e-03,-2.878603320602679392e-05,2.998431381144023213e-03,-5.741328651064704289e-03
1.200351321224058014e-04,-3.390890232625434677e-04,-2.066185081084675044e-05,1.570167007262787619e-04,6.172440602070792051e-04,3.144499270013063349e-05,-2.765733925210793974e-04
-5.178918036758105043e-04,-8.255262229904872240e-04,3.110464222774655344e-04,3.141694677363074482e-03,1.888206721120293816e-03,-2.276082457285930928e-03,2.742984324106124278e-03
5.052684255828960739e-05,3.555219865170588904e-03,-3.952097096946495004e-04,-1.387715244123430974e-03,3.452667127251419772e-04,-6.344150499184267496e-04,-7.696518576808212154e-04
-5.232993382671385484e-04,4.860822150770015282e-03,3.520135927022477744e-04,9.390746819915410685e-04,-4.756093806142276496e-03,5.842900523481605983e-03,-2.047928256884257864e-03
2.559376882091449180e-04,-1.109387535821286085e-03,4.195584661077594825e-04,1.877525749812002966e-03,2.169307671176321374e-04,-1.262743339435261781e-03,2.533769641725341112e-04
-2.183554908663194532e-04,-3.930401991526679371e-03,3.230042751246045649e-03,4.306378421550331563e-03,-4.321549472022894996e-04,7.434238226505996599e-04,8.107177603746021192e-04
2.936547517567627934e-03,-2.201269783855027383e-03,-1.133578057161267142e-03,7.264068933808413885e-04,-1.799186412140354758e-03,2.625725515731392248e-03,1.356673665284464968e-03
2.275743146716342844e-03,1.802841523658659092e-03,1.613610483672968344e-03,1.995970003509101173e-04,-4.134927367650880164e-04,2.713669400734418889e-03,-3.317451212332459681e-03
8.518095348250695692e-04,2.453807947491142092e-03,-3.508341640305559766e-03,-4.772870815612338322e-03,-3.092870406290237732e-03,5.378281994397402475e-03,5.966739561070972218e-03
-1.516731276403645960e-03,3.165437820381058771e-03,-2.604854620144073010e-03,8.006635014799069316e-04,1.089102930373768039e-03,7.501706980651851736e-04,2.544246867434501840e-03
2.261555838981432883e-04,-1.028361761890973910e-03,-9.274284007727428983e-04,-4.950221550946261794e-04,1.267720830275791436e-03,3.984473352019029255e-04,1.655673349954058004e-03
1.603278144230389866e-03,1.260591855433382475e-03,1.025255190490338870e-03,2.045060555949003867e-03,1.268249547548265348e-03,-2.636209601473112670e-03,1.559891548682133680e-03
2.338982673503511509e-03,1.488283915977106414e-03,1.804456575607152943e-03,-1.235652143344715716e-03,4.824606524572706509e-04,-1.865050761094606867e-03,-1.998793707401926110e-03
2.715942418134393698e-03,5.360685571734616697e-03,2.987315832475024289e-04,-6.117948370264279095e-03,8.445209042654648873e-04,-3.631158448367294896e-03,4.496601286264468970e-03
1.598234146384977083e-04,1.424712604031653975e-03,1.102802170085092877e-03,-2.210176322405118989e-03,8.614522815383426251e-04,5.563084264256834338e-04,2.737748394510349220e-03
3.153387438554356142e-03,1.494710013371108046e-03,2.188692914636090718e-03,1.977291693412278062e-03,8.349247411085691708e-04,2.670842548868695814e-03,-7.506888528575911962e-03
-5.531729959864921690e-04,2.801083747055128480e-03,3.893947617943087792e-03,4.055036868362543907e-03,1.040033094527279336e-03,-1.650851086857038977e-03,-5.411000524642679138e-03
-5.654099945021232379e-04,-9.861016393609618215e-04,2.666910698491905033e-04,-2.172104535463676876e-04,1.288581923240994737e-03,-1.339781280654939568e-03,2.049219112999750743e-03
3.729413348510040270e-03,4.249964239607540578e-03,5.036103852542504582e-03,4.019081029817780926e-03,3.197824168997158868e-03,-8.859944208363291704e-03,-7.656579922179328722e-03
2.665843222627493469e-03,1.787042299862958870e-03,3.109768004445668393e-03,-3.882128218598628663e-03,2.785078676308696405e-03,3.448107884094071991e-03,-4.861017630469968362e-03
2.865728785076221159e-03,2.247481714049800149e-03,5.585738060931092885e-04,-2.356583024538214544e-03,-1.977126391875716829e-03,4.165934900081821836e-04,-5.698157053675797666e-04
1.718441998524016532e-03,5.145205103650284453e-03,-1.641632394230303424e-03,2.132729000022857459e-03,-1.245672820790839127e-03,1.704682468937060305e-03,-3.536316485974213414e-03
-4.535217305412803660e-05,4.140203602901513613e-04,9.319857550202605069e-05,9.363100053586521465e-05,1.770327598903809879e-04,-2.782316919817800225e-04,-2.862524863595616973e-04
-2.469649666419407048e-03,-1.317572322801687868e-03,-1.318470897785520594e-03,7.234288003123316236e-04,9.285551795118748364e-04,1.562978118047021617e-03,4.481984428063875633e-03
1.701418626595402848e-03,-4.900712708086103417e-03,3.054540226383155831e-03,4.669464644241892379e-03,-2.660614257935818485e-03,4.790277038321249722e-03,-3.184050533713472190e-03
-1.943242378785582517e-03,-6.227637883355454165e-04,7.788809732778943914e-04,-2.188452957973542091e-03,-1.244874432674408001e-03,9.323266121255967265e-03,-1.210948357279769457e-03
1.258907706150981087e-03,6.356242708628213195e-03,3.681131541554785746e-04,-2.047791087282558545e-03,-1.548033689552243087e-03,-1.414586882292828869e-03,-2.010004477781734012e-03
2.532998702629122266e-03,-2.096558656533637887e-03,1.612889963323633482e-03,5.777470876565798073e-03,7.746995277022298990e-04,-2.680941031793988502e-03,-3.679610014698140533e-03
3.440720007606977958e-03,2.172264119580176629e-03,-1.120567696963176022e-03,6.143593023912974176e-03,-1.118467346070837727e-03,-3.967785172074382236e-03,-3.385853982126585653e-03
1.893646649924044184e-03,1.142855807328530763e-03,9.987473876758262530e-04,-1.408197007679198344e-03,1.669353855399774932e-04,-2.913466703311668208e-04,-1.437031140930676706e-03
-1.187979566270084240e-04,-9.594126033099308580e-05,-3.801010706627012611e-04,-3.269410133367916041e-04,-4.307284186029262615e-04,-7.234285706738421929e-04,2.456561943405662519e-03
-1.365542783622743868e-04,1.660781726771312465e-03,-4.734042228784005458e-04,-9.055454037530625633e-04,-6.294898017547498337e-04,2.732532182944282743e-03,-6.510233626123139048e-04
-2.035202721048828562e-03,-2.977202368742899036e-03,-2.395410994610120987e-03,-1.049209120794507619e-04,-1.355891001423770300e-03,9.474264133747854408e-03,9.542706030336344306e-04
1.651758747702566227e-03,2.263874562517650870e-03,2.532626514647552934e-03,2.498603224150541726e-03,1.645714170404413723e-04,-7.561657678441135360e-04,-4.777339850014524283e-03
-1.282427336119938569e-03,-4.642444091596537449e-04,-1.046848324687744318e-03,2.678309936337330832e-03,-2.814617369494320284e-04,7.191819425217461405e-03,-3.499159915445934285e-03
6.194084399439784129e-05,-4.562016293487753424e-04,8.096784517086751188e-06,-4.246006504047470081e-04,1.769009932221187712e-04,-7.257430443963102436e-04,1.547856811581607272e-03
-3.152978873676739427e-04,5.606314696746837137e-04,-8.885442294231267728e-04,-2.711683094085560845e-03,1.085028554646429947e-03,2.885097711205665202e-03,3.594676676724532956e-03
-2.463314821667006872e-03,2.659069717510842423e-03,-2.596722124615982556e-03,1.765057549076096870e-03,-2.290196626946860569e-04,1.082987043739915651e-03,2.375507149411036720e-03
1.360333678682986575e-03,1.894081005940604278e-03,2.300875905831675696e-03,1.784423803500353534e-03,1.208945467158460902e-03,-5.031526815275805557e-04,-2.625184920454752806e-03
5.740608307420094064e-04,-4.293227463234221969e-03,3.065190226040243136e-03,-9.571978797739929320e-04,1.972770451511245485e-03,-3.566881441865567617e-03,6.326630001921804483e-03
2.823404818389173981e-03,6.425877438330445486e-04,2.304268896290434174e-03,1.503522976356574340e-03,1.925862984403633234e-03,4.408606994522608173e-03,-8.269413247725220309e-03
-3.533450472150842341e-03,-2.500479119515621688e-03,1.518031126832562229e-03,7.870418788644902323e-04,-1.829637439374675375e-03,5.763221600301592085e-03,3.622234693172324878e-03
1.099852939115010487e-03,1.538659500380031410e-03,3.370855721358703531e-03,-2.743324859210006204e-03,1.839294362164789259e-03,8.238102557809775768e-04,-2.286322799517545839e-03
1.090732293417725953e-03,9.765324447890771052e-04,6.351005968440043281e-04,1.149815745854657111e-03,6.758716965485522159e-04,1.043646058882441528e-03,9.509904909573860471e-04
1.792671920700430197e-03,1.791185334386796724e-03,1.511354790026216664e-03,-2.623580415951126763e-03,-1.700370702564362683e-03,5.192347023431072989e-03,-1.723308443622662911e-03
-5.948657265653938724e-04,-2.951735424012574003e-05,-5.919871411112565592e-04,9.294778702986822468e-04,-7.651320125539348531e-04,1.864219263590878800e-03,-4.481451869721016462e-04
-1.318730564880988502e-03,-2.925669695488405681e-03,-2.342014018983800978e-03,4.806731339324684521e-03,8.394267082889558026e-04,5.827548432818767041e-03,-1.233205502333915968e-04
-5.012740013693792532e-03,-5.508019955134771904e-03,-2.401253025014703744e-03,3.396798754529769312e-03,1.751783925280959737e-03,7.531801832604604480e-03,3.955594469134868750e-03
1.583292503340586908e-03,9.776523278684774547e-04,2.446341477530252200e-03,-1.247696764733273629e-03,1.321721319898473039e-03,-1.444634733016902798e-03,9.335072443271435648e-04
-2.842391464222559258e-04,-1.211313221350898868e-03,-1.452777792481202120e-03,1.559731725035069056e-03,2.954179790699083927e-04,-5.452138995039438902e-04,3.116027604412055941e-03
8.723832170558443394e-04,-3.455315064203775253e-04,-4.141061239751416337e-03,4.655385112360267523e-04,-1.800348435705994730e-03,6.625316868569389173e-03,1.563117065560692661e-03
3.877247493309423591e-03,1.904285535792874992e-04,-6.274615656541911862e-04,2.001340613165291868e-03,-1.139619319594923361e-03,-1.657940450097121141e-03,-1.541289902762937696e-03
-2.133090201470616722e-05,4.250698892221160038e-04,6.133433729749070617e-04,-4.364733170379161281e-03,-8.283819861480422363e-04,9.178368278597240013e-03,-2.403362134488925238e-03
-1.783660334651986741e-03,-5.977742753194502075e-04,1.952842804683380682e-03,-2.820181252768892786e-03,1.566347400670251369e-03,-1.073259385183875265e-03,4.908284892292336977e-03
-3.623926582384454759e-04,-2.835264310802225528e-04,-7.700517017145334887e-04,2.518882265796917527e-03,-2.130579416594283876e-04,7.100383106702107966e-05,-1.546802890069058395e-04
-1.150528744078161770e-03,-3.882753713040457914e-03,-4.387622008307466570e-03,3.439771495071854493e-03,-2.018262673130377226e-03,6.535988353788380924e-03,4.642715538185687371e-03
2.325190226430644616e-03,-4.285830526110279062e-04,2.642237212699456543e-03,1.703236532201208350e-03,2.277173238007008590e-03,-6.368008322750170862e-03,2.883227321587268459e-03
3.100094935878835978e-04,3.625614411160541796e-04,-1.030357797835131702e-04,-1.984223490981415808e-04,-5.057436146934524694e-05,-1.486784525329977165e-04,-9.455886241251298333e-05
-1.129559191590934772e-03,-1.640676239674844841e-03,-1.557596094569853318e-03,5.905539266427663365e-03,-5.889289019957065973e-04,3.546023149309691057e-03,-1.916098879343822777e-03
2.565796215391396521e-03,6.305216333010845234e-03,-1.554526756238180669e-03,6.001901163982706995e-04,-4.899835371418466250e-03,3.783808739897108909e-03,-3.374984968702035397e-03
3.610190570562272442e-03,5.151683292257821893e-03,2.061870051886802949e-03,3.314699147331400930e-03,-9.901053549879743673e-04,-4.369879526599164572e-03,-5.358686215920908415e-03
-5.953445054100774342e-05,-7.611497590472000125e-05,1.770307418879164905e-03,4.166657452087670944e-03,2.050018030059199293e-03,-4.160092490688755903e-03,-5.685693702173433240e-04
1.150924816949680865e-03,2.114255746846765201e-03,3.034735905285289650e-03,1.888344216148756362e-03,-1.842853555838573569e-05,6.101382388986403664e-03,-9.582711488792921770e-03
1.400339827717511946e-03,1.492503428881460786e-03,9.602328941917962282e-04,1.273277996659517245e-03,-3.440485981591248689e-06,1.462380168600740677e-03,-3.204611584940060803e-04
1.871891257704322168e-03,4.367120773878748786e-03,5.923566371014178238e-05,-1.650399867571566330e-04,3.326320467745581540e-04,-5.078575384109580183e-03,2.136807842484896632e-03
-1.213470132634222366e-04,4.186388764395160972e-03,-1.382363211659623590e-03,1.439495064110717440e-03,-1.387943345194139972e-03,-3.774142945003891407e-03,3.178662690469149371e-03
-2.987049783900777409e-05,-8.844161434489422699e-05,-4.567643922149373735e-05,6.196154000036901738e-05,8.034917866801182191e-05,1.742735094372680762e-04,-7.678272866922232986e-05
3.046605439177008101e-04,-7.020457201443406356e-04,1.033580146966064793e-05,2.260459044432306178e-04,1.032903644869784092e-04,9.630391351579458770e-04,-5.609053346780369089e-04
6.641384296129452516e-04,-3.156150589418922668e-04,-4.953057380192170574e-04,1.607400753086692981e-03,-1.760660585737789698e-04,-3.652095127908612797e-04,-4.578712458775007540e-04
-1.212833027268981744e-03,2.347156698682276946e-03,-1.652831475848431843e-03,6.102969275057039400e-04,-2.095309710520107545e-04,1.539939327509040222e-03,1.338188129870464997e-03
1.394908579175689438e-03,-1.021434109650318656e-03,5.896352988881174099e-04,-2.426521882430427400e-03,9.228850733962872281e-04,3.969979371979038066e-03,1.018968489535109368e-03
2.606368553520982921e-03,-2.358855420897620989e-04,1.797441285015218123e-03,-1.383607238372269212e-03,-1.863214613308372810e-04,-9.768138325388113150e-04,1.313011521606350989e-03
4.969230754152010199e-04,8.845099353966920808e-04,6.723499801883308204e-04,1.964755959388124387e-03,8.698533073778766996e-04,1.166146847029756947e-03,-8.170639463837432704e-05
8.740983009311037314e-04,1.116947468408524503e-03,5.922181870095042776e-04,4.005580723170746606e-04,7.579276954333205585e-04,1.281775551137964014e-03,1.157971946314996026e-03
4.224075645816725605e-04,-2.864535387712305488e-03,2.377230557364999781e-03,2.104828789870710106e-05,1.200500249895606556e-03,2.209025575514258523e-03,1.765933437922348470e-03
1.516265405703519538e-03,2.724924244158595456e-04,5.597208172224691540e-04,-1.669300448340488568e-04,-6.304631544177419916e-04,-7.525485631346979631e-04,-2.737359941567570195e-04
-4.209800960034529608e-04,7.302574915496908145e-04,1.001429221778118300e-03,-3.557776151112564643e-04,1.803906760553303419e-04,1.562245030930737438e-03,2.472399918105561752e-03
-2.340124001362047098e-04,-4.126673751133574475e-04,-2.335113519706937142e-04,-3.046562369441282634e-04,2.927169992249691456e-04,-9.750217184163079576e-04,2.214980456097292820e-03
1.151915767542579508e-03,4.902214258460641134e-03,8.454129271642425465e-04,3.953319089647549861e-04,2.326565983374139987e-03,-6.077103663693187580e-03,9.764319799370564570e-04
1.109806440522143143e-03,-3.013420714420812600e-03,-4.035600660759158082e-04,9.534210461821418557e-04,9.433546677184126601e-04,4.975750619528690423e-04,1.600082147080553749e-03
2.767077426636284625e-03,3.244908957166251981e-03,1.914860867797723003e-03,-1.327507988798230700e-03,-2.988541383884954147e-04,3.148962710750543865e-03,-5.381098413151751483e-03
-1.060275711204758343e-03,-1.728221818162993572e-03,1.551051558822343123e-03,-3.963653255604275734e-03,2.984184516284454827e-03,1.872067346906497063e-03,3.562255481880072152e-03
2.232509818277384362e-03,-1.942440042311108098e-03,3.431929513327175701e-03,3.255087181817445038e-03,4.168680119696706776e-05,-1.928472018685269129e-03,-1.820015312355593561e-03
-1.120007949921664019e-03,-5.561784782715396142e-04,-2.027990587033051857e-03,5.605051957238049894e-03,4.198223294777755541e-04,2.551754550597460790e-04,7.328540375980467604e-04
4.026141757425855117e-03,-3.344258649206193271e-03,5.367305516841721497e-03,-4.122460592624190706e-03,3.161354783180818709e-03,1.189139671237113283e-03,-2.597407318408978798e-03
-2.763313374812403217e-03,6.251707005137397029e-03,-2.372224116636776660e-03,-3.909374946605099176e-03,-1.650307694525372706e-03,5.807164301913558466e-03,2.560622527752806545e-03
1.035638982860707935e-03,7.948114709965834000e-04,8.353444732503437697e-04,8.726990022946561109e-04,8.577289461545314431e-04,1.060385057113438171e-03,9.262378693117655866e-04
3.874560383916246867e-03,5.505736950076171171e-03,2.282228316505942003e-05,3.279473792178660540e-03,-1.935922663278271142e-03,-1.976946599524424288e-03,-5.614259014421001635e-03
2.950674735209366396e-04,-1.508320260124809556e-03,-1.104678289135203840e-03,5.610988039228553478e-03,2.818549259272505646e-04,6.419979307831579591e-04,-2.595553097842684051e-03
1.106753194370681937e-04,2.268244336593911586e-03,1.440026449154728234e-03,3.024269318860645789e-03,1.855957219537271051e-03,-4.127131462438791282e-03,-2.681620922613319954e-03
1.497931489788037202e-04,3.228795337411301605e-04,-1.512686637427624150e-04,7.975301330884597569e-05,-8.125888584226691766e-05,-1.142294173137092849e-04,-1.226580528637615625e-04
-5.836132893327854567e-04,6.573240231818222763e-06,1.904164436111923124e-03,-2.026514560548259812e-03,1.574117678141673986e-03,2.737417520241312505e-03,1.836675168370230805e-03
3.369059703874451115e-03,1.367239706633441125e-03,7.923705688563965899e-04,2.222720628101388252e-03,-1.243090506970303492e-03,-2.927623078664776807e-03,-1.705142507406648801e-03
1.056018005137257629e-04,4.371052537079252870e-03,-1.129546089792640273e-03,-1.417708009693039286e-03,-1.466772996800140777e-03,-3.097905221093936426e-04,8.714597306023006557e-04
1.447968520996429590e-03,2.634186619657037328e-04,1.199028476794033278e-03,1.613526365244378905e-03,1.316840709870924307e-03,-7.295005415634600978e-04,9.375411173899505851e-04
-5.859106546302317829e-04,-9.761598470982923255e-04,7.055647511107102999e-04,-1.774350538859338286e-03,2.146543140254403900e-03,1.586884191495225704e-03,2.449566441621013873e-03
1.517537687148841092e-03,7.129430356063179777e-03,-1.056186160746463857e-03,-1.619446812098546259e-03,-2.854666313127682264e-03,1.981912732188119333e-03,-3.056148961315767291e-03
4.663937641725538104e-03,3.267050142879061956e-03,1.445071894772953459e-03,-3.445279430272243926e-03,-1.612012509315548844e-03,-2.632201035408116355e-03,-1.789115735520005663e-04
3.655841120830654895e-03,-2.989503285323821986e-03,1.532330212289935130e-03,6.093323411134068078e-03,-8.115729337302632351e-04,8.967995955937871702e-04,-4.964001537319085930e-03
-1.116447261068514475e-03,2.730946205507776316e-03,-5.312004318014129948e-04,-3.076495284678031853e-03,-1.660392804704588022e-03,3.143218083649929138e-03,3.899478457207923923e-03
3.493553840559865571e-03,9.821950753503832111e-04,4.727493088462750292e-03,2.763456117117107317e-03,5.086150810339701376e-04,-5.302966769016961325e-03,-4.827862928456463226e-03
-3.414183506602926164e-03,1.338639301440594682e-03,-1.551086842088919126e-03,-2.338148539048109931e-03,-8.722856481491951097e-04,5.447162516858628130e-03,5.512573731877454253e-03
3.144334235085898162e-03,-1.358944573054479037e-03,-1.033748999502375962e-03,4.641885129997332451e-03,-5.957175125023560398e-04,-5.453376553549659465e-04,-4.885816624283711388e-04
-1.309391741499144881e-03,-3.983083192902186630e-04,6.975315592675688202e-04,5.062421205505083545e-03,-4.094321971297752239e-04,-2.747212487274508681e-03,2.199715961254612891e-03
-3.578894948067104422e-03,4.071004246866974374e-03,-5.434328076231940453e-03,1.415182881672051845e-03,-1.097204511556486468e-03,-7.486597082005837234e-04,7.983244132946399133e-03
8.387428848419723306e-04,-1.574918742984211502e-03,3.805669853580818463e-04,-7.508976491057903213e-04,1.848546406366096111e-03,-9.980723290111865893e-04,1.251667773181814073e-03
5.993948842109517996e-04,8.233608609538817322e-04,9.588381871335557730e-04,1.562528727776213303e-03,2.938271188485638234e-03,-2.113921620046393512e-03,-7.630079285110386803e-04
3.942728970268144094e-04,5.226692852145433006e-04,9.209969478668054066e-05,-2.211518831447773306e-04,-1.922659213503991353e-04,-2.376406703063203320e-04,-2.242467330233367123e-04
1.964265594263556094e-03,-1.147542140580477040e-03,1.423994674872300662e-03,-1.856456175739887521e-03,4.569493758548633620e-03,-1.224963165541758173e-03,-1.629390288900483055e-03
-3.930115119111709729e-04,-2.321607648062213106e-04,-1.831326890511503062e-04,-6.358732174347337535e-04,3.961748303231491636e-04,2.901668577661472518e-03,-1.171388045721735629e-03
1.304597603778298413e-03,3.855566148079180369e-03,7.365119336633747186e-04,1.217573069814144272e-03,-1.129245930872028217e-04,-2.774391289884898387e-03,-1.999336180693467562e-03
-5.183990035392137437e-04,2.480962902045192198e-03,-2.228213360081469788e-04,1.400240009256771643e-03,3.167073929896151358e-04,5.739236072856535682e-04,1.590717179656496883e-03
-2.060997291518827483e-03,5.794476708077412469e-03,-2.239751825545467114e-04,-4.769382079413202538e-03,-1.101474020296259321e-03,2.667602586588841123e-03,3.472920292615928016e-03
1.417235734886276811e-03,6.873520271981426247e-03,1.909954652660268660e-03,-1.885077904323042208e-04,1.923461913241263435e-03,-4.735288868567000264e-03,-5.275812639899911220e-03
2.440902198342529035e-03,5.866272197291052919e-03,5.091090042808263383e-03,3.351871648581167696e-03,-1.122507663596269533e-03,-6.175741461269609531e-03,-5.853335481310856063e-03
-2.342572414696332626e-03,-6.364542096382828744e-03,-6.136396938586730163e-04,2.986140927253524372e-03,3.337956572150821942e-03,1.226939987144844190e-03,4.391216403826911883e-03
3.349697578092266769e-03,1.836956279041529298e-03,7.004578557624278586e-04,3.894937245338089479e-03,2.709829425572990013e-03,-9.391487270284422026e-03,7.829046103698236508e-04
-3.171891742093145648e-04,1.122662330461371991e-03,1.548048692410820739e-03,4.698076821275220388e-03,1.620650335841320854e-03,-7.388035442006514117e-03,2.748815101246884079e-03
1.385437277688576123e-03,2.819495484254635944e-03,1.204435530585878846e-04,4.623522615781826273e-03,-2.854622302242006506e-04,-7.353703269483474660e-04,-4.025620619162216876e-03
-3.182858245947918930e-03,-2.305254989674195530e-03,-1.619847855416490243e-03,7.376944376942860902e-04,8.856528444890480372e-04,4.829304891850226024e-03,4.848750073689322634e-03
1.657976621870020997e-03,2.658364229733380622e-03,1.694972573205191530e-03,4.323043226502893202e-03,1.775931429532784682e-03,-8.817493310896084083e-03,1.543199087886619946e-03
-4.920769442458857281e-04,-5.073301941378971199e-04,-1.516334558069018122e-03,1.152194170955439306e-03,-2.538445692441484210e-03,4.386662915457378679e-03,4.354206926522942792e-03
3.138339833456482621e-03,5.142328077122149642e-03,-1.433369564470319320e-03,-1.315223983438016915e-03,-1.863514365137715345e-03,-1.686261762086257911e-03,-6.907700347347041012e-04
1.443973754536268840e-03,1.692915105939854026e-03,7.560153396972947256e-05,1.801262192749431522e-03,-8.666718913117971114e-04,1.251711904639322406e-03,6.657504501786991151e-04
9.781973307148071964e-04,-3.640281680349264758e-03,9.223099962732913583e-04,1.899654822042397880e-03,3.742614653684212239e-03,6.737138307366814230e-04,-3.162772511158144025e-04
7.401607474108214265e-05,-4.672040254155788563e-04,-3.216738739006247383e-04,-1.416009892949235687e-04,3.932016130351856354e-04,-6.744659107752280910e-04,1.387788345340019861e-03
-3.848766543957713284e-04,-4.184016621147128995e-03,1.992514496430723703e-03,-2.876351447259014628e-03,2.237307057677947390e-04,2.598190555570179926e-03,5.411888819112862722e-03
4.218764014504034756e-04,-3.076072870414993561e-03,9.971048016756856470e-04,2.409539795430089455e-03,1.334260601638446401e-03,1.107026619964068250e-03,2.457100099209099525e-03
2.516413744769015019e-03,5.054463621579305014e-05,4.637327939343310716e-03,3.237730335957387314e-04,3.138188673156677949e-04,8.778963476127525731e-04,-4.822936872842625323e-03
1.712270533028043690e-04,-1.245437159622185324e-03,2.763454251192770834e-03,-2.410002795114212382e-03,8.317713911657562012e-07,-3.287918487876733721e-03,6.327266466216703925e-03
-2.155771766728611059e-03,-2.391917506102631506e-03,2.762564972371811447e-03,-5.663669556003326361e-03,-1.573751597204258129e-04,4.197112298483962611e-03,6.261675474676541529e-03
-4.828568825848545787e-04,-7.326520966479080246e-05,-9.643932311051708287e-04,-6.572102733819871643e-04,2.436761593111280266e-04,-4.838388701950345721e-04,3.087334571237133722e-03
1.654959274145744851e-03,-1.100106784275670666e-03,2.889848841554269829e-03,-3.837655809389696688e-04,1.246902182051052004e-03,4.137356840497540510e-03,-5.755458963373696543e-03
3.323367778969161558e-03,2.682090328898764382e-03,-2.512452544856658577e-03,-5.419831264715312775e-04,-1.957511584706807164e-03,-3.136889785095652462e-03,3.879823196900791370e-03
9.993653454786416770e-04,-1.109951386711676216e-03,5.970427413085361429e-04,1.548025811523424597e-03,-5.029880486868499104e-04,-9.044990566238590723e-05,-7.296865411152940722e-04
7.862310181537355419e-04,2.232583794338565200e-03,4.995582748168269456e-04,2.677304407586514161e-03,1.040563190161802746e-03,3.562136372133147683e-03,-5.566267340436021130e-03
-1.165981982586366183e-03,2.309771528372026646e-03,-3.212044134391141281e-03,2.425881386160261277e-03,-8.408533677840756768e-04,3.788678945597387469e-03,1.932381248052453954e-03
3.851490638752090448e-04,4.526502491562909257e-03,1.252493131334390117e-03,-7.322052464227902548e-04,-1.284318183729911932e-03,2.125741906214733464e-04,-2.741634484749591334e-03
-1.264238141255715289e-04,-7.785254502229014585e-04,-1.240195369274407636e-03,2.693219962326061888e-03,-1.003613707365235818e-03,3.614637893057839023e-03,-1.518027494338592114e-03
-2.236526189839496085e-03,-2.711123010687262885e-03,-4.228437574914265321e-03,5.836359697936302666e-03,-2.292917422448524298e-03,1.060887655743973472e-02,-2.381352418302133157e-03
-1.191849709469799349e-03,1.133762764190634565e-03,-4.000834185238551916e-03,-2.161885971076561285e-03,1.850197240162277691e-03,1.594812818011554032e-03,5.636062007805840018e-03
-1.818446399151811088e-04,3.477223142059125086e-03,1.377115573223181748e-03,-1.194478663592510488e-03,1.549081580478194487e-03,1.960288232234781020e-03,-2.649030806371788054e-03
-5.509730100629499968e-04,-8.599120918559674965e-04,-2.182421823636552984e-03,3.473724738456532984e-03,-1.204900699712696923e-03,2.876923685779687358e-03,-2.382352525465950173e-04
-1.323397381830726733e-04,-1.904399317251239798e-03,6.500628469791889033e-04,-1.025513926454666705e-03,1.088855156992716688e-03,-2.876195390825204024e-04,2.794574442070543990e-03
1.154987270876489105e-03,1.901337096037914072e-03,-8.358723435132884346e-04,-1.473147015533007127e-03,2.602676087715483154e-04,2.420344770580739897e-03,2.382805418321302070e-03
1.564857239291517817e-03,-1.341077010124055655e-03,2.556900222063904129e-03,2.207361944942594790e-03,4.783849986515037694e-04,-1.476306918189328318e-03,-2.688566862287783150e-03
3.242553461740852925e-04,2.674788335630634388e-03,-1.141352352878945457e-03,7.807686150824913853e-04,1.750293899648079437e-04,-8.050743815679960820e-04,-1.229727922231969080e-03
7.392792096071504511e-04,-2.565907400528296675e-05,6.058507980845632881e-04,1.517633789617236833e-03,1.024667678803274813e-03,5.862367248883274939e-04,1.332560378102621039e-03
-1.551374077259741902e-03,-2.157894276673213464e-03,2.041182177196755425e-03,-1.245472886655415393e-03,1.745916140233640156e-03,-3.313659790751365261e-04,2.754516711046159708e-03
-8.100143581997365418e-04,1.025002584564892920e-03,2.317742074441025198e-03,6.525800173737831200e-05,3.267675264245740682e-04,1.682370882397794679e-03,3.693697159091700877e-04
2.269081756548083778e-03,1.558343349123282595e-03,1.449297192554631309e-03,2.113985891650546449e-03,2.546879071497112749e-04,4.227386629392692989e-03,-6.496493608814019050e-03
-2.187530539397021016e-05,-7.034042262161341254e-05,-1.822165582502418418e-04,1.114776990600950925e-03,3.032000153506295105e-04,-3.972250950753212790e-04,-5.321151871910488997e-04
1.543920459275400538e-03,-7.453762754093389573e-04,-2.482501868182203884e-03,7.154181142242343680e-03,5.613310912781288098e-04,-2.827760961023463408e-03,-1.073852757946990033e-03
-1.580905178858829063e-06,-4.702449710427296023e-04,8.637843748919423956e-04,1.902124695827568353e-03,2.525888235275355193e-03,-1.280717094241503066e-03,-2.307343095203888503e-03
1.778782453235180092e-03,-1.115536668513051645e-03,-1.096298308319599424e-04,1.257828284104079569e-03,2.078836809994082471e-04,-7.732049169533847417e-04,-6.545342394115174307e-04
8.526931834328265077e-04,-3.237033231981523238e-03,1.024812860097441347e-03,2.952840257915481919e-03,2.564264543283122609e-03,-2.882255115359020313e-03,3.232496196432999274e-03
1.522719436545342533e-04,1.371498109213315603e-04,8.333559529636248202e-04,-4.049866319752616476e-04,6.429047761829318614e-04,-3.160383875969223163e-04,-6.685001946134112557e-04
2.520226110700803102e-03,6.763831812978648690e-04,-1.746666538590177465e-03,5.821177136134318524e-04,-7.375194636019658011e-04,-1.035725985347018315e-03,2.427436589642099733e-03
1.039619984483969913e-03,2.134431187792026723e-03,1.077086791396424109e-04,1.269652657777763701e-03,7.573813096305149171e-04,1.958869949284937351e-03,-1.904246840219559356e-03
1.943004459415130199e-03,3.362287022470709583e-03,-1.474336303216513015e-03,-5.260772636932605981e-04,4.939550069617412113e-04,-9.342867117271474791e-04,1.936975669223877988e-03
8.045671721215054807e-04,-1.973160439540692316e-03,-1.798032737205441413e-04,1.722516122481844002e-03,-8.506020391785504850e-04,3.106377601921918568e-03,2.618221155900818300e-03
-2.943685183346190799e-04,2.167989340322651944e-03,-7.178418697598693650e-04,2.770432492225367426e-04,-6.955103550527885889e-04,5.920762380304525271e-04,-7.698526908460151747e-04
5.078967027580208069e-04,-5.071457479296919563e-03,3.596173119759560376e-04,6.438573478439144591e-03,1.079850988041522551e-03,-1.880732745366500594e-04,-5.814990256338882111e-04
-7.758668926347104863e-06,-1.480081131535654121e-04,-5.435413587570105684e-04,2.399581551454837980e-03,1.584195807805805466e-06,-8.795023924535414492e-04,-2.090067997055086800e-04
2.215910890208816573e-03,5.854226486377928085e-03,-1.135557608231906176e-03,3.048536501241838961e-03,-1.137608639212695817e-03,-2.685593527992423662e-03,-2.484937418498027462e-03
1.460517674753503440e-03,-2.174408312848519730e-03,2.902639648922409558e-03,-8.182015365570453847e-04,7.487658406951727425e-04,-3.488931382425937509e-03,2.758952352493221089e-03
1.005663118879747365e-03,1.007813627662435462e-03,5.564801194547334701e-04,1.169701463150811310e-03,7.077829428935570764e-04,1.075184469654920935e-03,9.747586154935357437e-04
-1.519661976898155310e-03,4.291120777894932327e-03,-1.844011093373410784e-03,2.451484552410967640e-04,-3.342765776838604874e-04,2.904532924238543805e-03,1.060330491933283992e-03
1.713587227339243653e-04,4.954201044579052129e-04,1.081198834445408399e-03,-2.460647468689364280e-04,-7.919328241259597154e-04,-3.389286860316210559e-04,1.371355311272679065e-04
1.146868792753197178e-03,4.517368132443378217e-03,-2.647139792615483839e-03,5.144742848634006709e-04,-1.060911205497795315e-03,5.738601533457929164e-04,3.693192050145110159e-04
4.500380286443777665e-04,1.026974896761884528e-03,1.480443713411958104e-03,-1.533410519336534956e-03,1.302728356899069502e-03,1.717343737943278830e-03,1.535060003676624527e-03
-2.942220532164219974e-03,3.486251699747490418e-04,2.985390609255860915e-04,1.846068520249641081e-03,-3.937280807529952554e-04,3.153094449596282895e-03,2.845373561758189444e-03
-3.355984065438858983e-03,-7.334907105667192763e-03,4.442798854884610557e-03,-2.680319928566138820e-04,3.659159393207954414e-03,2.780856240738345444e-03,3.555553640797536920e-03
5.395615447109296074e-04,-1.286412844454809697e-03,3.610089824164164568e-04,-2.163114190739069773e-03,1.398607925691075938e-03,2.441007782126270245e-03,2.137743855428717119e-03
-1.815972367396017370e-03,-3.627855571416023148e-03,-5.763327900436778688e-04,3.230049096906367073e-03,2.614812080631451381e-03,4.112491443636991095e-03,5.611111545924421344e-04
-1.998834530700361375e-03,-4.043957789362897029e-04,-3.462541631809162249e-03,-3.005519540577462900e-03,-3.379678965216849590e-04,2.999218827784325570e-03,8.318124031248159966e-03
1.336544065935534650e-03,3.315040228661012001e-03,1.121320914269054647e-03,-2.697634555462283777e-03,1.117988031179728819e-03,-1.471386962004835042e-03,-9.544280131634693418e-04
1.557844679991493087e-03,-1.951765045799417481e-03,-1.884144660223423815e-03,7.964078136977014236e-03,2.816110656579161949e-04,-3.053671498465110323e-03,-1.058175508634689446e-03
-8.947050683276817353e-05,2.715150789768589010e-03,3.817306577021392167e-04,-1.652368425469034224e-04,-9.202963308289969276e-04,1.518162928483182033e-03,2.241235747269501762e-03
-9.418367933297863443e-04,-1.223910191130919613e-03,-6.498815107453517672e-04,2.704207010345815055e-03,2.855557377835204742e-04,5.330230764519876263e-04,4.987509356858969888e-04
2.363199299256767659e-03,4.977208900049772886e-03,2.360882612649983173e-03,2.588992475783196507e-04,6.390269443190363819e-04,-1.074626100136114384e-02,4.372131804631272656e-03
-1.088545076290219375e-03,-1.848612322201067604e-03,-1.099649559199564544e-03,-2.241009027958732955e-03,-1.461991520336355758e-03,8.463828087062464506e-03,5.167851399357491519e-04
4.735577874042166914e-04,1.975751184569374524e-03,-1.233373133450189115e-03,4.436782625633060341e-03,1.713217705074040554e-03,-4.094905363123329395e-03,4.375186342804758739e-05
-1.375561093282078593e-04,-2.803347176286341731e-03,3.892177212716727290e-04,9.670449613049031043e-04,5.015513630528984365e-04,2.678355073496065889e-03,3.119964939038122678e-03
-4.539536943621222658e-04,-1.394664746855175897e-03,-1.633932941345400116e-03,1.975520860049135349e-03,3.757019833635720681e-03,3.368330394607354714e-03,-2.360284224568732787e-03
-1.351532394641145191e-03,-2.426654310104359603e-03,-2.001411714598163010e-03,-1.850657078971576800e-03,-2.758871944108621990e-03,1.011962746870015070e-02,1.700925844397009178e-03
-1.141292908394852959e-03,-2.907313668864062572e-03,2.461907193434583613e-03,-2.375675995056193528e-03,3.338622126920221585e-03,5.686358706066434350e-03,-2.964462094296623634e-03
-2.157067787084313124e-04,1.917094638608889991e-03,3.679351430061152898e-03,-5.840437536361387134e-03,5.141348927985427445e-04,2.188321588411559077e-03,1.251510700468911339e-03
1.346954709877525665e-04,-7.931234738944954385e-04,1.477181642101762431e-04,1.434090981961740931e-03,-3.963671118950403880e-04,-8.347579868609287948e-04,9.050936301719879860e-04
-9.619355801399061918e-04,2.593593390568560506e-03,2.096143565255833858e-03,-2.695506614731450496e-03,-6.644979874775578440e-04,2.678209739878720762e-03,-7.764812952324469776e-04
1.712281990154154374e-03,3.555733195589442261e-04,3.386797012923432491e-04,1.756756460359118607e-03,1.891506140921499343e-03,-5.330369569736684646e-03,2.717362030037528530e-03
-2.783188441644103474e-03,1.086800670069310330e-03,-2.348080177511172647e-03,-2.689342852854113668e-03,-7.828150561774142478e-04,6.577440390592386062e-03,4.470428044068885075e-03
-1.729205787393510571e-03,1.985603436832830823e-04,2.663079603703644204e-04,-4.465345210878171600e-03,-6.191087498935735024e-04,4.738997316542016558e-03,4.120542848473840274e-03
9.857735660084513806e-04,9.690731659963800360e-04,5.793566810419968323e-04,1.222965437913763748e-03,6.122765075466591374e-04,1.099226384111799031e-03,1.003149939752400951e-03
1.702020313783859408e-03,7.266359127655918834e-03,-1.205467908326693371e-03,-7.377778137187812743e-04,-2.216677055225069973e-03,2.871986348136641975e-05,-2.554329855913334280e-03
2.092387227274175414e-03,-5.064616442555981311e-04,1.670810962647821920e-03,2.423697955420053667e-03,1.619810912538963837e-03,-4.031075441647448930e-03,2.182363824577878298e-03
4.154598312181211560e-04,-2.247966388725071343e-03,1.610287617526813281e-03,-2.719736098132206513e-04,3.868203024454799910e-03,-2.000409264657149796e-03,-4.545488443009816529e-04
2.163595889063747030e-03,3.132481267823523235e-03,2.698872772537909675e-03,-6.183271269090904456e-04,1.890987049450903665e-03,-7.568496922491041098e-03,2.891123723068418291e-03
1.166056747999642644e-04,-5.930653043003613180e-04,-1.214597923244738241e-03,2.505521667352308968e-03,-1.913857272388580532e-04,1.232627170445288771e-03,2.325407841008699569e-03
-7.143597107094892210e-04,-1.511771404116534802e-03,3.603934435260179939e-03,-4.154718966715386513e-03,1.976635370217332075e-03,-2.419700384154613824e-03,6.298643308843171994e-03
-1.720923894270069525e-03,-3.596987291248874251e-03,5.537824641634534731e-05,1.705272968868303213e-04,-2.060241345369763857e-04,8.166832638764132471e-03,-3.817076611121916936e-04
-5.636772623825909729e-04,3.000957933546469138e-03,1.925310136096043895e-03,-3.843378220441400969e-03,-2.176724823741262645e-04,1.131612809300202530e-03,2.624430296477435996e-03
1.319889997641526770e-03,1.221510851957047748e-03,9.104989137770356285e-04,8.025061300270531746e-04,8.960536935646794916e-04,1.068549986300370387e-03,1.923397658115448506e-04
-9.290207392206451106e-04,-6.929100165793739517e-03,2.459940978671793215e-03,2.213165314686022043e-03,3.260908798519560232e-03,4.270195474538705273e-03,4.286701413175429275e-04
1.138075090500158910e-03,1.806397461703697794e-03,2.709186934126818036e-04,2.133798564116635901e-03,5.944412684101610909e-04,-1.098233337925955556e-03,1.108361537636434269e-03
1.374047738648047443e-04,-2.327767836064866327e-03,9.260513915550692933e-04,2.974343294016548039e-03,4.661367248616477802e-04,-2.920061713122742118e-03,4.264105387247004234e-03
-2.360955820342390023e-03,1.165827949164642855e-03,-2.900314457347079235e-03,-2.151486851633453191e-03,-2.211136906471119351e-03,3.923588559604682460e-03,6.674907446728188185e-03
3.849548324633099861e-03,1.074606374958932478e-03,1.484909322012036795e-03,-1.055024454471149408e-03,-6.134114889743590626e-04,-1.780582569508774946e-03,-1.811670075404335153e-03
-1.164464359863446371e-03,5.456991527818069211e-04,-3.108562723815789033e-03,5.776395591362436591e-03,-1.074954370646162343e-03,2.268795384839791211e-03,-5.897914664232732597e-04
-1.049893603270522823e-03,4.583938585003742789e-04,-2.646086622896390902e-03,1.114598387447713083e-03,2.861648955608471533e-04,4.145191768266156748e-03,2.379505468753909895e-03
-3.139471298709887136e-03,2.363412214681557318e-03,-7.189248153158413332e-04,-4.065478087385569241e-03,1.501324017361623919e-03,5.578396671840134963e-03,2.061699948986156754e-03
6.291096794485559951e-04,-9.899422122936990618e-04,-3.040968651857383839e-04,-5.061669662726683838e-04,8.578453699127162998e-05,-1.267813534445716211e-03,2.894667289972806690e-03
6.400773609481389629e-04,4.625537157634763627e-03,-2.844752098891801303e-03,3.461920954018134731e-03,-1.384009122759664694e-03,-2.827256809029269572e-03,1.934002971552325123e-03
-2.295897630971851459e-03,1.426490417470464541e-03,-1.055997224612344274e-03,-2.651986832454428147e-03,-1.863659384239861865e-03,8.634851804946176365e-03,6.563455012470287113e-04
-1.285703742284731747e-03,-4.192947194350061038e-03,-2.474414717761971687e-03,-1.309570558793365013e-03,2.309136421187144451e-03,3.562623059105501748e-03,6.645202787231067887e-03
3.945243222735570084e-04,8.555443025955255338e-04,2.826392142549336212e-04,1.574097970105486823e-03,3.716000064074457339e-04,1.497323768140462318e-03,1.334233447174414458e-03
-2.209273951205333183e-04,1.274794213885360478e-03,2.172150168968023463e-03,9.694153699357761864e-04,1.145401846045146369e-03,7.980961451946437264e-04,-9.997427604071836959e-04
-1.701617473899815327e-03,-5.917173390172051099e-04,-2.131241505311512116e-03,-2.261391736617501553e-03,-1.680247434666384430e-03,7.085675182216507988e-03,2.650997821693656682e-03
-1.304126341675603895e-03,-1.356465951922821225e-03,-2.274697874410707473e-03,-2.364455405044158052e-03,-2.002574970725728119e-03,1.042774367481570826e-02,1.243819938002517630e-03
1.267472775794700789e-03,3.788351035374056463e-04,1.247362634204444510e-03,-9.440739134850864274e-04,-6.617542883604293595e-04,-2.808121603924460907e-04,-6.135845823202378457e-04
1.563039793978668410e-03,6.022156139569481269e-04,-1.498789316677652517e-04,-9.188140011342002663e-04,-1.693636150164752694e-03,2.572845714218246430e-03,-5.430241371337342967e-04
1.968021076604953637e-03,-1.177757334270133471e-03,4.214211897563749712e-03,2.239778605685443201e-03,1.529271345314152939e-03,-5.116458358533907368e-03,-1.890497061623980322e-03
7.266341049878244059e-04,3.111553146279456838e-04,6.258989906565516409e-04,-6.475978008315202658e-05,5.503229438651609500e-04,1.893153024631474227e-03,1.725139486581092358e-03
-1.215957467655224156e-03,-2.346364214658683278e-03,1.515307073095899151e-03,9.497476794197195126e-05,6.029679103327249346e-04,3.780466663837338086e-03,2.676729124954600140e-03
3.199058932722760205e-04,2.011074191446972272e-03,1.487794924355135802e-03,-4.360439053141942911e-03,5.803072632534217326e-04,8.496444455173684249e-04,3.176740500741894509e-03
9.106014696224647544e-05,-1.550464364301557983e-03,2.246710652003902978e-03,-1.149867086056182743e-03,-5.730327120082436086e-04,7.406944396330705825e-04,3.873333899760183965e-03
3.014451383874856730e-04,-5.265691245410942948e-04,-1.337980912519288980e-03,3.812974140251898427e-03,-6.963588350652153303e-04,3.729348645259203659e-04,-5.663772237887572348e-04
1.312575622591445103e-04,5.320822684794577876e-05,-6.593490100362557269e-05,3.941602808953087429e-05,-3.361891061662616029e-05,-4.515355719067017576e-05,-3.759474730182744084e-05
-2.874826581518363008e-03,-1.701850911764413513e-03,-3.635224866406893979e-03,-2.205937822009233513e-03,8.567220701837211135e-04,2.824806343138938722e-03,8.474039292952973562e-03
-1.938455118870394166e-03,4.296077342079847664e-03,-3.473397950724658751e-03,-3.595163524251978812e-03,-3.472062389750333721e-03,7.499665764835277554e-03,2.923899499696739918e-03
3.741638991507120044e-05,-6.089342993975617284e-03,3.818779840663138938e-03,4.844935601231723996e-03,3.440886600060867086e-03,-4.703971377678669089e-03,1.603410010708950862e-03
2.777526196026427251e-05,4.605831809700033783e-05,-1.874726082419360827e-05,-2.406227871692314847e-05,1.950023709724163338e-05,-1.502538218419941096e-05,-2.060850604598742181e-05
-1.234254736730276778e-03,-1.103770659811946627e-03,-8.293437580829557485e-04,2.145998498358462660e-03,-1.052115511005560300e-03,1.292254611582100343e-03,1.768619000001374689e-03
9.472872110789975954e-04,-7.796832010748905523e-04,-1.659967053620903547e-03,2.402266000074372489e-03,1.208532461539266450e-03,3.344813498462530666e-03,-3.169189655908612787e-03
-3.395145662216912945e-04,3.562493486293072777e-04,-4.758624361908867601e-04,5.452916566229418314e-04,-4.252195144638100496e-04,-6.833033470991226781e-04,1.367554620244358036e-03
1.941030382433151392e-03,-7.484066564750577622e-04,7.838875331398367872e-04,3.983258812648854397e-03,1.922139177328846061e-03,-3.573433335289409943e-03,4.436368127629612820e-04
2.392637912514531361e-03,-1.730926418767815599e-03,2.950012164057564095e-03,1.838418826699076900e-03,1.978561830812271185e-03,-9.544165054066473374e-04,-1.200244441395742490e-03
3.614795291293963308e-04,-3.664184317772596990e-04,4.769520279296476321e-04,-2.089741411611903844e-04,1.279265490628478082e-04,-4.237464533646730785e-04,1.827065261321983913e-04
-6.283425794484326452e-04,3.521591665803758503e-04,-5.879492866187118827e-04,1.987365514928824892e-03,-6.682105560639178127e-04,-7.248043388386229665e-04,6.991887434386626294e-04
4.856083981486627511e-04,-6.048441899446616954e-05,-2.642343465128798230e-04,-6.012676006010181801e-05,-2.198953520184572790e-04,-4.415290377210469015e-04,8.188823364328929894e-04
2.826606646261442968e-03,-8.283216204206240822e-04,2.484041375140811844e-03,2.227929245484435317e-03,2.896503471359863392e-03,-1.440345488009137217e-03,-3.025206809869920594e-03
-2.252416463476945331e-03,2.453680958492719189e-04,1.393637230951555060e-03,1.129773007492995088e-03,1.674313093217163996e-03,-7.569279572874066915e-04,3.596401343634966340e-03
1.791072193983524663e-03,-4.278042128072536972e-04,2.550644073259417978e-04,-2.862086770082571075e-04,1.445834668788898835e-03,-1.561113404312203115e-03,-7.398267299575203874e-04
-5.875876734743886538e-04,2.501246562149749973e-04,-1.338106423329789123e-03,2.543255173141754748e-03,-3.893036314295395916e-04,-1.533504760895732259e-03,1.925994986097194451e-03
1.643686799094270460e-03,1.639695357513735454e-03,1.452245581089761173e-03,2.114770984713269016e-03,1.722055316269850700e-03,-5.067958984672730517e-03,2.305733490142038416e-03
-2.810710261406407923e-04,-1.302581500117010876e-03,-2.579914710036913480e-04,6.888132088894966844e-03,2.790047907524980438e-03,-5.527289326957980121e-03,9.421633310992388313e-04
-2.276224099774065614e-03,-5.375331503616118112e-03,6.384049491920626993e-04,3.586741284879850240e-03,2.721996196610972692e-03,2.784586723188502925e-03,3.275965320257572672e-03
-1.730485665571097290e-03,6.723702357736721126e-03,-3.508276316113671540e-03,1.974775111001080517e-03,2.137975873134253992e-03,-3.192534665473279690e-03,-1.507326255692069698e-04
2.653081081559979966e-03,-2.706833968998953628e-03,1.259026335869419845e-03,3.290936979096055048e-03,2.398128712838407464e-03,-1.117627255895847641e-03,-3.610419395008384203e-03
1.043789482170385478e-03,9.687252236613814408e-04,6.703487844400537934e-04,1.065022659483489623e-03,7.090390946317123638e-04,1.067371589871738812e-03,9.761480122481510941e-04
-1.893899149985966241e-04,2.420039568377614202e-03,-1.123402856301843359e-03,-2.888458852521568203e-04,3.731126361639890425e-04,2.347817032906614806e-03,2.342900248658157623e-03
-2.317432623440064297e-04,-3.647954404414094245e-04,-2.334864393406380144e-04,-1.886315524453620568e-04,-3.869240706497129381e-04,1.274847283081717532e-03,3.276647655509358752e-04
2.170218231523927434e-03,-1.333571658531836025e-03,2.822845172170607674e-03,1.756698794481191344e-04,1.304458095902685409e-03,-3.220037486292540770e-03,-7.473961243249355440e-04
3.467482604422506364e-09,-5.852951696962151554e-10,-5.065207320892354773e-10,-1.083670490011353832e-09,-6.401892865599507162e-10,-1.162176717648323069e-10,-1.302727205164385568e-10
4.077221983310351451e-04,1.870544178325228958e-03,1.453425105578109782e-03,-3.095947628829666225e-03,1.292846246189068319e-03,-3.473738939681216795e-05,2.775345715595063916e-03
2.274601214745614747e-03,-2.314991879139547803e-03,-1.641702559226631674e-03,-1.299465927896115060e-03,2.032639673580117178e-03,-3.332636627260751735e-04,4.573442874578914109e-03
3.608908057724511016e-03,1.379392597339318101e-03,-2.837931007825302606e-03,6.947705671207258377e-03,-1.657181777522945742e-03,-2.385359876823674955e-03,-2.473642126256446559e-03
1.039949660932146334e-03,5.587483490286332226e-03,-1.557885699899953704e-03,6.957147534895440338e-04,-1.309452517547692648e-03,-1.275528103338636424e-03,-1.479449893659253671e-03
1.088071586850404776e-03,1.133823659410168345e-03,7.377640334060842336e-04,-5.154350993100601354e-04,2.739702473104990731e-04,1.659733136480517901e-03,1.578934750303912686e-03
2.553254962190264557e-03,-8.051895146790264942e-04,1.488177079676462292e-03,4.184367384901114921e-03,1.784411087940608641e-03,-3.295124181659052354e-03,-3.787981477801155138e-03
4.699734849107429287e-05,2.171566347704277037e-03,-1.491528707759535435e-03,6.807002991072206655e-04,3.646786710987879633e-03,-2.567201970475786830e-03,4.872873756982774862e-04
-2.315197459953284416e-06,9.867078866217832318e-04,1.747114761818126293e-03,-1.355149299002612320e-03,9.167693904706227448e-04,2.268191318397034563e-03,1.045362817846838197e-03
-7.650753089281047119e-04,1.750917499906590570e-03,3.377523692299723088e-04,-6.969219701333101424e-03,-2.057894428741728534e-03,6.664649941367320821e-03,4.283413175671683601e-03
1.004766796501048773e-04,4.406080663019501867e-03,-2.180547139448419628e-04,-2.167992747693162255e-03,-2.438996337147151909e-03,3.496419431959007368e-03,1.428036261537852939e-03
5.742486784356134284e-04,-5.528427154377372685e-04,1.762424478728231601e-03,-7.169939717020082154e-04,1.443646837969599778e-03,-1.267524506564452619e-03,-6.929051260209456936e-04
1.109981053520629264e-04,-1.017195197184937901e-03,6.352047185784212113e-05,2.443564376956893608e-04,1.608039455760856102e-04,-1.694444392438734640e-04,1.208828530178791827e-03
1.767007261570365862e-04,-1.713394253477282920e-04,-3.006020272134119907e-04,1.067899628987594406e-03,7.551039884830578277e-05,-5.297526297564988810e-04,9.116970598818938118e-06
1.141542416414425241e-03,1.199194135036834793e-03,5.115920648857100357e-04,1.395949485957600393e-03,6.573052491871115470e-04,4.144110982120049352e-04,1.045391573758732697e-03
2.755246258240338659e-03,5.782864286271213738e-03,1.051910212116851946e-03,-2.027564935759909592e-03,-1.014766993659995710e-03,-2.264365365303464949e-03,-3.170422327013966250e-03
-2.504112134876606589e-03,-2.923231168729847895e-03,-3.031804182738165668e-03,4.934675075209472893e-04,7.482698462711841799e-04,6.196627440945675497e-03,4.943655056650470697e-03
1.706640591266855292e-03,-2.449494232916731994e-04,-1.840384454441476342e-04,8.617720513358435776e-04,1.118662865068012100e-03,-6.935038931451846999e-04,2.638207407391064078e-03
2.447123616137683241e-03,2.188594984990097601e-03,2.569598955200872586e-03,-5.719962823293105007e-03,-1.128075821313906943e-03,3.882895896971889048e-03,2.481956585745185326e-04
-6.119990741595213038e-04,1.039644640839473442e-03,1.490819609487129601e-03,-1.192642698395530261e-03,1.726644480875063345e-03,1.969505629716599045e-03,1.247095525026827500e-03
1.607755480011329721e-03,3.010877227612372004e-03,2.191439450552350524e-03,2.745964892116576728e-04,9.224698934987954390e-04,-7.252735321959705161e-03,3.782207016629098376e-03
-7.588413575605019393e-04,3.525612572797803563e-03,-3.104532017482593189e-03,5.596519172647137141e-04,-3.809945553586896721e-03,2.632990352316186625e-03,2.825462265408508478e-03
1.291960841659715864e-03,3.523467453249305020e-03,2.877134151243262647e-03,-3.472311731484777758e-03,1.043856134119084235e-03,-1.443202571088129677e-03,7.763914748938315893e-04
1.192208999313513172e-03,1.094331788367215079e-03,1.172976217733022420e-03,-1.229197687162706309e-03,9.949844523987516794e-04,1.422581544792801819e-03,1.340593431146427320e-03
-2.371908820374143013e-03,-2.458277008873778913e-03,-1.792924933361867389e-03,3.323311480068346421e-03,-1.297483958731558435e-03,8.573519666785624910e-03,-9.433599714013512355e-04
-3.498155236173877518e-03,1.879147097230419745e-03,-9.707496182168002608e-04,1.093221643501265635e-03,1.817277597982175884e-03,6.503487587322337535e-04,3.348254518078023784e-03
1.538057569800334095e-03,8.397842091865101444e-03,2.681808009788521924e-03,-6.216553666753197021e-04,-5.830901185356385285e-04,-4.228010437161120599e-03,-4.467167557491396983e-03
2.450227950360904690e-03,-2.907563405968412694e-03,2.877811751043379915e-03,2.819389172393714157e-03,1.843728767920087535e-03,-5.398653133460673721e-03,2.909927612362883144e-03
4.417135557972883377e-04,-9.888301653572435269e-04,7.184906157417232479e-04,2.491916117849143041e-03,-3.349641261327618823e-04,-8.628152041932420253e-04,-9.519577805782360744e-04
-2.945063476577367890e-04,1.765893220961437015e-03,-2.130225758496876441e-04,1.350076722112902861e-03,1.978451022982720810e-04,1.660077204515950653e-03,1.576120032677303653e-03
4.584656690040448930e-04,-3.641560799745194397e-04,-5.518799410992390172e-05,9.255597896410162635e-04,-4.763216736278745459e-05,-3.256966865000777522e-04,-2.416524880386344582e-04
-3.307392873942651573e-04,-8.701024796266815632e-04,1.093961004586561665e-03,-4.217271324194389083e-04,1.641275398372276121e-03,6.793103844928165182e-04,2.801506652979250146e-03
3.248688991126678135e-03,-2.634362641359240358e-03,-6.450636625870599531e-04,-1.143989892992258901e-03,2.680845090283008776e-03,1.895532492832786636e-03,-1.083578795836432100e-03
1.645587612044494951e-03,1.297221740486248368e-03,-1.771602892486005181e-03,2.107482288222146168e-03,-2.352713201688371933e-03,1.850957694510109225e-03,-1.122974344011694022e-03
1.940619944551088801e-03,6.668274673646027925e-03,-2.020292228329263837e-03,-4.683516028674603553e-05,-9.346887747052407740e-05,-2.839593463666555736e-03,-2.254105613268159950e-03
8.603382367512206128e-04,3.918469015910043302e-04,1.048175807914828936e-03,-4.232232993688495037e-04,1.291441586075471083e-03,1.351154107317188149e-03,1.375927623012736549e-03
9.811849231545410541e-04,6.298747083733737331e-03,-5.497851974826458051e-04,-1.936345163538593598e-03,-9.430534285398867482e-04,-1.876324100351678750e-03,-2.696354562613655515e-04
2.335049596524305657e-04,6.507282797896488547e-04,-3.776477887181966544e-04,-2.942413394645523785e-04,-2.705740669482172489e-04,5.364813694668024236e-04,-3.152385729008821361e-04
3.136911546939372738e-03,7.469849596631958225e-04,2.599792812678543025e-03,-1.820517309483981857e-03,-6.207242563443473215e-05,-2.297486541245857654e-03,-1.222689606803899123e-03
1.749616024670038914e-04,-1.312389758100975619e-03,-7.754495669760061785e-04,1.260018475627214599e-03,6.746927555790346799e-05,3.141363974972853201e-03,-1.547331070102654031e-03
-6.795369704113702995e-04,-1.889330490961238940e-03,-8.481671929077553478e-04,6.191466977890189467e-03,5.252464451697085425e-04,-2.002065299184166945e-03,4.275062557792298507e-04
7.725549161545807505e-04,1.148888344860167802e-03,-8.461027331520525746e-05,1.494220843749630373e-04,-1.506043372599704224e-03,7.908880869053977079e-05,4.179355846652276114e-04
9.942481510540983596e-04,-7.721613270845819081e-04,-2.973502386291757634e-04,-5.592912578691140377e-04,-4.549648198516334442e-04,2.039299940461597547e-03,-6.019072753147933653e-04
-1.399783804630198771e-03,-2.156805352341051221e-03,-3.024852649799978765e-03,1.529966126227928509e-03,1.088441052465481066e-03,1.489930984994774317e-03,5.827841187856883098e-03
-6.472840053974778527e-04,1.939920072086981275e-03,-2.104050440289545812e-03,2.585396759026312944e-03,-3.516120211484206957e-04,-3.532950192105448282e-04,1.197822545880859691e-03
1.187466007107980441e-04,-4.387973006261477755e-04,4.217264846410724252e-04,-7.910512855872392404e-05,2.792181493303551177e-05,-4.583204919075339824e-04,7.462496872401799559e-04
1.216170313863078464e-03,-4.473448245088002505e-03,-1.033346826672759227e-04,8.965755111346978678e-04,8.900719018452811623e-04,2.670098927730266830e-03,1.351666567047836703e-03
1.784623854058467549e-03,-8.215838028755260156e-04,1.845290493763709254e-03,5.451192965821897388e-04,-5.871821504143409252e-04,1.521756828222902780e-03,-2.600301975192374077e-03
-2.228079453450978586e-03,2.417220652008627516e-03,-1.699536574595698684e-03,-1.140687921990636219e-03,-8.361927202779935323e-04,-8.534913545540231353e-04,6.843267889410550517e-03
5.500020984318274237e-04,9.520106791777947211e-05,-2.690894129523820587e-03,5.098821104014855665e-03,-1.688895552002691106e-03,2.365867640033382426e-03,-1.403984042356057945e-03
1.174489221387865718e-04,2.170319671047429844e-04,-2.085517917353863068e-04,6.404691563881449029e-04,-2.430703564920624481e-04,-2.018470302074360336e-04,-1.692439211581546292e-04
2.469153118463828563e-03,3.798814156003657658e-03,2.064822895937964021e-03,3.283932364056706479e-03,2.794137338495658943e-03,-4.159900125462252796e-03,-6.348838285039081625e-03
-1.146720754047885057e-03,1.852969664037349079e-03,1.094337953320330550e-04,1.188976540750581691e-03,1.339233787456918035e-04,1.828776548180869894e-03,1.928784515935833129e-03
1.237813282785855430e-03,-8.523230276161659642e-04,-1.356692842782602224e-03,-1.553864746670812706e-03,-1.863591681062985901e-03,2.088645317604405100e-03,3.969701883322589511e-03
5.827718260547007107e-04,3.232332147186461023e-03,1.161013488031595407e-03,-2.437304286969632465e-03,-4.390081803741998517e-04,-1.214007957685252518e-03,3.893758635759661264e-03
-1.201536076404564326e-03,-3.542346951820210792e-03,-7.699947382920495397e-04,-7.007878571347362587e-04,1.458627395461230703e-03,1.000675651845770662e-05,6.009445461444743071e-03
-1.038519613262720000e-05,3.983798032585428805e-04,-7.475811377343254745e-05,-3.682616655487454998e-04,-2.643136164605997592e-04,-4.191343399094274707e-04,9.519854807112934983e-04
3.273732668098970795e-03,1.214356553360813971e-03,2.853016933878030782e-03,1.237047262427807366e-03,9.976770139804047068e-04,-5.521629231288505829e-03,-4.421124241847092609e-04
-2.896200192051259152e-04,-1.281325712125728328e-04,-4.183327487580574470e-04,-3.349656773834482179e-04,6.590448335768110796e-05,-7.296307598059121897e-04,2.108945421300113376e-03
-2.221095243736853872e-05,-1.082734475650839676e-02,2.258618470378055514e-03,2.946441158126352888e-03,3.383365732411738186e-03,2.585577291575425190e-03,4.279417993110431334e-03
4.906692232836770522e-03,-4.745534096574609566e-04,4.080874057261701200e-04,4.547289023461851751e-03,-2.989072528114538693e-05,-1.622676791367045008e-03,-4.438166738455718782e-03
4.113763920681855614e-04,-2.667013648992959396e-04,3.147935257857427502e-04,5.320477325776623882e-04,-1.626827736589740009e-04,-3.196462226343602564e-04,-2.529566665434759398e-04
-4.183279766232425308e-04,1.681075070286786348e-03,-2.923594240203288420e-04,3.223980906928182173e-04,-1.141650728993059841e-03,3.409439676240119677e-03,1.221345464888659018e-03
2.870567424797768768e-04,-2.479283830023157505e-03,-2.841764138196930557e-04,7.540309663812256279e-03,1.580058295409194572e-03,-2.875186981676255103e-03,-2.121041051666476811e-03
2.285814243560680900e-03,-7.320811546944839231e-03,3.518893379017585046e-03,-5.710112535817511497e-04,2.494053341613798862e-03,3.473560448952735767e-03,-2.692200989186991603e-04
1.618295097706588109e-03,2.604354389798807078e-03,-7.478396262697139651e-04,1.150678796116937189e-04,-9.645717607381930391e-04,-9.718378159688695382e-04,-9.546434055750274749e-04
-6.680340848496327125e-04,1.448522756232979280e-03,1.437620779662327234e-04,-3.626060085244782547e-03,-2.108247167690219508e-03,6.198928133139926418e-03,3.133908212634880976e-03
-1.220284370508674252e-04,5.703661572970487523e-03,-1.854221070870783281e-03,-3.986209318328724598e-03,-4.927837676328440317e-03,3.869920314668705806e-03,3.882735459800131135e-03
3.042296729142196163e-04,-1.624929163041235623e-04,5.744121636863014401e-04,-8.494977589236671301e-04,-2.943630228502344681e-04,9.484627851531176115e-04,-1.038016532363450527e-04
-9.328786665141137457e-06,5.093419966074318352e-05,-4.082114308106293566e-05,1.336119491187590688e-04,-9.558160770922794982e-06,-4.380433276296323748e-05,-3.752062317952144775e-05
1.309909521215846630e-04,-4.941624528155432947e-03,2.914261066190274203e-03,1.351859179802792840e-03,4.166125029915941809e-03,-1.403806141482387014e-04,-1.428655360290357961e-04
4.458988366923419483e-04,5.604597158857768961e-04,6.283699861709172128e-04,1.195077307477648712e-03,9.926249096247252626e-04,1.585114580016992215e-03,5.942117922194156991e-04
-2.296004882267455960e-04,1.018694991891429995e-03,-2.490384304874050051e-03,5.130426170048120113e-03,-2.023326206185213205e-03,1.532937585402720064e-03,-1.197438350853691040e-03
2.747536022152812212e-03,6.842182850832922818e-03,-3.220250967100679509e-03,4.584874360567269577e-04,-8.669902305830457043e-04,-1.732430173514207640e-03,-1.779580237576618758e-03
-7.700946921973709581e-04,-7.261543043140476078e-04,1.178172270763482282e-03,2.937457713073195198e-03,1.331425751193461614e-03,-3.198975150419927551e-03,4.039545347926313049e-03
-9.558487141325832824e-04,5.847853487352087584e-03,5.942365465084307888e-04,-1.556380790710813018e-03,3.830834335092600019e-04,2.299404248443633839e-03,-3.245723606715109413e-03
7.906298291600348440e-04,5.477525694106766437e-03,-2.619009015744660617e-03,-2.787921808823357853e-04,2.430654549339236400e-04,-3.069011523831180650e-03,1.180193348817422383e-03
1.343428585129314169e-03,4.783162645763856108e-03,5.759956518358252692e-04,-1.597207487659892296e-03,-7.109780029943521843e-04,-1.716398954406735556e-03,-1.932755318796048347e-03
-1.535601726403124220e-03,-1.974443621523493033e-04,-6.474673400207928663e-04,3.047361078898743608e-03,1.349866809122151137e-03,2.020731853066608675e-03,-2.333793440877859199e-03
-1.004682128437481585e-03,-2.077422473257774758e-03,-1.408565956557805698e-03,5.505883776630775793e-03,1.707311310897810302e-03,-3.287332066240530003e-03,1.972125169605093344e-03
2.631965332631965807e-03,-2.057150587879910762e-03,-1.454311978548084009e-05,4.084003222717597081e-03,3.063783822751734299e-04,-7.488584597557212648e-04,-2.823339410766324831e-03
-1.485455251936580214e-03,-2.045316105832145279e-03,3.369523190521302647e-04,-5.022752321763850059e-03,1.779878716518438911e-03,5.278040613857444378e-03,4.978201289613336591e-03
1.348786338368767723e-03,3.289283904473193115e-04,-1.114239747846683393e-03,4.168598099921895332e-03,-3.154044412451489031e-04,-2.525183451096430463e-03,-3.145105557840100104e-04
1.012417140244261998e-03,8.413709798771964760e-05,-2.425852311530972936e-03,-3.213639858430687116e-03,2.935965402912947488e-04,4.412513319683059390e-03,4.330148060799514538e-03
2.053886906232988818e-03,1.987872796406791112e-03,1.549643567001458876e-03,1.814493738174851245e-03,2.126244034277649519e-03,-4.728459316074553644e-03,8.787532543692391264e-04
9.339678825753236534e-04,7.801737422025539727e-04,3.522048510413732826e-04,-3.808420777416549074e-04,-5.217763990693236476e-04,-5.155437361030264405e-04,-4.299544549565987315e-04
2.910689625914093174e-04,-2.043173619553246938e-03,-3.503401769711224616e-03,2.942278495155715035e-03,-4.538935958690363225e-03,6.765893453817620022e-03,2.911385631246473336e-03
1.291208467073283114e-04,-1.185168907529115232e-04,-3.942055947954573210e-03,1.497208141291741634e-03,-1.564118831473572261e-03,5.772377105483898069e-03,2.748267769652839275e-03
-4.432882363865525731e-05,-8.645042249849658675e-04,7.443250855636075226e-04,-1.691456847683861725e-03,1.548749794965828064e-03,-2.076673143508456654e-03,3.317112110030674341e-03
1.549341450950450678e-03,4.834884401608092498e-03,3.835192032390268273e-03,-1.662661813432189835e-03,-7.891823841517698907e-04,-3.625451009243605902e-03,-2.402690021863441473e-03
2.801458032579247619e-03,-1.289349579814206377e-03,1.701505142627434243e-03,1.191495551249420069e-04,-4.366356051176859627e-05,-1.891680588487339772e-03,-1.897110076570860250e-04
1.138583721076908854e-05,-2.425029543965668936e-03,-2.083437743411028099e-03,6.342729195553775505e-03,9.023045840461559877e-04,7.391580818647550599e-05,-3.120847931145880722e-04
-4.740174626929748885e-04,4.348104174791585490e-04,7.692868523467584875e-04,3.376887070670828855e-03,2.618069769450624956e-03,-3.462344406116715789e-03,-1.245948177699317911e-03
1.683937284438417632e-03,2.062534291397002430e-03,-1.552276374595667910e-04,9.625651404171909741e-05,-6.895831070464122220e-04,-1.268559121248015150e-03,-1.016041259745287858e-03
8.850336253006910224e-04,-1.624570374310994186e-03,5.267089012092202212e-03,-2.812394521390644379e-03,8.011768547663798701e-04,6.202056138375620269e-04,2.504338280072624105e-04
1.858209299403429555e-03,1.872712716484802812e-03,-8.767275630262159241e-04,1.333848164261297597e-03,-1.641290471674127383e-03,-9.998673414048108755e-04,3.512817128064322060e-04
1.191017555039985487e-03,2.699752077265965035e-03,-7.503727268653147004e-04,-3.788438003543850526e-04,-8.575165220986725708e-04,-1.280621465743815709e-03,1.146378703972227009e-04
-4.246771797063018548e-04,-5.048057545871709488e-04,-4.141420744467401069e-04,-3.153928583108422728e-04,-2.221757653127465996e-04,2.187138982669089259e-03,1.881619042688356766e-04
8.183988375023489590e-04,-1.426267415063416251e-04,-3.615656471457040586e-03,5.356982818340527003e-03,1.642389806817376322e-03,-4.351433979861504472e-03,2.870304583823417299e-03
1.219066966052793140e-04,-9.263492423094544332e-04,-1.050796769668799939e-03,4.062733251840976688e-03,-4.923043825444414854e-04,-3.554905226244834847e-04,-6.216557709234015426e-04
-2.259434518318955353e-04,-3.001360731968204048e-04,-3.054641525991595740e-04,-3.276823044286027533e-04,-3.259209534038264239e-04,1.692968184818221698e-03,6.296280398859839165e-05
-1.958288405445293961e-03,-1.852930755898901443e-03,-1.140971733801358174e-03,-2.548587654178188344e-03,-1.361838095163569930e-03,8.840208639727233433e-03,1.308187662241148139e-03
8.788678110362341028e-05,4.862315718822775366e-04,5.432467363655110569e-05,-2.114938873670438747e-04,-1.071802086077977030e-04,-9.346500782961859996e-05,-9.171622240700942239e-05
1.918722431617912727e-03,5.923994021343807065e-03,8.420667065997186618e-04,1.856768673201065600e-03,3.818200114532249896e-03,-7.491599198155591589e-03,-2.940953808736014412e-03
6.712020368144351557e-04,1.104619718237922739e-03,9.649764265467175280e-04,9.822056617899898798e-04,7.890485081131779280e-04,1.210204229797695510e-03,5.088520416159484933e-04
2.495732065886423559e-03,-2.986753505616774121e-03,-8.059258235295208147e-04,7.289027470707413157e-03,-1.405276373779925855e-03,5.026389086400916834e-04,-2.796577321490404354e-03
1.973867151191134508e-03,4.317223222935070819e-03,1.348578054838472321e-03,2.777246041229951452e-03,1.670331551190381257e-03,1.278670561568492643e-03,-8.687189565449966039e-03
1.186120738950639537e-03,1.386882002756042445e-03,7.154942979128316692e-04,2.172290735025711635e-03,2.172784699436511400e-03,-4.721198384276828475e-03,2.245999766314676904e-03
-7.994772590622047830e-04,5.021398952487262507e-03,-2.777396781806427874e-03,-1.993805948851571936e-03,-2.772384956587793919e-03,8.399889688109313246e-03,-3.207971678396902022e-03
4.638021801779689283e-04,4.063291116906239046e-04,-3.274910949221104405e-04,8.541747798091389992e-04,-4.606528088541897697e-04,-2.795627125659355824e-04,-2.363654474056330133e-04
2.029049289785790199e-03,2.717228680387094673e-03,3.482857607076385130e-05,2.956043566818479084e-03,2.508834035800504314e-04,-4.186191301779512534e-03,1.541548120108175216e-05
1.764934038169763695e-03,-3.515433442896632229e-03,4.878793717754917759e-04,-3.048248055161457363e-03,2.618118056291206946e-03,-2.833969091306055149e-03,6.283011596355658236e-03
-2.217944782148521690e-04,-4.141838424673871272e-04,-1.361451498840766505e-03,6.180807344167419358e-03,-9.891898520292261628e-04,-9.330856908233044330e-04,-1.176923295496764069e-03
3.372390536592463454e-03,-3.676311607981081093e-04,5.991182422306150397e-03,9.997075290918990519e-04,6.759706250999685537e-04,-2.287377509210312531e-03,-5.497984141377120111e-03
3.745212217760071735e-04,1.935968279294539524e-05,2.278850192135627520e-03,-3.771255276268254200e-03,6.799727672826640687e-05,-5.511835096123703266e-04,5.420627315154283657e-03
1.975045053908184266e-03,-5.079645355616152665e-03,5.191645529378668446e-03,1.235076658648344514e-03,3.342566681065680355e-03,-4.668590756927643200e-03,1.419668187203331844e-03
3.349783141653222738e-04,-6.499700077376107223e-04,-9.740689375204500790e-04,2.050287524732683983e-03,-4.681967119801646454e-04,-2.236655844199945779e-03,3.035815547675720615e-03
5.281954074153851408e-04,9.185854424826927133e-04,7.453241077445855057e-04,1.322602555336473617e-03,7.530360371100572195e-04,1.159736969812553585e-03,1.020181667473804739e-03
-1.905098610053885698e-03,2.498211422041978587e-04,-1.810924867842414682e-03,2.902910662154031558e-03,-1.316274523518190260e-04,3.543685595745840657e-03,1.695285132140829029e-03
2.097857151070232993e-03,3.581734531664972944e-03,1.087541438384068658e-03,1.683759030945994198e-03,-1.273592810382624761e-03,2.512088836555057859e-03,-4.942044343095158658e-03
2.116934424150506943e-05,-3.554600594859977131e-04,-4.213947919497839745e-04,2.252919229313820573e-04,-1.001044857451275543e-04,-7.087521386793940248e-04,1.687406978221665582e-03
5.339274563244896551e-05,8.525558984033304198e-04,-7.573625002650864399e-04,3.105675957843195942e-04,5.993739835400383083e-04,2.465201084013552389e-03,2.426477891763579448e-03
-1.507749065933976880e-03,4.970066101949435419e-03,-2.823513451913950856e-03,-2.184429705107981436e-03,-1.427544160713107311e-03,-3.140427084207539268e-03,7.493071467514472901e-03
3.050293677855183858e-05,-3.603795850749345019e-03,-6.582323286634979157e-04,4.177584431726570104e-03,1.045158302314917482e-03,-8.501247893364030509e-04,3.789544130076770261e-03
1.512199237790894926e-03,3.151725250530790418e-04,4.164836293482495136e-03,-2.068238571827982555e-03,4.093465762489408542e-03,-7.386014685508327828e-03,2.865564891646861945e-03
6.582943018583920381e-04,2.266628085720740534e-03,1.348691633074198051e-03,8.399937753668610275e-04,2.344435122454929625e-03,-4.091758804625818258e-03,1.800320505620652553e-03
-2.847638378964125155e-05,-6.016627043505144885e-03,4.006923652985891829e-03,-1.473364007662403274e-03,2.139486741607369170e-03,6.379818800577904958e-03,-2.408846841936342770e-03
3.425896695851892923e-04,-6.918987450023735214e-04,1.408544961362843788e-03,1.845589710121483878e-03,1.309627598605753564e-03,1.198265075295807574e-03,6.234290034603041973e-04
1.480471668759051739e-03,-2.050030647725296570e-03,3.520171898001162036e-03,-3.394298180068883869e-03,2.350056222691832963e-03,2.735962489943405819e-04,2.456544194141639138e-03
-7.463720135240042115e-04,3.801124047469003897e-03,-1.222617409236780375e-03,2.587844359164453122e-03,-9.505515857804727395e-04,1.656311523576988560e-03,-3.183830155050841430e-03
1.664139238682343230e-03,6.765875549029905060e-04,-8.402706211550848366e-05,3.238234296471000952e-03,-2.262918241280130905e-03,2.407003459862379086e-03,-3.338083991266227023e-03
-8.730324261128722405e-04,1.311731518220486713e-03,-1.371390230382812762e-03,3.858183263392661686e-03,3.995649276803059304e-04,-1.704195996160567808e-03,-6.965412624231770043e-04
4.266167624415703784e-04,2.403476838710095174e-03,-9.683445806879095383e-04,2.473081455817599181e-03,4.410326418037784730e-04,-9.703004051842069365e-04,1.865309015953219539e-03
1.527834481750242395e-03,-4.310364923198227623e-03,3.435514519197446510e-03,6.971319278187092629e-04,9.103213470492137627e-04,1.143166866351033812e-03,1.142558775054061193e-03
1.444443953271934812e-03,1.935365713326609458e-03,-1.535907804206167356e-03,-8.387822553709208548e-04,-4.468477614218381772e-04,1.562125588203490834e-03,-6.044602636404466283e-04
3.264984279394196869e-03,6.383349917823455226e-03,6.812508022491933985e-04,-2.716000551430244664e-04,1.334101986049921699e-03,-2.776111223187540441e-03,-4.446704810879227587e-03
1.248652457393689382e-03,2.149675711161174417e-03,-2.297276118035674556e-03,-5.055044166604365577e-03,-2.761461591051598934e-03,2.205743121361909698e-03,7.367636005283033883e-03
-1.132088231173917689e-04,-7.749011015742811445e-04,6.314467385616530501e-04,-8.562217300177073361e-05,1.083429658521031661e-03,-8.062932129882447981e-04,2.741056664858167505e-04
-1.822439902857055961e-03,1.679514568847899889e-05,-3.311574157943083380e-03,3.653771825224136956e-03,-8.969688997237334994e-04,2.109846943806811641e-03,3.102272282530683413e-03
7.313948261715685602e-05,-1.102773291839245729e-04,-1.026574119130268977e-04,-1.967136102099129795e-04,-1.334903620332838017e-04,-2.197514081350069551e-04,7.985944510380377746e-04
1.450821192212501266e-03,-3.967694272070796356e-03,-8.883861688772049870e-04,6.354550762138751023e-03,4.045574749945906289e-03,-4.175760560482996535e-03,9.723176891617321248e-04
1.598807651159958902e-04,-4.230547003074913780e-04,-6.079839727523972783e-04,-3.590066739485467482e-04,1.300164614296829687e-03,-2.490813581183636406e-04,1.077334659611222517e-03
4.375155758364338487e-04,1.071538692332192361e-03,2.157906667862361351e-04,-2.325103388930389869e-03,-8.677558350927484267e-04,1.858360669303487939e-03,2.492140439160652182e-03
2.840996043906680521e-03,-3.539872529460211248e-03,2.894541165923392254e-03,3.368991424668847396e-03,2.189672367436096018e-03,-5.608352889889292939e-03,2.610248968144209024e-04
-5.722066332649230471e-04,5.879381734346012965e-04,-6.576804374899486785e-04,-6.391251212045404809e-04,-8.390552535702580075e-04,3.868500819700499403e-04,2.183723490706564185e-03
9.307816228871255504e-04,1.068390419644278753e-03,6.416551771219753796e-04,1.004233853863233583e-03,6.246639742170597993e-04,1.133052024275236179e-03,1.024590245318265187e-03
1.888726557943849185e-03,6.855246830338516430e-03,1.153153327072307032e-03,-3.848797225626124276e-03,-1.464451840857417843e-03,3.843011854891539088e-04,-1.725694050926723832e-03
-1.639466525877517327e-03,-3.037377031662430015e-03,-1.993000154545687859e-03,2.565176037668205969e-03,-1.362088145386973525e-03,7.905731324404433047e-03,-4.491659201418633784e-04
2.274319114943890684e-03,-4.074849808139775764e-03,-6.515562830862785878e-05,4.350973556124059297e-03,3.332252755632910800e-03,-2.249634274356897366e-03,4.920091963223956893e-04
-1.960113568354849602e-03,-1.718725090355286439e-05,3.093981774814726256e-03,-7.186107389582973909e-04,-7.105807043089725156e-04,3.911793735004292778e-04,2.780790620877229835e-03
1.225514759657567296e-04,9.758161273005094448e-04,-2.054957576751339447e-03,1.092764150801084268e-03,9.643109624204622421e-04,-2.217606949671731449e-03,1.916570194203624138e-03
3.371986792023226945e-03,3.622108312573596098e-03,2.759693419290828315e-03,-2.768077083204986601e-03,2.953262060002392712e-03,-5.917034845521594415e-03,6.470615767774646468e-04
-1.136583414393730875e-04,5.747966712868153583e-03,-1.712189271658663692e-03,-1.639232613564393318e-03,-1.725555901286336289e-03,-2.229068797194069286e-03,3.514731068283802329e-03
1.436041747820415932e-03,1.576011212406750166e-03,1.460205359217609878e-03,-1.203897965027936898e-03,9.435594879674090571e-04,6.764113496770875504e-04,1.161795693647566874e-03
3.284848302244203124e-03,-2.443757911495802407e-03,-2.026766071224035941e-03,5.268683040342388851e-03,-6.707181399954127753e-04,-2.554421532873195626e-04,-9.404951409990083269e-04
2.688031394882229360e-03,2.952564966496886399e-03,2.572913234298543263e-03,-2.230325759649623603e-03,-3.863109377621506534e-04,-3.700928550900291127e-03,-4.300329402321397096e-04
1.876765876007334887e-03,3.762410332280753580e-03,-2.177480690066676411e-03,1.869398466673177946e-03,-5.534812944332934831e-03,7.058987236922248387e-03,-3.237182409154935533e-03
-2.518873669122103677e-03,1.809789433734605105e-03,1.557597761745679746e-04,-2.895555623177536661e-03,1.434466332302342887e-03,2.916158198238727808e-03,3.034348513693022661e-03
-2.540453624726304784e-03,-2.054998507240411720e-04,1.551039226615432733e-03,-2.729221828936484115e-03,5.947398342926946612e-04,4.169526454682945596e-03,3.767188358762225964e-03
2.131667946792690539e-03,2.250306735963078335e-03,-8.851325218023690629e-04,-7.052271587303478783e-04,-4.271419160771591393e-04,3.891400960413573124e-05,-1.232478225090958852e-03
1.257126306604645005e-03,1.244904424073234664e-03,9.078676461402257697e-04,1.514720000456318142e-03,1.113058007098975807e-03,1.888852361752801001e-03,-1.754776382207821374e-03
2.019148403385988364e-03,5.693861770292508095e-05,3.353608177204113363e-04,-5.005705177702194806e-04,2.118201031874563430e-04,-6.952399427844898564e-04,-8.950931206931220718e-04
-1.964674151045079785e-04,-2.505846294042580157e-03,1.292188109185593396e-03,2.326828577227574302e-03,1.093674492564471597e-04,4.628549663119164645e-03,-1.340834573174785362e-03
9.823424335416714836e-05,-2.971056597323071236e-04,-7.102461935145509440e-04,4.251352274150537250e-03,-1.358039714442474703e-03,2.949822461916881428e-03,-2.545277290859241509e-03
5.254337411084991226e-05,2.935035164112407592e-03,-1.208215489771166879e-03,5.930935167903551332e-04,-1.177242042680437095e-03,2.392652986026345529e-03,-1.843148770478595169e-03
1.669510349111576588e-03,1.479849403891267531e-03,1.392204247495339945e-03,-3.454440251270150873e-04,1.091850365349235135e-03,-9.548887334389716481e-04,1.624876573121714291e-03
1.011473014290050626e-03,6.917107040381413737e-04,6.987252737464505047e-04,1.120513800831617664e-03,6.843707761757158309e-04,1.124482899067655393e-03,1.066252270481079113e-03
4.275739092467669019e-04,1.420083078757428466e-03,5.882616808832393006e-04,1.364615287258035946e-03,8.776777089690991325e-04,-9.280002033702435026e-04,2.253408861292759049e-03
3.365664302433246939e-04,-1.538563941091196190e-04,-1.611933979708095321e-04,3.025635871390582889e-04,-8.222607923992808056e-06,-9.723649959573426422e-05,-1.124780374819853325e-04
1.082268854779803524e-03,5.767170941265703900e-04,8.892114968364946831e-04,1.298728006576489215e-03,7.426940832420253751e-04,6.523476800650154306e-04,7.849362422013410898e-04
1.048032168321562808e-03,2.272683734261458227e-03,6.905987714483653164e-04,-3.057483931058153155e-04,7.382722943874840031e-04,-2.634643933866759736e-04,1.351294059695088345e-03
2.333529022122777987e-04,6.953966164202384555e-04,4.266742232862158393e-04,-3.053339307533491477e-04,-6.584581509456175537e-05,-3.513235716040528380e-04,-3.972564964798290564e-04
1.175546217533454110e-03,5.422413105502645742e-03,-4.351605012279767407e-04,2.941886523686613499e-03,5.899458803405199141e-04,-2.786978886777718815e-03,-4.407076716564635975e-03
4.307928530006038120e-03,-2.758589484270697421e-03,1.494397710494379866e-03,3.768372748377815749e-03,2.982298265034888114e-04,-2.950363846205152508e-03,-2.248076438577066485e-03
-1.035128338097536039e-03,4.092797336944845846e-04,-2.383466044734429152e-03,-2.584529030899690698e-03,-6.227661772168055412e-04,5.969141907452381324e-03,2.976573251017105692e-03
2.877067219265842107e-03,-1.902072921011925457e-03,6.159998170082497428e-03,3.854843875946663018e-03,4.084908875368833785e-03,-7.776981374441751561e-03,-3.795768959560780371e-03
-1.498676332414347568e-03,-4.535000437510582419e-03,2.223924947472639795e-03,7.983189842014765114e-04,3.089966851663754691e-03,2.119392439883132848e-03,6.931476472761440022e-04
6.036726826305838711e-04,-6.488895049226720739e-04,-1.314988957124502925e-03,4.303312365689000892e-03,-9.337576841729626530e-04,1.332012770680299782e-04,-8.209848220164560686e-04
1.297156324698728617e-04,-8.629579776900417982e-04,1.000777372318516271e-04,-4.940898201471932878e-03,-3.807741850975943803e-04,4.453808655721530098e-03,4.211938584182950418e-03
-4.032355821032254959e-05,-4.348737450801846245e-04,-1.530016803245887050e-04,2.080790238158684944e-03,-6.984169978689834773e-05,2.263392725357898667e-03,2.103008814127587788e-03
1.132276753375888786e-03,-1.304759353955282138e-03,3.873396215850424644e-03,2.920668695979179198e-03,-2.599264613246151778e-04,2.554948010008388677e-03,-4.476313522327522373e-03
-1.421614726830123295e-03,-2.181983441520577664e-03,-7.147771043045566272e-04,4.804964731818270156e-03,6.433151352968320170e-03,-5.701544588365867541e-03,1.925354985644935459e-03
2.793274368775815111e-03,-5.162409445056896466e-04,9.110587746110606960e-04,7.980207356347544800e-04,-1.289816632295106517e-03,-9.057209923846641858e-04,-9.216321102794813218e-04
1.229164031261740847e-03,2.015411104206632845e-03,1.685910500963685565e-03,-2.225551011374737615e-03,2.050126627421750176e-04,3.744238648766491911e-03,-2.456243499264315535e-03
4.597232888197286477e-04,6.729120647173156104e-03,-3.818847967971901198e-03,-5.019204132276630821e-03,-4.070832412002651536e-03,6.278234378636953113e-03,3.092450728950479032e-03
3.697045253271052934e-03,8.360966874896451351e-03,2.295690117270025258e-03,-3.273029603286300472e-03,-3.414239299812267796e-04,-3.480754039521627690e-03,-5.237516247217353579e-03
-1.029287903054039791e-03,-5.143421227161880036e-03,-1.451862470143812714e-03,1.509829346495953750e-03,3.351759752118661350e-03,3.672370322652382564e-03,1.985643376789831584e-03
3.124457325409338987e-03,2.303910694404285534e-03,1.385679573219437098e-03,7.790663851814147835e-04,-9.322084073952733490e-04,-4.017701123073807480e-03,1.086579637755266165e-04
2.935938330533644967e-04,7.801765939207675610e-03,-4.077047461635006139e-04,-1.527463699463744475e-03,2.873981287737036841e-04,-1.658075622196615367e-03,-1.933253955316821537e-03
-6.280718742126497646e-04,-2.229263136757090452e-03,-5.025896398978430555e-04,-9.908197131267223751e-04,4.356403873063317833e-03,-3.974206814290141485e-03,5.251822432394905212e-03
-6.104502160602995461e-04,6.255157854277879244e-03,-1.331780788515821287e-03,1.409308997244413525e-03,-1.245759529453861758e-03,-2.202787144427388773e-03,3.106383573008793838e-04
1.325033302002879719e-03,1.206817233372597725e-03,9.432317386910799798e-04,1.513710095267887688e-03,8.470787094547680687e-04,1.626372759110927173e-03,-1.212394744064829817e-03
1.972212763337011752e-03,4.919619779292006868e-03,-1.611118720764745122e-03,1.027370018046049353e-03,-1.483278658609694760e-03,-1.842439575427784601e-03,-1.750231551349815942e-03
2.395694228641353108e-03,2.317143121137390941e-04,1.776068256178636902e-03,1.987287286058821503e-03,2.402620749632871245e-03,-5.597758153225636810e-04,-2.997114319576609041e-03
1.399415990339614342e-03,1.369381164270746121e-03,9.791617678523085230e-04,1.580804644478231956e-03,1.260358455855020666e-03,8.339435371743404582e-04,-1.562242985483601118e-03
-1.510831949484067347e-03,-5.204021216176090564e-03,-2.899017266484151846e-03,2.056415371800447006e-03,-6.321285696883273582e-04,6.882372564971197745e-03,3.788444546254821077e-03
-5.631270323947232606e-04,-9.442736393234858923e-04,3.529528543268143346e-04,-8.435395381100542120e-05,-8.881352107366994328e-04,5.893847260723596160e-03,-2.497465735636007766e-03
1.590085100200269068e-03,1.686075183011888183e-03,1.607961559138358209e-03,-1.169103799375619847e-03,1.041498556997622364e-03,1.612377089420579572e-03,-5.506990848071941251e-04
8.574293251542977395e-04,3.844251620853255877e-03,6.963736516881056287e-04,3.796158889209133407e-03,1.589241449882675085e-03,-8.279053020620054035e-03,1.277450142414583451e-03
2.349930735733945196e-03,2.252082933895145113e-03,3.134877944157870265e-03,1.384627144145633183e-03,1.848828497184786240e-03,-3.920493968414260830e-03,-1.978106417043297340e-03
9.115547711502668734e-04,6.785894003138943963e-04,1.861893057720955284e-03,-1.481166961525642433e-03,6.865332993893018916e-04,2.410744421910282140e-03,4.448432282723092002e-04
2.126751893667775002e-04,3.726430770929750787e-03,5.438254089720547402e-04,-4.556552524491912746e-03,-1.249330059886478040e-03,4.662183335357752284e-03,1.624181419667559750e-03
4.226328945786796761e-04,-2.714052321575173825e-03,2.331994111581787207e-03,-1.931756064326528230e-03,1.007332115827196247e-03,3.280676544372079263e-03,2.675496622676131440e-03
5.743189215182542681e-04,1.164587118971625217e-03,-2.825074728206379646e-03,7.107869481922713707e-04,-6.686507976204223097e-04,2.790536414932934511e-03,7.251674827358664218e-05
-4.304792054078280042e-04,2.863158595286702506e-03,2.182083995327634141e-03,-5.533621673910529663e-03,1.615701495401604924e-03,1.566183002945159379e-03,2.176711912534915697e-03
-8.426616831537542436e-04,-4.510765641666810745e-03,6.297859058626913923e-04,4.594619266353472571e-03,-8.816847770768856778e-04,2.726160177207090623e-04,3.582397288224154798e-03
2.777619083158630478e-05,-5.896587327557653102e-04,7.357540561015894418e-04,-1.261893210878925963e-04,1.069367439641502561e-03,7.220203179062398280e-04,-1.321595604241107298e-03
2.377041702949236456e-03,1.910570112098216450e-03,2.170556121495110114e-03,2.010667336284025636e-03,2.250417334994867565e-03,-5.157562571233884931e-03,-2.069848426870054983e-04
8.780338829109811567e-04,-3.410529652498776182e-03,2.497720981248624170e-03,3.848212651529810298e-03,3.511811372569265902e-03,-4.193563968154750791e-03,1.524858724455792911e-03
-5.170508226889823861e-04,2.337827316451255612e-03,-7.655272554784937249e-04,-8.171727334311300805e-04,-7.920262973824946425e-04,-9.859154177102220657e-04,2.069712516030456240e-03
-1.390116673178803117e-03,2.157302766128849374e-04,-5.907569960773059303e-04,1.515184488089840612e-03,9.976438438277690415e-04,6.666235787677643986e-03,-3.701278103347229766e-03
-9.537272399291785467e-04,7.605616873389511477e-04,-2.075876693495328808e-03,5.900734771635456413e-03,2.484011609866064061e-04,-2.576362996136399072e-03,3.714338283480393644e-04
4.032259291260388914e-03,-3.853206340236201705e-03,1.330532433623213013e-03,4.676208802048244066e-03,7.803906499451657760e-04,-2.953479385301925088e-03,-2.384959580697576965e-04
4.085303588238448709e-04,-1.790123597781805844e-03,1.782223533625052446e-03,4.639609785683938750e-04,7.206122476395181902e-04,-1.907567902092730579e-03,1.179697920349187220e-03
1.016735165615135486e-03,1.110663037803353561e-03,2.916337304174833941e-03,-3.303665546325609218e-03,9.087780659841566749e-05,-2.004572268812342649e-03,2.955343462035982423e-03
8.148510174513629543e-04,2.260050309502741571e-03,3.535871628181114657e-04,1.856104714940297849e-03,2.945410623875994787e-04,2.353513658918795180e-03,-2.045155797262256537e-03
1.067594459897755130e-03,2.705897938503533644e-03,-6.303815707578072896e-04,2.563388677588688928e-03,-6.397411082014875777e-04,-2.769829352651865303e-03,3.932009731493098497e-04
1.822122238546478815e-03,-1.454925763227549662e-03,1.570341164749811287e-03,4.256589723794690274e-04,1.695033442960192267e-03,-3.475661901671533451e-04,1.319365306156342109e-03
1.111902718166084009e-03,9.789931657810909457e-04,6.191710470441132456e-04,1.136918540273342557e-03,6.723028913948182576e-04,1.048897137545204200e-03,9.519638352243914997e-04
-7.624316606167285760e-04,-1.193611953531491417e-03,2.255946464294344717e-03,-3.180920525269616923e-04,-5.132261894856828769e-04,3.276811512038152463e-03,-2.136850572846443112e-04
1.288271638311739306e-03,9.300086464147468883e-04,1.213896913135251339e-03,2.566760400825472167e-03,6.387810563094470633e-04,3.646518417243240894e-03,-5.470086373866026551e-03
-4.968994023920822613e-05,-7.275947830271783890e-05,4.663509272286380869e-04,1.438470417951256356e-03,2.071683641646281625e-03,-2.327418338565032281e-04,2.074387418714652379e-03
-1.258644372121196439e-04,3.903968841718136011e-03,2.559609737223519227e-03,-4.011617306192364306e-03,2.376815735313205728e-03,-3.264521122912725833e-03,3.227417389984196631e-03
1.894618383545446311e-03,-5.340504755396173388e-04,-3.262575532515674982e-03,5.972944087842825892e-03,-2.177065434053273955e-03,5.743513770813312921e-03,-4.795101368108607362e-03
